<PMML><Header description="RESPECT"><Extension><name>ModelName</name><value>RESPECT</value></Extension></Header><DataDictionary numberOfFields="267"><DataField name="Age_rcs1_c" displayName="" optype="continuous" dataType="integer"/><DataField name="Age_rcs2_c" displayName="" optype="continuous" dataType="integer"/><DataField name="Age_rcs3_c" displayName="" optype="continuous" dataType="integer"/><DataField name="Age_rcs4_c" displayName="" optype="continuous" dataType="integer"/><DataField name="Sex_cat2_1_c" displayName="" optype="continuous" dataType="integer"/><DataField name="BB6_cat5_1_c" displayName="" optype="continuous" dataType="integer"/><DataField name="BB6_cat5_2_c" displayName="" optype="continuous" dataType="integer"/><DataField name="BB6_cat5_3_c" displayName="" optype="continuous" dataType="integer"/><DataField name="BB6_cat5_4_c" displayName="" optype="continuous" dataType="integer"/><DataField name="J1A_cat2_1_c" displayName="" optype="continuous" dataType="integer"/><DataField name="J1B_cat2_1_c" displayName="" optype="continuous" dataType="integer"/><DataField name="J1C_cat2_1_c" displayName="" optype="continuous" dataType="integer"/><DataField name="J1D_cat2_1_c" displayName="" optype="continuous" dataType="integer"/><DataField name="J1DE_cat2_1_c" displayName="" optype="continuous" dataType="integer"/><DataField name="J1K_cat2_1_c" displayName="" optype="continuous" dataType="integer"/><DataField name="J1L_cat2_1_c" displayName="" optype="continuous" dataType="integer"/><DataField name="K2E_cat2_1_c" displayName="" optype="continuous" dataType="integer"/><DataField name="K3D_cat2_1_c" displayName="" optype="continuous" dataType="integer"/><DataField name="K3E_cat2_1_c" displayName="" optype="continuous" dataType="integer"/><DataField name="L1A_cat2_1_c" displayName="" optype="continuous" dataType="integer"/><DataField name="L2C_cat2_1_c" displayName="" optype="continuous" dataType="integer"/><DataField name="L2B_cat2_1_c" displayName="" optype="continuous" dataType="integer"/><DataField name="B2B_cat2_1_c" displayName="" optype="continuous" dataType="integer"/><DataField name="H3_cat2_1_c" displayName="" optype="continuous" dataType="integer"/><DataField name="IADL_cat7_1_c" displayName="" optype="continuous" dataType="integer"/><DataField name="IADL_cat7_2_c" displayName="" optype="continuous" dataType="integer"/><DataField name="IADL_cat7_3_c" displayName="" optype="continuous" dataType="integer"/><DataField name="IADL_cat7_4_c" displayName="" optype="continuous" dataType="integer"/><DataField name="IADL_cat7_5_c" displayName="" optype="continuous" dataType="integer"/><DataField name="IADL_cat7_6_c" displayName="" optype="continuous" dataType="integer"/><DataField name="ADL_cat7_1_c" displayName="" optype="continuous" dataType="integer"/><DataField name="ADL_cat7_2_c" displayName="" optype="continuous" dataType="integer"/><DataField name="ADL_cat7_3_c" displayName="" optype="continuous" dataType="integer"/><DataField name="ADL_cat7_4_c" displayName="" optype="continuous" dataType="integer"/><DataField name="ADL_cat7_5_c" displayName="" optype="continuous" dataType="integer"/><DataField name="ADL_cat7_6_c" displayName="" optype="continuous" dataType="integer"/><DataField name="P4A_cat4_1_c" displayName="" optype="continuous" dataType="integer"/><DataField name="P4A_cat4_2_c" displayName="" optype="continuous" dataType="integer"/><DataField name="P4A_cat4_3_c" displayName="" optype="continuous" dataType="integer"/><DataField name="P4B_cat4_1_c" displayName="" optype="continuous" dataType="integer"/><DataField name="P4B_cat4_2_c" displayName="" optype="continuous" dataType="integer"/><DataField name="P4B_cat4_3_c" displayName="" optype="continuous" dataType="integer"/><DataField name="Renal_cat4_1_c" displayName="" optype="continuous" dataType="integer"/><DataField name="Renal_cat4_2_c" displayName="" optype="continuous" dataType="integer"/><DataField name="Renal_cat4_3_c" displayName="" optype="continuous" dataType="integer"/><DataField name="Oxygen_cat6_1_c" displayName="" optype="continuous" dataType="integer"/><DataField name="Oxygen_cat6_2_c" displayName="" optype="continuous" dataType="integer"/><DataField name="Oxygen_cat6_3_c" displayName="" optype="continuous" dataType="integer"/><DataField name="Oxygen_cat6_4_c" displayName="" optype="continuous" dataType="integer"/><DataField name="Oxygen_cat6_5_c" displayName="" optype="continuous" dataType="integer"/><DataField name="Cancer_cat6_1_c" displayName="" optype="continuous" dataType="integer"/><DataField name="Cancer_cat6_2_c" displayName="" optype="continuous" dataType="integer"/><DataField name="Cancer_cat6_3_c" displayName="" optype="continuous" dataType="integer"/><DataField name="Cancer_cat6_4_c" displayName="" optype="continuous" dataType="integer"/><DataField name="Cancer_cat6_5_c" displayName="" optype="continuous" dataType="integer"/><DataField name="A2_cat5_1_c" displayName="" optype="continuous" dataType="integer"/><DataField name="A2_cat5_2_c" displayName="" optype="continuous" dataType="integer"/><DataField name="A2_cat5_3_c" displayName="" optype="continuous" dataType="integer"/><DataField name="A2_cat5_4_c" displayName="" optype="continuous" dataType="integer"/><DataField name="A1_cat7_1_c" displayName="" optype="continuous" dataType="integer"/><DataField name="A1_cat7_2_c" displayName="" optype="continuous" dataType="integer"/><DataField name="A1_cat7_3_c" displayName="" optype="continuous" dataType="integer"/><DataField name="A1_cat7_4_c" displayName="" optype="continuous" dataType="integer"/><DataField name="A1_cat7_5_c" displayName="" optype="continuous" dataType="integer"/><DataField name="A1_cat7_6_c" displayName="" optype="continuous" dataType="integer"/><DataField name="K8E_cat2_1_c" displayName="" optype="continuous" dataType="integer"/><DataField name="Age_rcs1" displayName="" optype="continuous" dataType="integer"/><DataField name="age" displayName="" optype="continuous" dataType="integer"/><DataField name="Sex_cat2" displayName="" optype="continuous" dataType="integer"/><DataField name="sex" displayName="" optype="continuous" dataType="integer"/><DataField name="BB6_cat5" displayName="" optype="continuous" dataType="integer"/><DataField name="BB6" displayName="" optype="continuous" dataType="integer"/><DataField name="B2B_cat2" displayName="" optype="continuous" dataType="integer"/><DataField name="B2B" displayName="" optype="continuous" dataType="integer"/><DataField name="K8E_cat2" displayName="" optype="continuous" dataType="integer"/><DataField name="K8E" displayName="" optype="continuous" dataType="integer"/><DataField name="P4A_cat4" displayName="" optype="continuous" dataType="integer"/><DataField name="P4A" displayName="" optype="continuous" dataType="integer"/><DataField name="P4B_cat4" displayName="" optype="continuous" dataType="integer"/><DataField name="P4B" displayName="" optype="continuous" dataType="integer"/><DataField name="H3_cat2" displayName="" optype="continuous" dataType="integer"/><DataField name="H3" displayName="" optype="continuous" dataType="integer"/><DataField name="J1A_cat2" displayName="" optype="continuous" dataType="integer"/><DataField name="Diseases_J1A" displayName="" optype="continuous" dataType="integer"/><DataField name="J1B_cat2" displayName="" optype="continuous" dataType="integer"/><DataField name="Diseases_J1B" displayName="" optype="continuous" dataType="integer"/><DataField name="J1C_cat2" displayName="" optype="continuous" dataType="integer"/><DataField name="Diseases_J1C" displayName="" optype="continuous" dataType="integer"/><DataField name="J1D_cat2" displayName="" optype="continuous" dataType="integer"/><DataField name="Diseases_J1D" displayName="" optype="continuous" dataType="integer"/><DataField name="J1DE_cat2" displayName="" optype="continuous" dataType="integer"/><DataField name="Diseases_J1DE" displayName="" optype="continuous" dataType="integer"/><DataField name="J1K_cat2" displayName="" optype="continuous" dataType="integer"/><DataField name="Diseases_J1K" displayName="" optype="continuous" dataType="integer"/><DataField name="J1L_cat2" displayName="" optype="continuous" dataType="integer"/><DataField name="Diseases_J1L" displayName="" optype="continuous" dataType="integer"/><DataField name="K2E_cat2" displayName="" optype="continuous" dataType="integer"/><DataField name="K2_K2E" displayName="" optype="continuous" dataType="integer"/><DataField name="K3D_cat2" displayName="" optype="continuous" dataType="integer"/><DataField name="K3_K3D" displayName="" optype="continuous" dataType="integer"/><DataField name="K3E_cat2" displayName="" optype="continuous" dataType="integer"/><DataField name="K3_K3E" displayName="" optype="continuous" dataType="integer"/><DataField name="L1A_cat2" displayName="" optype="continuous" dataType="integer"/><DataField name="L1A_L1A1" displayName="" optype="continuous" dataType="integer"/><DataField name="L1A_L1A2" displayName="" optype="continuous" dataType="integer"/><DataField name="L2C_cat2" displayName="" optype="continuous" dataType="integer"/><DataField name="K2_L2C" displayName="" optype="continuous" dataType="integer"/><DataField name="L2B_cat2" displayName="" optype="continuous" dataType="integer"/><DataField name="K2_L2B" displayName="" optype="continuous" dataType="integer"/><DataField name="J1Z_cat2" displayName="" optype="continuous" dataType="integer"/><DataField name="Diseases_J1Z" displayName="" optype="continuous" dataType="integer"/><DataField name="P2OXY_cat3" displayName="" optype="continuous" dataType="integer"/><DataField name="Sched_P2OXY" displayName="" optype="continuous" dataType="integer"/><DataField name="Oxygen_cat6" displayName="" optype="continuous" dataType="integer"/><DataField name="specialtherapy_P0" displayName="" optype="continuous" dataType="integer"/><DataField name="J1AA_cat2" displayName="" optype="continuous" dataType="integer"/><DataField name="Diseases_J1AA" displayName="" optype="continuous" dataType="integer"/><DataField name="P2G_cat3" displayName="" optype="continuous" dataType="integer"/><DataField name="Sched_P2G" displayName="" optype="continuous" dataType="integer"/><DataField name="Renal_cat4" displayName="" optype="continuous" dataType="integer"/><DataField name="P2F_cat3" displayName="" optype="continuous" dataType="integer"/><DataField name="Sched_P2F" displayName="" optype="continuous" dataType="integer"/><DataField name="J1X_cat2" displayName="" optype="continuous" dataType="integer"/><DataField name="Diseases_J1X" displayName="" optype="continuous" dataType="integer"/><DataField name="Cancer_cat6" displayName="" optype="continuous" dataType="integer"/><DataField name="ADLdiff_H2I_formatted" displayName="" optype="continuous" dataType="integer"/><DataField name="ADLdiff_H2I" displayName="" optype="continuous" dataType="integer"/><DataField name="ADLdiff_H2H_formatted" displayName="" optype="continuous" dataType="integer"/><DataField name="ADLdiff_H2H" displayName="" optype="continuous" dataType="integer"/><DataField name="ADLdiff_H2C_formatted" displayName="" optype="continuous" dataType="integer"/><DataField name="ADLdiff_H2C" displayName="" optype="continuous" dataType="integer"/><DataField name="ADLdiff_H2G_formatted" displayName="" optype="continuous" dataType="integer"/><DataField name="ADLdiff_H2G" displayName="" optype="continuous" dataType="integer"/><DataField name="ADL_cat7" displayName="" optype="continuous" dataType="integer"/><DataField name="ADL_H0ADL" displayName="" optype="continuous" dataType="integer"/><DataField name="IADLdiff_H1AB_formatted" displayName="" optype="continuous" dataType="integer"/><DataField name="IADLdiff_H1AB" displayName="" optype="continuous" dataType="integer"/><DataField name="IADL_H1AB" displayName="" optype="continuous" dataType="integer"/><DataField name="IADLdiff_H1BB_formatted" displayName="" optype="continuous" dataType="integer"/><DataField name="IADLdiff_H1BB" displayName="" optype="continuous" dataType="integer"/><DataField name="IADL_H1BB" displayName="" optype="continuous" dataType="integer"/><DataField name="IADdiff_H1EB_formatted" displayName="" optype="continuous" dataType="integer"/><DataField name="IADLdiff_H1EB" displayName="" optype="continuous" dataType="integer"/><DataField name="IADL_H1EB" displayName="" optype="continuous" dataType="integer"/><DataField name="IADL_cat7" displayName="" optype="continuous" dataType="integer"/><DataField name="IADL_H0IADL" displayName="" optype="continuous" dataType="integer"/><DataField name="IADLdiff_H1EB_formatted" displayName="" optype="continuous" dataType="integer"/><DataField name="BB6_cat5_1" displayName="" optype="continuous" dataType="integer"/><DataField name="BB6_cat5_2" displayName="" optype="continuous" dataType="integer"/><DataField name="BB6_cat5_3" displayName="" optype="continuous" dataType="integer"/><DataField name="BB6_cat5_4" displayName="" optype="continuous" dataType="integer"/><DataField name="BB6_cat5_5" displayName="" optype="continuous" dataType="integer"/><DataField name="J1A_cat2_1" displayName="" optype="continuous" dataType="integer"/><DataField name="J1A_cat2_2" displayName="" optype="continuous" dataType="integer"/><DataField name="J1B_cat2_1" displayName="" optype="continuous" dataType="integer"/><DataField name="J1B_cat2_2" displayName="" optype="continuous" dataType="integer"/><DataField name="J1C_cat2_1" displayName="" optype="continuous" dataType="integer"/><DataField name="J1C_cat2_2" displayName="" optype="continuous" dataType="integer"/><DataField name="J1D_cat2_1" displayName="" optype="continuous" dataType="integer"/><DataField name="J1D_cat2_2" displayName="" optype="continuous" dataType="integer"/><DataField name="J1DE_cat2_1" displayName="" optype="continuous" dataType="integer"/><DataField name="J1DE_cat2_2" displayName="" optype="continuous" dataType="integer"/><DataField name="J1K_cat2_1" displayName="" optype="continuous" dataType="integer"/><DataField name="J1K_cat2_2" displayName="" optype="continuous" dataType="integer"/><DataField name="J1L_cat2_1" displayName="" optype="continuous" dataType="integer"/><DataField name="J1L_cat2_2" displayName="" optype="continuous" dataType="integer"/><DataField name="K2E_cat2_1" displayName="" optype="continuous" dataType="integer"/><DataField name="K2E_cat2_2" displayName="" optype="continuous" dataType="integer"/><DataField name="K3D_cat2_1" displayName="" optype="continuous" dataType="integer"/><DataField name="K3D_cat2_2" displayName="" optype="continuous" dataType="integer"/><DataField name="K3E_cat2_1" displayName="" optype="continuous" dataType="integer"/><DataField name="K3E_cat2_2" displayName="" optype="continuous" dataType="integer"/><DataField name="L1A_cat2_1" displayName="" optype="continuous" dataType="integer"/><DataField name="L1A_cat2_2" displayName="" optype="continuous" dataType="integer"/><DataField name="L2C_cat2_1" displayName="" optype="continuous" dataType="integer"/><DataField name="L2C_cat2_2" displayName="" optype="continuous" dataType="integer"/><DataField name="L2B_cat2_1" displayName="" optype="continuous" dataType="integer"/><DataField name="L2B_cat2_2" displayName="" optype="continuous" dataType="integer"/><DataField name="B2B_cat2_1" displayName="" optype="continuous" dataType="integer"/><DataField name="B2B_cat2_2" displayName="" optype="continuous" dataType="integer"/><DataField name="H3_cat2_1" displayName="" optype="continuous" dataType="integer"/><DataField name="H3_cat2_2" displayName="" optype="continuous" dataType="integer"/><DataField name="IADL_cat7_1" displayName="" optype="continuous" dataType="integer"/><DataField name="IADL_cat7_2" displayName="" optype="continuous" dataType="integer"/><DataField name="IADL_cat7_3" displayName="" optype="continuous" dataType="integer"/><DataField name="IADL_cat7_4" displayName="" optype="continuous" dataType="integer"/><DataField name="IADL_cat7_5" displayName="" optype="continuous" dataType="integer"/><DataField name="IADL_cat7_6" displayName="" optype="continuous" dataType="integer"/><DataField name="IADL_cat7_7" displayName="" optype="continuous" dataType="integer"/><DataField name="ADL_cat7_1" displayName="" optype="continuous" dataType="integer"/><DataField name="ADL_cat7_2" displayName="" optype="continuous" dataType="integer"/><DataField name="ADL_cat7_3" displayName="" optype="continuous" dataType="integer"/><DataField name="ADL_cat7_4" displayName="" optype="continuous" dataType="integer"/><DataField name="ADL_cat7_5" displayName="" optype="continuous" dataType="integer"/><DataField name="ADL_cat7_6" displayName="" optype="continuous" dataType="integer"/><DataField name="ADL_cat7_7" displayName="" optype="continuous" dataType="integer"/><DataField name="P4A_cat4_1" displayName="" optype="continuous" dataType="integer"/><DataField name="P4A_cat4_2" displayName="" optype="continuous" dataType="integer"/><DataField name="P4A_cat4_3" displayName="" optype="continuous" dataType="integer"/><DataField name="P4A_cat4_4" displayName="" optype="continuous" dataType="integer"/><DataField name="P4B_cat4_1" displayName="" optype="continuous" dataType="integer"/><DataField name="P4B_cat4_2" displayName="" optype="continuous" dataType="integer"/><DataField name="P4B_cat4_3" displayName="" optype="continuous" dataType="integer"/><DataField name="P4B_cat4_4" displayName="" optype="continuous" dataType="integer"/><DataField name="Renal_cat4_1" displayName="" optype="continuous" dataType="integer"/><DataField name="Renal_cat4_2" displayName="" optype="continuous" dataType="integer"/><DataField name="Renal_cat4_3" displayName="" optype="continuous" dataType="integer"/><DataField name="Renal_cat4_4" displayName="" optype="continuous" dataType="integer"/><DataField name="Oxygen_cat6_1" displayName="" optype="continuous" dataType="integer"/><DataField name="Oxygen_cat6_2" displayName="" optype="continuous" dataType="integer"/><DataField name="Oxygen_cat6_3" displayName="" optype="continuous" dataType="integer"/><DataField name="Oxygen_cat6_4" displayName="" optype="continuous" dataType="integer"/><DataField name="Oxygen_cat6_5" displayName="" optype="continuous" dataType="integer"/><DataField name="Oxygen_cat6_6" displayName="" optype="continuous" dataType="integer"/><DataField name="Cancer_cat6_1" displayName="" optype="continuous" dataType="integer"/><DataField name="Cancer_cat6_2" displayName="" optype="continuous" dataType="integer"/><DataField name="Cancer_cat6_3" displayName="" optype="continuous" dataType="integer"/><DataField name="Cancer_cat6_4" displayName="" optype="continuous" dataType="integer"/><DataField name="Cancer_cat6_5" displayName="" optype="continuous" dataType="integer"/><DataField name="Cancer_cat6_6" displayName="" optype="continuous" dataType="integer"/><DataField name="A2_cat5_1" displayName="" optype="continuous" dataType="integer"/><DataField name="A2_cat5" displayName="" optype="continuous" dataType="integer"/><DataField name="A2_cat5_2" displayName="" optype="continuous" dataType="integer"/><DataField name="A2_cat5_3" displayName="" optype="continuous" dataType="integer"/><DataField name="A2_cat5_4" displayName="" optype="continuous" dataType="integer"/><DataField name="A2_cat5_5" displayName="" optype="continuous" dataType="integer"/><DataField name="K8E_cat2_1" displayName="" optype="continuous" dataType="integer"/><DataField name="K8E_cat2_2" displayName="" optype="continuous" dataType="integer"/><DataField name="A1_cat7_1" displayName="" optype="continuous" dataType="integer"/><DataField name="A1_cat7" displayName="" optype="continuous" dataType="integer"/><DataField name="A1_cat7_2" displayName="" optype="continuous" dataType="integer"/><DataField name="A1_cat7_3" displayName="" optype="continuous" dataType="integer"/><DataField name="A1_cat7_4" displayName="" optype="continuous" dataType="integer"/><DataField name="A1_cat7_5" displayName="" optype="continuous" dataType="integer"/><DataField name="A1_cat7_6" displayName="" optype="continuous" dataType="integer"/><DataField name="A1_cat7_7" displayName="" optype="continuous" dataType="integer"/><DataField name="Sex_cat2_1" displayName="" optype="continuous" dataType="integer"/><DataField name="Sex_cat2_2" displayName="" optype="continuous" dataType="integer"/><DataField name="BB6_cat5_5_c" displayName="" optype="continuous" dataType="integer"/><DataField name="J1A_cat2_2_c" displayName="" optype="continuous" dataType="integer"/><DataField name="J1B_cat2_2_c" displayName="" optype="continuous" dataType="integer"/><DataField name="J1C_cat2_2_c" displayName="" optype="continuous" dataType="integer"/><DataField name="J1D_cat2_2_c" displayName="" optype="continuous" dataType="integer"/><DataField name="J1DE_cat2_2_c" displayName="" optype="continuous" dataType="integer"/><DataField name="J1K_cat2_2_c" displayName="" optype="continuous" dataType="integer"/><DataField name="J1L_cat2_2_c" displayName="" optype="continuous" dataType="integer"/><DataField name="K2E_cat2_2_c" displayName="" optype="continuous" dataType="integer"/><DataField name="K3D_cat2_2_c" displayName="" optype="continuous" dataType="integer"/><DataField name="K3E_cat2_2_c" displayName="" optype="continuous" dataType="integer"/><DataField name="L1A_cat2_2_c" displayName="" optype="continuous" dataType="integer"/><DataField name="L2C_cat2_2_c" displayName="" optype="continuous" dataType="integer"/><DataField name="L2B_cat2_2_c" displayName="" optype="continuous" dataType="integer"/><DataField name="B2B_cat2_2_c" displayName="" optype="continuous" dataType="integer"/><DataField name="H3_cat2_2_c" displayName="" optype="continuous" dataType="integer"/><DataField name="IADL_cat7_7_c" displayName="" optype="continuous" dataType="integer"/><DataField name="ADL_cat7_7_c" displayName="" optype="continuous" dataType="integer"/><DataField name="P4A_cat4_4_c" displayName="" optype="continuous" dataType="integer"/><DataField name="P4B_cat4_4_c" displayName="" optype="continuous" dataType="integer"/><DataField name="Renal_cat4_4_c" displayName="" optype="continuous" dataType="integer"/><DataField name="Oxygen_cat6_6_c" displayName="" optype="continuous" dataType="integer"/><DataField name="Cancer_cat6_6_c" displayName="" optype="continuous" dataType="integer"/><DataField name="A2_cat5_5_c" displayName="" optype="continuous" dataType="integer"/><DataField name="K8E_cat2_2_c" displayName="" optype="continuous" dataType="integer"/><DataField name="A1_cat7_7_c" displayName="" optype="continuous" dataType="integer"/><DataField name="Age_cont_c" displayName="" optype="continuous" dataType="integer"/><DataField name="Age_cont" displayName="" optype="continuous" dataType="integer"/><DataField name="Sex_cat2_2_c" displayName="" optype="continuous" dataType="integer"/></DataDictionary><LocalTransformations><DefineFunction name="last.fun"><ParameterField name="x" dataType="double"/><Apply function="as.numeric"><Apply function="ifelse"><Apply function="equal"><Apply function="is.na"><FieldRef field="x"/></Apply><Constant dataType="double">1</Constant></Apply><Constant dataType="NA">NA</Constant><Apply function="substr"><FieldRef field="x"/><Apply function="nchar"><FieldRef field="x"/></Apply><Apply function="nchar"><FieldRef field="x"/></Apply></Apply></Apply></Apply></DefineFunction><DefineFunction name="default(p2oxy_cat3)"><ParameterField name="p2oxy_cat3" dataType="double"/><ParameterField name="j1z_cat2" dataType="double"/><Apply function="if"><Apply function="equal"><FieldRef field="p2oxy_cat3"/><Constant dataType="NA">NA</Constant></Apply><Constant dataType="double">0</Constant><FieldRef field="p2oxy_cat3"/></Apply></DefineFunction><DefineFunction name="default(j1z_cat2)"><ParameterField name="p2oxy_cat3" dataType="double"/><ParameterField name="j1z_cat2" dataType="double"/><Apply function="if"><Apply function="equal"><FieldRef field="j1z_cat2"/><Constant dataType="NA">NA</Constant></Apply><Constant dataType="double">0</Constant><FieldRef field="j1z_cat2"/></Apply></DefineFunction><DefineFunction name="oxygen_cat6.fun"><ParameterField name="p2oxy_cat3" dataType="double"/><ParameterField name="j1z_cat2" dataType="double"/><Apply function="ifelse"><Apply function="and"><Apply function="equal"><Apply function="default(j1z_cat2)"><FieldRef field="p2oxy_cat3"/><FieldRef field="j1z_cat2"/></Apply><Constant dataType="double">0</Constant></Apply><Apply function="equal"><Apply function="default(p2oxy_cat3)"><FieldRef field="p2oxy_cat3"/><FieldRef field="j1z_cat2"/></Apply><Constant dataType="double">0</Constant></Apply></Apply><Constant dataType="double">0</Constant><Apply function="ifelse"><Apply function="and"><Apply function="equal"><Apply function="default(j1z_cat2)"><FieldRef field="p2oxy_cat3"/><FieldRef field="j1z_cat2"/></Apply><Constant dataType="double">0</Constant></Apply><Apply function="equal"><Apply function="default(p2oxy_cat3)"><FieldRef field="p2oxy_cat3"/><FieldRef field="j1z_cat2"/></Apply><Constant dataType="double">1</Constant></Apply></Apply><Constant dataType="double">1</Constant><Apply function="ifelse"><Apply function="and"><Apply function="equal"><Apply function="default(j1z_cat2)"><FieldRef field="p2oxy_cat3"/><FieldRef field="j1z_cat2"/></Apply><Constant dataType="double">0</Constant></Apply><Apply function="equal"><Apply function="default(p2oxy_cat3)"><FieldRef field="p2oxy_cat3"/><FieldRef field="j1z_cat2"/></Apply><Constant dataType="double">2</Constant></Apply></Apply><Constant dataType="double">2</Constant><Apply function="ifelse"><Apply function="and"><Apply function="equal"><Apply function="default(j1z_cat2)"><FieldRef field="p2oxy_cat3"/><FieldRef field="j1z_cat2"/></Apply><Constant dataType="double">1</Constant></Apply><Apply function="equal"><Apply function="default(p2oxy_cat3)"><FieldRef field="p2oxy_cat3"/><FieldRef field="j1z_cat2"/></Apply><Constant dataType="double">0</Constant></Apply></Apply><Constant dataType="double">3</Constant><Apply function="ifelse"><Apply function="and"><Apply function="equal"><Apply function="default(j1z_cat2)"><FieldRef field="p2oxy_cat3"/><FieldRef field="j1z_cat2"/></Apply><Constant dataType="double">1</Constant></Apply><Apply function="equal"><Apply function="default(p2oxy_cat3)"><FieldRef field="p2oxy_cat3"/><FieldRef field="j1z_cat2"/></Apply><Constant dataType="double">1</Constant></Apply></Apply><Constant dataType="double">4</Constant><Apply function="ifelse"><Apply function="and"><Apply function="equal"><Apply function="default(j1z_cat2)"><FieldRef field="p2oxy_cat3"/><FieldRef field="j1z_cat2"/></Apply><Constant dataType="double">1</Constant></Apply><Apply function="equal"><Apply function="default(p2oxy_cat3)"><FieldRef field="p2oxy_cat3"/><FieldRef field="j1z_cat2"/></Apply><Constant dataType="double">2</Constant></Apply></Apply><Constant dataType="double">5</Constant><Constant dataType="NA">NA</Constant></Apply></Apply></Apply></Apply></Apply></Apply></DefineFunction><DefineFunction name="default(j1aa_cat2)"><ParameterField name="j1aa_cat2" dataType="double"/><ParameterField name="p2g_cat3" dataType="double"/><Apply function="if"><Apply function="equal"><FieldRef field="j1aa_cat2"/><Constant dataType="NA">NA</Constant></Apply><Constant dataType="double">0</Constant><FieldRef field="j1aa_cat2"/></Apply></DefineFunction><DefineFunction name="default(p2g_cat3)"><ParameterField name="j1aa_cat2" dataType="double"/><ParameterField name="p2g_cat3" dataType="double"/><Apply function="if"><Apply function="equal"><FieldRef field="p2g_cat3"/><Constant dataType="NA">NA</Constant></Apply><Constant dataType="double">0</Constant><FieldRef field="p2g_cat3"/></Apply></DefineFunction><DefineFunction name="renal_cat4.fun"><ParameterField name="j1aa_cat2" dataType="double"/><ParameterField name="p2g_cat3" dataType="double"/><Apply function="ifelse"><Apply function="and"><Apply function="equal"><Apply function="default(j1aa_cat2)"><FieldRef field="j1aa_cat2"/><FieldRef field="p2g_cat3"/></Apply><Constant dataType="double">0</Constant></Apply><Apply function="equal"><Apply function="default(p2g_cat3)"><FieldRef field="j1aa_cat2"/><FieldRef field="p2g_cat3"/></Apply><Constant dataType="double">0</Constant></Apply></Apply><Constant dataType="double">0</Constant><Apply function="ifelse"><Apply function="and"><Apply function="equal"><Apply function="default(j1aa_cat2)"><FieldRef field="j1aa_cat2"/><FieldRef field="p2g_cat3"/></Apply><Constant dataType="double">1</Constant></Apply><Apply function="equal"><Apply function="default(p2g_cat3)"><FieldRef field="j1aa_cat2"/><FieldRef field="p2g_cat3"/></Apply><Constant dataType="double">0</Constant></Apply></Apply><Constant dataType="double">1</Constant><Apply function="ifelse"><Apply function="and"><Apply function="equal"><Apply function="default(j1aa_cat2)"><FieldRef field="j1aa_cat2"/><FieldRef field="p2g_cat3"/></Apply><Constant dataType="double">1</Constant></Apply><Apply function="equal"><Apply function="default(p2g_cat3)"><FieldRef field="j1aa_cat2"/><FieldRef field="p2g_cat3"/></Apply><Constant dataType="double">1</Constant></Apply></Apply><Constant dataType="double">2</Constant><Apply function="ifelse"><Apply function="and"><Apply function="equal"><Apply function="default(j1aa_cat2)"><FieldRef field="j1aa_cat2"/><FieldRef field="p2g_cat3"/></Apply><Constant dataType="double">1</Constant></Apply><Apply function="equal"><Apply function="default(p2g_cat3)"><FieldRef field="j1aa_cat2"/><FieldRef field="p2g_cat3"/></Apply><Constant dataType="double">2</Constant></Apply></Apply><Constant dataType="double">3</Constant><Constant dataType="NA">NA</Constant></Apply></Apply></Apply></Apply></DefineFunction><DefineFunction name="default(p2f_cat3)"><ParameterField name="p2f_cat3" dataType="double"/><ParameterField name="j1x_cat2" dataType="double"/><Apply function="if"><Apply function="equal"><FieldRef field="p2f_cat3"/><Constant dataType="NA">NA</Constant></Apply><Constant dataType="double">0</Constant><FieldRef field="p2f_cat3"/></Apply></DefineFunction><DefineFunction name="default(j1x_cat2)"><ParameterField name="p2f_cat3" dataType="double"/><ParameterField name="j1x_cat2" dataType="double"/><Apply function="if"><Apply function="equal"><FieldRef field="j1x_cat2"/><Constant dataType="NA">NA</Constant></Apply><Constant dataType="double">0</Constant><FieldRef field="j1x_cat2"/></Apply></DefineFunction><DefineFunction name="cancer_cat6.fun"><ParameterField name="p2f_cat3" dataType="double"/><ParameterField name="j1x_cat2" dataType="double"/><Apply function="ifelse"><Apply function="and"><Apply function="equal"><Apply function="default(j1x_cat2)"><FieldRef field="p2f_cat3"/><FieldRef field="j1x_cat2"/></Apply><Constant dataType="double">0</Constant></Apply><Apply function="equal"><Apply function="default(p2f_cat3)"><FieldRef field="p2f_cat3"/><FieldRef field="j1x_cat2"/></Apply><Constant dataType="double">0</Constant></Apply></Apply><Constant dataType="double">0</Constant><Apply function="ifelse"><Apply function="and"><Apply function="equal"><Apply function="default(j1x_cat2)"><FieldRef field="p2f_cat3"/><FieldRef field="j1x_cat2"/></Apply><Constant dataType="double">0</Constant></Apply><Apply function="equal"><Apply function="default(p2f_cat3)"><FieldRef field="p2f_cat3"/><FieldRef field="j1x_cat2"/></Apply><Constant dataType="double">1</Constant></Apply></Apply><Constant dataType="double">1</Constant><Apply function="ifelse"><Apply function="and"><Apply function="equal"><Apply function="default(j1x_cat2)"><FieldRef field="p2f_cat3"/><FieldRef field="j1x_cat2"/></Apply><Constant dataType="double">0</Constant></Apply><Apply function="equal"><Apply function="default(p2f_cat3)"><FieldRef field="p2f_cat3"/><FieldRef field="j1x_cat2"/></Apply><Constant dataType="double">2</Constant></Apply></Apply><Constant dataType="double">2</Constant><Apply function="ifelse"><Apply function="and"><Apply function="equal"><Apply function="default(j1x_cat2)"><FieldRef field="p2f_cat3"/><FieldRef field="j1x_cat2"/></Apply><Constant dataType="double">1</Constant></Apply><Apply function="equal"><Apply function="default(p2f_cat3)"><FieldRef field="p2f_cat3"/><FieldRef field="j1x_cat2"/></Apply><Constant dataType="double">0</Constant></Apply></Apply><Constant dataType="double">3</Constant><Apply function="ifelse"><Apply function="and"><Apply function="equal"><Apply function="default(j1x_cat2)"><FieldRef field="p2f_cat3"/><FieldRef field="j1x_cat2"/></Apply><Constant dataType="double">1</Constant></Apply><Apply function="equal"><Apply function="default(p2f_cat3)"><FieldRef field="p2f_cat3"/><FieldRef field="j1x_cat2"/></Apply><Constant dataType="double">1</Constant></Apply></Apply><Constant dataType="double">4</Constant><Apply function="ifelse"><Apply function="and"><Apply function="equal"><Apply function="default(j1x_cat2)"><FieldRef field="p2f_cat3"/><FieldRef field="j1x_cat2"/></Apply><Constant dataType="double">1</Constant></Apply><Apply function="equal"><Apply function="default(p2f_cat3)"><FieldRef field="p2f_cat3"/><FieldRef field="j1x_cat2"/></Apply><Constant dataType="double">2</Constant></Apply></Apply><Constant dataType="double">5</Constant><Constant dataType="NA">NA</Constant></Apply></Apply></Apply></Apply></Apply></Apply></DefineFunction><DefineFunction name="default(H2I)"><ParameterField name="H2I" dataType="double"/><ParameterField name="H2H" dataType="double"/><ParameterField name="H2C" dataType="double"/><ParameterField name="H2G" dataType="double"/><Apply function="if"><Apply function="equal"><FieldRef field="H2I"/><Constant dataType="NA">NA</Constant></Apply><Constant dataType="double">0</Constant><FieldRef field="H2I"/></Apply></DefineFunction><DefineFunction name="default(H2H)"><ParameterField name="H2I" dataType="double"/><ParameterField name="H2H" dataType="double"/><ParameterField name="H2C" dataType="double"/><ParameterField name="H2G" dataType="double"/><Apply function="if"><Apply function="equal"><FieldRef field="H2H"/><Constant dataType="NA">NA</Constant></Apply><Constant dataType="double">0</Constant><FieldRef field="H2H"/></Apply></DefineFunction><DefineFunction name="default(H2C)"><ParameterField name="H2I" dataType="double"/><ParameterField name="H2H" dataType="double"/><ParameterField name="H2C" dataType="double"/><ParameterField name="H2G" dataType="double"/><Apply function="if"><Apply function="equal"><FieldRef field="H2C"/><Constant dataType="NA">NA</Constant></Apply><Constant dataType="double">0</Constant><FieldRef field="H2C"/></Apply></DefineFunction><DefineFunction name="default(H2G)"><ParameterField name="H2I" dataType="double"/><ParameterField name="H2H" dataType="double"/><ParameterField name="H2C" dataType="double"/><ParameterField name="H2G" dataType="double"/><Apply function="if"><Apply function="equal"><FieldRef field="H2G"/><Constant dataType="NA">NA</Constant></Apply><Constant dataType="double">0</Constant><FieldRef field="H2G"/></Apply></DefineFunction><DefineFunction name="adl.fun"><ParameterField name="H2I" dataType="double"/><ParameterField name="H2H" dataType="double"/><ParameterField name="H2C" dataType="double"/><ParameterField name="H2G" dataType="double"/><Apply function="ifelse"><Apply function="and"><Apply function="and"><Apply function="and"><Apply function="equal"><Apply function="default(H2I)"><FieldRef field="H2I"/><FieldRef field="H2H"/><FieldRef field="H2C"/><FieldRef field="H2G"/></Apply><Constant dataType="double">4</Constant></Apply><Apply function="equal"><Apply function="default(H2H)"><FieldRef field="H2I"/><FieldRef field="H2H"/><FieldRef field="H2C"/><FieldRef field="H2G"/></Apply><Constant dataType="double">4</Constant></Apply></Apply><Apply function="equal"><Apply function="default(H2C)"><FieldRef field="H2I"/><FieldRef field="H2H"/><FieldRef field="H2C"/><FieldRef field="H2G"/></Apply><Constant dataType="double">4</Constant></Apply></Apply><Apply function="equal"><Apply function="default(H2G)"><FieldRef field="H2I"/><FieldRef field="H2H"/><FieldRef field="H2C"/><FieldRef field="H2G"/></Apply><Constant dataType="double">4</Constant></Apply></Apply><Constant dataType="double">6</Constant><Apply function="ifelse"><Apply function="or"><Apply function="equal"><Apply function="default(H2G)"><FieldRef field="H2I"/><FieldRef field="H2H"/><FieldRef field="H2C"/><FieldRef field="H2G"/></Apply><Constant dataType="double">4</Constant></Apply><Apply function="equal"><Apply function="default(H2C)"><FieldRef field="H2I"/><FieldRef field="H2H"/><FieldRef field="H2C"/><FieldRef field="H2G"/></Apply><Constant dataType="double">4</Constant></Apply></Apply><Constant dataType="double">5</Constant><Apply function="ifelse"><Apply function="or"><Apply function="equal"><Apply function="default(H2C)"><FieldRef field="H2I"/><FieldRef field="H2H"/><FieldRef field="H2C"/><FieldRef field="H2G"/></Apply><Constant dataType="double">3</Constant></Apply><Apply function="equal"><Apply function="default(H2G)"><FieldRef field="H2I"/><FieldRef field="H2H"/><FieldRef field="H2C"/><FieldRef field="H2G"/></Apply><Constant dataType="double">3</Constant></Apply></Apply><Constant dataType="double">4</Constant><Apply function="ifelse"><Apply function="and"><Apply function="and"><Apply function="or"><Apply function="greaterOrEqual"><Apply function="default(H2I)"><FieldRef field="H2I"/><FieldRef field="H2H"/><FieldRef field="H2C"/><FieldRef field="H2G"/></Apply><Constant dataType="double">3</Constant></Apply><Apply function="greaterOrEqual"><Apply function="default(H2H)"><FieldRef field="H2I"/><FieldRef field="H2H"/><FieldRef field="H2C"/><FieldRef field="H2G"/></Apply><Constant dataType="double">3</Constant></Apply></Apply><Apply function="lessThan"><Apply function="default(H2C)"><FieldRef field="H2I"/><FieldRef field="H2H"/><FieldRef field="H2C"/><FieldRef field="H2G"/></Apply><Constant dataType="double">3</Constant></Apply></Apply><Apply function="lessThan"><Apply function="default(H2C)"><FieldRef field="H2I"/><FieldRef field="H2H"/><FieldRef field="H2C"/><FieldRef field="H2G"/></Apply><Constant dataType="double">3</Constant></Apply></Apply><Constant dataType="double">3</Constant><Apply function="ifelse"><Apply function="and"><Apply function="or"><Apply function="or"><Apply function="or"><Apply function="equal"><Apply function="default(H2I)"><FieldRef field="H2I"/><FieldRef field="H2H"/><FieldRef field="H2C"/><FieldRef field="H2G"/></Apply><Constant dataType="double">2</Constant></Apply><Apply function="equal"><Apply function="default(H2H)"><FieldRef field="H2I"/><FieldRef field="H2H"/><FieldRef field="H2C"/><FieldRef field="H2G"/></Apply><Constant dataType="double">2</Constant></Apply></Apply><Apply function="equal"><Apply function="default(H2C)"><FieldRef field="H2I"/><FieldRef field="H2H"/><FieldRef field="H2C"/><FieldRef field="H2G"/></Apply><Constant dataType="double">2</Constant></Apply></Apply><Apply function="equal"><Apply function="default(H2G)"><FieldRef field="H2I"/><FieldRef field="H2H"/><FieldRef field="H2C"/><FieldRef field="H2G"/></Apply><Constant dataType="double">2</Constant></Apply></Apply><Apply function="and"><Apply function="and"><Apply function="and"><Apply function="lessThan"><Apply function="default(H2I)"><FieldRef field="H2I"/><FieldRef field="H2H"/><FieldRef field="H2C"/><FieldRef field="H2G"/></Apply><Constant dataType="double">3</Constant></Apply><Apply function="lessThan"><Apply function="default(H2H)"><FieldRef field="H2I"/><FieldRef field="H2H"/><FieldRef field="H2C"/><FieldRef field="H2G"/></Apply><Constant dataType="double">3</Constant></Apply></Apply><Apply function="lessThan"><Apply function="default(H2C)"><FieldRef field="H2I"/><FieldRef field="H2H"/><FieldRef field="H2C"/><FieldRef field="H2G"/></Apply><Constant dataType="double">3</Constant></Apply></Apply><Apply function="lessThan"><Apply function="default(H2G)"><FieldRef field="H2I"/><FieldRef field="H2H"/><FieldRef field="H2C"/><FieldRef field="H2G"/></Apply><Constant dataType="double">3</Constant></Apply></Apply></Apply><Constant dataType="double">2</Constant><Apply function="ifelse"><Apply function="and"><Apply function="or"><Apply function="or"><Apply function="or"><Apply function="equal"><Apply function="default(H2I)"><FieldRef field="H2I"/><FieldRef field="H2H"/><FieldRef field="H2C"/><FieldRef field="H2G"/></Apply><Constant dataType="double">1</Constant></Apply><Apply function="equal"><Apply function="default(H2H)"><FieldRef field="H2I"/><FieldRef field="H2H"/><FieldRef field="H2C"/><FieldRef field="H2G"/></Apply><Constant dataType="double">1</Constant></Apply></Apply><Apply function="equal"><Apply function="default(H2C)"><FieldRef field="H2I"/><FieldRef field="H2H"/><FieldRef field="H2C"/><FieldRef field="H2G"/></Apply><Constant dataType="double">1</Constant></Apply></Apply><Apply function="equal"><Apply function="default(H2G)"><FieldRef field="H2I"/><FieldRef field="H2H"/><FieldRef field="H2C"/><FieldRef field="H2G"/></Apply><Constant dataType="double">1</Constant></Apply></Apply><Apply function="and"><Apply function="and"><Apply function="and"><Apply function="lessThan"><Apply function="default(H2I)"><FieldRef field="H2I"/><FieldRef field="H2H"/><FieldRef field="H2C"/><FieldRef field="H2G"/></Apply><Constant dataType="double">2</Constant></Apply><Apply function="lessThan"><Apply function="default(H2H)"><FieldRef field="H2I"/><FieldRef field="H2H"/><FieldRef field="H2C"/><FieldRef field="H2G"/></Apply><Constant dataType="double">2</Constant></Apply></Apply><Apply function="lessThan"><Apply function="default(H2C)"><FieldRef field="H2I"/><FieldRef field="H2H"/><FieldRef field="H2C"/><FieldRef field="H2G"/></Apply><Constant dataType="double">2</Constant></Apply></Apply><Apply function="lessThan"><Apply function="default(H2G)"><FieldRef field="H2I"/><FieldRef field="H2H"/><FieldRef field="H2C"/><FieldRef field="H2G"/></Apply><Constant dataType="double">2</Constant></Apply></Apply></Apply><Constant dataType="double">1</Constant><Apply function="ifelse"><Apply function="and"><Apply function="and"><Apply function="and"><Apply function="equal"><Apply function="default(H2I)"><FieldRef field="H2I"/><FieldRef field="H2H"/><FieldRef field="H2C"/><FieldRef field="H2G"/></Apply><Constant dataType="double">0</Constant></Apply><Apply function="equal"><Apply function="default(H2H)"><FieldRef field="H2I"/><FieldRef field="H2H"/><FieldRef field="H2C"/><FieldRef field="H2G"/></Apply><Constant dataType="double">0</Constant></Apply></Apply><Apply function="equal"><Apply function="default(H2C)"><FieldRef field="H2I"/><FieldRef field="H2H"/><FieldRef field="H2C"/><FieldRef field="H2G"/></Apply><Constant dataType="double">0</Constant></Apply></Apply><Apply function="equal"><Apply function="default(H2G)"><FieldRef field="H2I"/><FieldRef field="H2H"/><FieldRef field="H2C"/><FieldRef field="H2G"/></Apply><Constant dataType="double">0</Constant></Apply></Apply><Constant dataType="double">0</Constant><Constant dataType="NA">NA</Constant></Apply></Apply></Apply></Apply></Apply></Apply></Apply></DefineFunction><DefineFunction name="default(H1AB)"><ParameterField name="H1AB" dataType="double"/><ParameterField name="H1BB" dataType="double"/><ParameterField name="H1EB" dataType="double"/><Apply function="if"><Apply function="equal"><FieldRef field="H1AB"/><Constant dataType="NA">NA</Constant></Apply><Constant dataType="double">0</Constant><FieldRef field="H1AB"/></Apply></DefineFunction><DefineFunction name="default(H1BB)"><ParameterField name="H1AB" dataType="double"/><ParameterField name="H1BB" dataType="double"/><ParameterField name="H1EB" dataType="double"/><Apply function="if"><Apply function="equal"><FieldRef field="H1BB"/><Constant dataType="NA">NA</Constant></Apply><Constant dataType="double">0</Constant><FieldRef field="H1BB"/></Apply></DefineFunction><DefineFunction name="default(H1EB)"><ParameterField name="H1AB" dataType="double"/><ParameterField name="H1BB" dataType="double"/><ParameterField name="H1EB" dataType="double"/><Apply function="if"><Apply function="equal"><FieldRef field="H1EB"/><Constant dataType="NA">NA</Constant></Apply><Constant dataType="double">0</Constant><FieldRef field="H1EB"/></Apply></DefineFunction><DefineFunction name="iadl.fun"><ParameterField name="H1AB" dataType="double"/><ParameterField name="H1BB" dataType="double"/><ParameterField name="H1EB" dataType="double"/><Apply function="ifelse"><Apply function="and"><Apply function="and"><Apply function="equal"><Apply function="default(H1AB)"><FieldRef field="H1AB"/><FieldRef field="H1BB"/><FieldRef field="H1EB"/></Apply><Constant dataType="double">2</Constant></Apply><Apply function="equal"><Apply function="default(H1BB)"><FieldRef field="H1AB"/><FieldRef field="H1BB"/><FieldRef field="H1EB"/></Apply><Constant dataType="double">2</Constant></Apply></Apply><Apply function="equal"><Apply function="default(H1EB)"><FieldRef field="H1AB"/><FieldRef field="H1BB"/><FieldRef field="H1EB"/></Apply><Constant dataType="double">2</Constant></Apply></Apply><Constant dataType="double">6</Constant><Apply function="ifelse"><Apply function="or"><Apply function="or"><Apply function="and"><Apply function="and"><Apply function="equal"><Apply function="default(H1AB)"><FieldRef field="H1AB"/><FieldRef field="H1BB"/><FieldRef field="H1EB"/></Apply><Constant dataType="double">2</Constant></Apply><Apply function="equal"><Apply function="default(H1BB)"><FieldRef field="H1AB"/><FieldRef field="H1BB"/><FieldRef field="H1EB"/></Apply><Constant dataType="double">2</Constant></Apply></Apply><Apply function="lessThan"><Apply function="default(H1EB)"><FieldRef field="H1AB"/><FieldRef field="H1BB"/><FieldRef field="H1EB"/></Apply><Constant dataType="double">2</Constant></Apply></Apply><Apply function="and"><Apply function="and"><Apply function="equal"><Apply function="default(H1AB)"><FieldRef field="H1AB"/><FieldRef field="H1BB"/><FieldRef field="H1EB"/></Apply><Constant dataType="double">2</Constant></Apply><Apply function="equal"><Apply function="default(H1EB)"><FieldRef field="H1AB"/><FieldRef field="H1BB"/><FieldRef field="H1EB"/></Apply><Constant dataType="double">2</Constant></Apply></Apply><Apply function="lessThan"><Apply function="default(H1BB)"><FieldRef field="H1AB"/><FieldRef field="H1BB"/><FieldRef field="H1EB"/></Apply><Constant dataType="double">2</Constant></Apply></Apply></Apply><Apply function="and"><Apply function="and"><Apply function="equal"><Apply function="default(H1BB)"><FieldRef field="H1AB"/><FieldRef field="H1BB"/><FieldRef field="H1EB"/></Apply><Constant dataType="double">2</Constant></Apply><Apply function="equal"><Apply function="default(H1EB)"><FieldRef field="H1AB"/><FieldRef field="H1BB"/><FieldRef field="H1EB"/></Apply><Constant dataType="double">2</Constant></Apply></Apply><Apply function="lessThan"><Apply function="default(H1AB)"><FieldRef field="H1AB"/><FieldRef field="H1BB"/><FieldRef field="H1EB"/></Apply><Constant dataType="double">2</Constant></Apply></Apply></Apply><Constant dataType="double">5</Constant><Apply function="ifelse"><Apply function="or"><Apply function="or"><Apply function="and"><Apply function="and"><Apply function="equal"><Apply function="default(H1AB)"><FieldRef field="H1AB"/><FieldRef field="H1BB"/><FieldRef field="H1EB"/></Apply><Constant dataType="double">2</Constant></Apply><Apply function="lessThan"><Apply function="default(H1BB)"><FieldRef field="H1AB"/><FieldRef field="H1BB"/><FieldRef field="H1EB"/></Apply><Constant dataType="double">2</Constant></Apply></Apply><Apply function="lessThan"><Apply function="default(H1EB)"><FieldRef field="H1AB"/><FieldRef field="H1BB"/><FieldRef field="H1EB"/></Apply><Constant dataType="double">2</Constant></Apply></Apply><Apply function="and"><Apply function="and"><Apply function="equal"><Apply function="default(H1BB)"><FieldRef field="H1AB"/><FieldRef field="H1BB"/><FieldRef field="H1EB"/></Apply><Constant dataType="double">2</Constant></Apply><Apply function="lessThan"><Apply function="default(H1AB)"><FieldRef field="H1AB"/><FieldRef field="H1BB"/><FieldRef field="H1EB"/></Apply><Constant dataType="double">2</Constant></Apply></Apply><Apply function="lessThan"><Apply function="default(H1EB)"><FieldRef field="H1AB"/><FieldRef field="H1BB"/><FieldRef field="H1EB"/></Apply><Constant dataType="double">2</Constant></Apply></Apply></Apply><Apply function="and"><Apply function="and"><Apply function="equal"><Apply function="default(H1EB)"><FieldRef field="H1AB"/><FieldRef field="H1BB"/><FieldRef field="H1EB"/></Apply><Constant dataType="double">2</Constant></Apply><Apply function="lessThan"><Apply function="default(H1AB)"><FieldRef field="H1AB"/><FieldRef field="H1BB"/><FieldRef field="H1EB"/></Apply><Constant dataType="double">2</Constant></Apply></Apply><Apply function="lessThan"><Apply function="default(H1BB)"><FieldRef field="H1AB"/><FieldRef field="H1BB"/><FieldRef field="H1EB"/></Apply><Constant dataType="double">2</Constant></Apply></Apply></Apply><Constant dataType="double">4</Constant><Apply function="ifelse"><Apply function="and"><Apply function="and"><Apply function="equal"><Apply function="default(H1AB)"><FieldRef field="H1AB"/><FieldRef field="H1BB"/><FieldRef field="H1EB"/></Apply><Constant dataType="double">1</Constant></Apply><Apply function="equal"><Apply function="default(H1BB)"><FieldRef field="H1AB"/><FieldRef field="H1BB"/><FieldRef field="H1EB"/></Apply><Constant dataType="double">1</Constant></Apply></Apply><Apply function="equal"><Apply function="default(H1EB)"><FieldRef field="H1AB"/><FieldRef field="H1BB"/><FieldRef field="H1EB"/></Apply><Constant dataType="double">1</Constant></Apply></Apply><Constant dataType="double">3</Constant><Apply function="ifelse"><Apply function="or"><Apply function="or"><Apply function="and"><Apply function="and"><Apply function="equal"><Apply function="default(H1AB)"><FieldRef field="H1AB"/><FieldRef field="H1BB"/><FieldRef field="H1EB"/></Apply><Constant dataType="double">1</Constant></Apply><Apply function="equal"><Apply function="default(H1BB)"><FieldRef field="H1AB"/><FieldRef field="H1BB"/><FieldRef field="H1EB"/></Apply><Constant dataType="double">1</Constant></Apply></Apply><Apply function="equal"><Apply function="default(H1EB)"><FieldRef field="H1AB"/><FieldRef field="H1BB"/><FieldRef field="H1EB"/></Apply><Constant dataType="double">0</Constant></Apply></Apply><Apply function="and"><Apply function="and"><Apply function="equal"><Apply function="default(H1AB)"><FieldRef field="H1AB"/><FieldRef field="H1BB"/><FieldRef field="H1EB"/></Apply><Constant dataType="double">1</Constant></Apply><Apply function="equal"><Apply function="default(H1EB)"><FieldRef field="H1AB"/><FieldRef field="H1BB"/><FieldRef field="H1EB"/></Apply><Constant dataType="double">1</Constant></Apply></Apply><Apply function="equal"><Apply function="default(H1BB)"><FieldRef field="H1AB"/><FieldRef field="H1BB"/><FieldRef field="H1EB"/></Apply><Constant dataType="double">0</Constant></Apply></Apply></Apply><Apply function="and"><Apply function="and"><Apply function="equal"><Apply function="default(H1BB)"><FieldRef field="H1AB"/><FieldRef field="H1BB"/><FieldRef field="H1EB"/></Apply><Constant dataType="double">1</Constant></Apply><Apply function="equal"><Apply function="default(H1EB)"><FieldRef field="H1AB"/><FieldRef field="H1BB"/><FieldRef field="H1EB"/></Apply><Constant dataType="double">1</Constant></Apply></Apply><Apply function="equal"><Apply function="default(H1AB)"><FieldRef field="H1AB"/><FieldRef field="H1BB"/><FieldRef field="H1EB"/></Apply><Constant dataType="double">0</Constant></Apply></Apply></Apply><Constant dataType="double">2</Constant><Apply function="ifelse"><Apply function="or"><Apply function="or"><Apply function="and"><Apply function="and"><Apply function="equal"><Apply function="default(H1AB)"><FieldRef field="H1AB"/><FieldRef field="H1BB"/><FieldRef field="H1EB"/></Apply><Constant dataType="double">1</Constant></Apply><Apply function="equal"><Apply function="default(H1BB)"><FieldRef field="H1AB"/><FieldRef field="H1BB"/><FieldRef field="H1EB"/></Apply><Constant dataType="double">0</Constant></Apply></Apply><Apply function="equal"><Apply function="default(H1EB)"><FieldRef field="H1AB"/><FieldRef field="H1BB"/><FieldRef field="H1EB"/></Apply><Constant dataType="double">0</Constant></Apply></Apply><Apply function="and"><Apply function="and"><Apply function="equal"><Apply function="default(H1BB)"><FieldRef field="H1AB"/><FieldRef field="H1BB"/><FieldRef field="H1EB"/></Apply><Constant dataType="double">1</Constant></Apply><Apply function="equal"><Apply function="default(H1AB)"><FieldRef field="H1AB"/><FieldRef field="H1BB"/><FieldRef field="H1EB"/></Apply><Constant dataType="double">0</Constant></Apply></Apply><Apply function="equal"><Apply function="default(H1EB)"><FieldRef field="H1AB"/><FieldRef field="H1BB"/><FieldRef field="H1EB"/></Apply><Constant dataType="double">0</Constant></Apply></Apply></Apply><Apply function="and"><Apply function="and"><Apply function="equal"><Apply function="default(H1EB)"><FieldRef field="H1AB"/><FieldRef field="H1BB"/><FieldRef field="H1EB"/></Apply><Constant dataType="double">1</Constant></Apply><Apply function="equal"><Apply function="default(H1AB)"><FieldRef field="H1AB"/><FieldRef field="H1BB"/><FieldRef field="H1EB"/></Apply><Constant dataType="double">0</Constant></Apply></Apply><Apply function="equal"><Apply function="default(H1BB)"><FieldRef field="H1AB"/><FieldRef field="H1BB"/><FieldRef field="H1EB"/></Apply><Constant dataType="double">0</Constant></Apply></Apply></Apply><Constant dataType="double">1</Constant><Apply function="ifelse"><Apply function="and"><Apply function="and"><Apply function="equal"><Apply function="default(H1AB)"><FieldRef field="H1AB"/><FieldRef field="H1BB"/><FieldRef field="H1EB"/></Apply><Constant dataType="double">0</Constant></Apply><Apply function="equal"><Apply function="default(H1BB)"><FieldRef field="H1AB"/><FieldRef field="H1BB"/><FieldRef field="H1EB"/></Apply><Constant dataType="double">0</Constant></Apply></Apply><Apply function="equal"><Apply function="default(H1EB)"><FieldRef field="H1AB"/><FieldRef field="H1BB"/><FieldRef field="H1EB"/></Apply><Constant dataType="double">0</Constant></Apply></Apply><Constant dataType="double">0</Constant><Constant dataType="NA">NA</Constant></Apply></Apply></Apply></Apply></Apply></Apply></Apply></DefineFunction><DefineFunction name="default(dis)"><ParameterField name="dis" dataType="double"/><Apply function="if"><Apply function="equal"><FieldRef field="dis"/><Constant dataType="NA">NA</Constant></Apply><Constant dataType="double">0</Constant><FieldRef field="dis"/></Apply></DefineFunction><DefineFunction name="disease.fun"><ParameterField name="dis" dataType="double"/><Apply function="ifelse"><Apply function="equal"><Apply function="default(dis)"><FieldRef field="dis"/></Apply><Constant dataType="string">Yes</Constant></Apply><Constant dataType="double">1</Constant><Apply function="ifelse"><Apply function="equal"><Apply function="default(dis)"><FieldRef field="dis"/></Apply><Constant dataType="string">No</Constant></Apply><Constant dataType="double">0</Constant><Constant dataType="NA">NA</Constant></Apply></Apply></DefineFunction><DerivedField name="Age_rcs1" optype="continuous"><FieldRef field="age"/></DerivedField><DerivedField name="Sex_cat2" optype="continuous"><Apply function="last.fun"><FieldRef field="sex"/></Apply></DerivedField><DerivedField name="BB6_cat5" optype="continuous"><Apply function="last.fun"><FieldRef field="BB6"/></Apply></DerivedField><DerivedField name="B2B_cat2" optype="continuous"><Apply function="last.fun"><FieldRef field="B2B"/></Apply></DerivedField><DerivedField name="K8E_cat2" optype="continuous"><Apply function="last.fun"><FieldRef field="K8E"/></Apply></DerivedField><DerivedField name="P4A_cat4" optype="continuous"><Apply function="last.fun"><FieldRef field="P4A"/></Apply></DerivedField><DerivedField name="P4B_cat4" optype="continuous"><Apply function="last.fun"><FieldRef field="P4B"/></Apply></DerivedField><DerivedField name="H3_cat2" optype="continuous"><Apply function="last.fun"><FieldRef field="H3"/></Apply></DerivedField><DerivedField name="J1A_cat2" optype="continuous"><Apply function="disease.fun"><FieldRef field="Diseases_J1A"/></Apply></DerivedField><DerivedField name="J1B_cat2" optype="continuous"><Apply function="disease.fun"><FieldRef field="Diseases_J1B"/></Apply></DerivedField><DerivedField name="J1C_cat2" optype="continuous"><Apply function="disease.fun"><FieldRef field="Diseases_J1C"/></Apply></DerivedField><DerivedField name="J1D_cat2" optype="continuous"><Apply function="disease.fun"><FieldRef field="Diseases_J1D"/></Apply></DerivedField><DerivedField name="J1DE_cat2" optype="continuous"><Apply function="disease.fun"><FieldRef field="Diseases_J1DE"/></Apply></DerivedField><DerivedField name="J1K_cat2" optype="continuous"><Apply function="disease.fun"><FieldRef field="Diseases_J1K"/></Apply></DerivedField><DerivedField name="J1L_cat2" optype="continuous"><Apply function="disease.fun"><FieldRef field="Diseases_J1L"/></Apply></DerivedField><DerivedField name="K2E_cat2" optype="continuous"><Apply function="ifelse"><Apply function="equal"><FieldRef field="K2_K2E"/><Constant dataType="string">Yes</Constant></Apply><Constant dataType="double">1</Constant><Constant dataType="double">0</Constant></Apply></DerivedField><DerivedField name="K3D_cat2" optype="continuous"><Apply function="ifelse"><Apply function="equal"><FieldRef field="K3_K3D"/><Constant dataType="string">Yes</Constant></Apply><Constant dataType="double">1</Constant><Constant dataType="double">0</Constant></Apply></DerivedField><DerivedField name="K3E_cat2" optype="continuous"><Apply function="ifelse"><Apply function="equal"><FieldRef field="K3_K3E"/><Constant dataType="string">Yes</Constant></Apply><Constant dataType="double">1</Constant><Constant dataType="double">0</Constant></Apply></DerivedField><DerivedField name="L1A_cat2" optype="continuous"><Apply function="ifelse"><Apply function="equal"><FieldRef field="L1A_L1A1"/><Constant dataType="string">Yes</Constant></Apply><Apply function="equal"><FieldRef field="L1A_L1A2"/><Constant dataType="string">Yes</Constant></Apply><Constant dataType="double">1</Constant><Constant dataType="double">0</Constant></Apply></DerivedField><DerivedField name="L2C_cat2" optype="continuous"><Apply function="ifelse"><Apply function="equal"><FieldRef field="K2_L2C"/><Constant dataType="string">Yes</Constant></Apply><Constant dataType="double">1</Constant><Constant dataType="double">0</Constant></Apply></DerivedField><DerivedField name="L2B_cat2" optype="continuous"><Apply function="ifelse"><Apply function="equal"><FieldRef field="K2_L2B"/><Constant dataType="string">Yes</Constant></Apply><Constant dataType="double">1</Constant><Constant dataType="double">0</Constant></Apply></DerivedField><DerivedField name="J1Z_cat2" optype="continuous"><Apply function="disease.fun"><FieldRef field="Diseases_J1Z"/></Apply></DerivedField><DerivedField name="P2OXY_cat3" optype="continuous"><Apply function="last.fun"><FieldRef field="Sched_P2OXY"/></Apply></DerivedField><DerivedField name="Oxygen_cat6" optype="continuous"><Apply function="ifelse"><Apply function="equal"><FieldRef field="specialtherapy_P0"/><Constant dataType="string">Yes</Constant></Apply><Apply function="oxygen_cat6.fun"><Constant dataType="NA">NA</Constant><FieldRef field="J1Z_cat2"/></Apply><Apply function="oxygen_cat6.fun"><FieldRef field="P2OXY_cat3"/><FieldRef field="J1Z_cat2"/></Apply></Apply></DerivedField><DerivedField name="J1AA_cat2" optype="continuous"><Apply function="disease.fun"><FieldRef field="Diseases_J1AA"/></Apply></DerivedField><DerivedField name="P2G_cat3" optype="continuous"><Apply function="last.fun"><FieldRef field="Sched_P2G"/></Apply></DerivedField><DerivedField name="Renal_cat4" optype="continuous"><Apply function="ifelse"><Apply function="equal"><FieldRef field="specialtherapy_P0"/><Constant dataType="string">Yes</Constant></Apply><Apply function="renal_cat4.fun"><FieldRef field="J1AA_cat2"/><Constant dataType="NA">NA</Constant></Apply><Apply function="renal_cat4.fun"><FieldRef field="J1AA_cat2"/><FieldRef field="P2G_cat3"/></Apply></Apply></DerivedField><DerivedField name="P2F_cat3" optype="continuous"><Apply function="last.fun"><FieldRef field="Sched_P2F"/></Apply></DerivedField><DerivedField name="J1X_cat2" optype="continuous"><Apply function="disease.fun"><FieldRef field="Diseases_J1X"/></Apply></DerivedField><DerivedField name="Cancer_cat6" optype="continuous"><Apply function="ifelse"><Apply function="equal"><FieldRef field="specialtherapy_P0"/><Constant dataType="string">Yes</Constant></Apply><Apply function="cancer_cat6.fun"><Constant dataType="NA">NA</Constant><FieldRef field="J1X_cat2"/></Apply><Apply function="cancer_cat6.fun"><FieldRef field="P2F_cat3"/><FieldRef field="J1X_cat2"/></Apply></Apply></DerivedField><DerivedField name="ADLdiff_H2I_formatted" optype="continuous"><Apply function="ifelse"><Apply function="equal"><Apply function="is.na"><FieldRef field="ADLdiff_H2I"/></Apply><Constant dataType="boolean">true</Constant></Apply><Constant dataType="double">0</Constant><FieldRef field="ADLdiff_H2I"/></Apply></DerivedField><DerivedField name="ADLdiff_H2H_formatted" optype="continuous"><Apply function="ifelse"><Apply function="equal"><Apply function="is.na"><FieldRef field="ADLdiff_H2H"/></Apply><Constant dataType="boolean">true</Constant></Apply><Constant dataType="double">0</Constant><FieldRef field="ADLdiff_H2H"/></Apply></DerivedField><DerivedField name="ADLdiff_H2C_formatted" optype="continuous"><Apply function="ifelse"><Apply function="equal"><Apply function="is.na"><FieldRef field="ADLdiff_H2C"/></Apply><Constant dataType="boolean">true</Constant></Apply><Constant dataType="double">0</Constant><FieldRef field="ADLdiff_H2C"/></Apply></DerivedField><DerivedField name="ADLdiff_H2G_formatted" optype="continuous"><Apply function="ifelse"><Apply function="equal"><Apply function="is.na"><FieldRef field="ADLdiff_H2G"/></Apply><Constant dataType="boolean">true</Constant></Apply><Constant dataType="double">0</Constant><FieldRef field="ADLdiff_H2G"/></Apply></DerivedField><DerivedField name="ADL_cat7" optype="continuous"><Apply function="ifelse"><Apply function="equal"><FieldRef field="ADL_H0ADL"/><Constant dataType="string">Yes</Constant></Apply><Apply function="adl.fun"><Constant dataType="NA">NA</Constant><Constant dataType="NA">NA</Constant><Constant dataType="NA">NA</Constant><Constant dataType="NA">NA</Constant></Apply><Apply function="adl.fun"><Apply function="last.fun"><FieldRef field="ADLdiff_H2I_formatted"/></Apply><Apply function="last.fun"><FieldRef field="ADLdiff_H2H_formatted"/></Apply><Apply function="last.fun"><FieldRef field="ADLdiff_H2C_formatted"/></Apply><Apply function="last.fun"><FieldRef field="ADLdiff_H2G_formatted"/></Apply></Apply></Apply></DerivedField><DerivedField name="IADLdiff_H1AB_formatted" optype="continuous"><Apply function="ifelse"><Apply function="equal"><Apply function="is.na"><FieldRef field="IADLdiff_H1AB"/></Apply><Constant dataType="boolean">true</Constant></Apply><Apply function="equal"><FieldRef field="IADL_H1AB"/><Constant dataType="string">No</Constant></Apply><Constant dataType="double">0</Constant><FieldRef field="IADLdiff_H1AB"/></Apply></DerivedField><DerivedField name="IADLdiff_H1BB_formatted" optype="continuous"><Apply function="ifelse"><Apply function="equal"><Apply function="is.na"><FieldRef field="IADLdiff_H1BB"/></Apply><Constant dataType="boolean">true</Constant></Apply><Apply function="equal"><FieldRef field="IADL_H1BB"/><Constant dataType="string">No</Constant></Apply><Constant dataType="double">0</Constant><FieldRef field="IADLdiff_H1BB"/></Apply></DerivedField><DerivedField name="IADdiff_H1EB_formatted" optype="continuous"><Apply function="ifelse"><Apply function="equal"><Apply function="is.na"><FieldRef field="IADLdiff_H1EB"/></Apply><Constant dataType="boolean">true</Constant></Apply><Apply function="equal"><FieldRef field="IADL_H1EB"/><Constant dataType="string">No</Constant></Apply><Constant dataType="double">0</Constant><FieldRef field="IADLdiff_H1EB"/></Apply></DerivedField><DerivedField name="IADL_cat7" optype="continuous"><Apply function="ifelse"><Apply function="equal"><FieldRef field="IADL_H0IADL"/><Constant dataType="string">Yes</Constant></Apply><Apply function="iadl.fun"><Constant dataType="NA">NA</Constant><Constant dataType="NA">NA</Constant><Constant dataType="NA">NA</Constant></Apply><Apply function="iadl.fun"><Apply function="last.fun"><FieldRef field="IADLdiff_H1AB_formatted"/></Apply><Apply function="last.fun"><FieldRef field="IADLdiff_H1BB_formatted"/></Apply><Apply function="last.fun"><FieldRef field="IADLdiff_H1EB_formatted"/></Apply></Apply></Apply></DerivedField><DerivedField name="BB6_cat5_1" optype="continuous"><Apply function="ifelse"><Apply function="equal"><FieldRef field="BB6_cat5"/><Constant dataType="double">1</Constant></Apply><Constant dataType="double">1</Constant><Constant dataType="double">0</Constant></Apply></DerivedField><DerivedField name="BB6_cat5_2" optype="continuous"><Apply function="ifelse"><Apply function="equal"><FieldRef field="BB6_cat5"/><Constant dataType="double">2</Constant></Apply><Constant dataType="double">1</Constant><Constant dataType="double">0</Constant></Apply></DerivedField><DerivedField name="BB6_cat5_3" optype="continuous"><Apply function="ifelse"><Apply function="equal"><FieldRef field="BB6_cat5"/><Constant dataType="double">3</Constant></Apply><Constant dataType="double">1</Constant><Constant dataType="double">0</Constant></Apply></DerivedField><DerivedField name="BB6_cat5_4" optype="continuous"><Apply function="ifelse"><Apply function="equal"><FieldRef field="BB6_cat5"/><Constant dataType="double">4</Constant></Apply><Constant dataType="double">1</Constant><Constant dataType="double">0</Constant></Apply></DerivedField><DerivedField name="BB6_cat5_5" optype="continuous"><Apply function="ifelse"><Apply function="equal"><FieldRef field="BB6_cat5"/><Constant dataType="double">5</Constant></Apply><Constant dataType="double">1</Constant><Constant dataType="double">0</Constant></Apply></DerivedField><DerivedField name="J1A_cat2_1" optype="continuous"><Apply function="ifelse"><Apply function="equal"><FieldRef field="J1A_cat2"/><Constant dataType="double">1</Constant></Apply><Constant dataType="double">1</Constant><Constant dataType="double">0</Constant></Apply></DerivedField><DerivedField name="J1A_cat2_2" optype="continuous"><Apply function="ifelse"><Apply function="equal"><FieldRef field="J1A_cat2"/><Constant dataType="double">2</Constant></Apply><Constant dataType="double">1</Constant><Constant dataType="double">0</Constant></Apply></DerivedField><DerivedField name="J1B_cat2_1" optype="continuous"><Apply function="ifelse"><Apply function="equal"><FieldRef field="J1B_cat2"/><Constant dataType="double">1</Constant></Apply><Constant dataType="double">1</Constant><Constant dataType="double">0</Constant></Apply></DerivedField><DerivedField name="J1B_cat2_2" optype="continuous"><Apply function="ifelse"><Apply function="equal"><FieldRef field="J1B_cat2"/><Constant dataType="double">2</Constant></Apply><Constant dataType="double">1</Constant><Constant dataType="double">0</Constant></Apply></DerivedField><DerivedField name="J1C_cat2_1" optype="continuous"><Apply function="ifelse"><Apply function="equal"><FieldRef field="J1C_cat2"/><Constant dataType="double">1</Constant></Apply><Constant dataType="double">1</Constant><Constant dataType="double">0</Constant></Apply></DerivedField><DerivedField name="J1C_cat2_2" optype="continuous"><Apply function="ifelse"><Apply function="equal"><FieldRef field="J1C_cat2"/><Constant dataType="double">2</Constant></Apply><Constant dataType="double">1</Constant><Constant dataType="double">0</Constant></Apply></DerivedField><DerivedField name="J1D_cat2_1" optype="continuous"><Apply function="ifelse"><Apply function="equal"><FieldRef field="J1D_cat2"/><Constant dataType="double">1</Constant></Apply><Constant dataType="double">1</Constant><Constant dataType="double">0</Constant></Apply></DerivedField><DerivedField name="J1D_cat2_2" optype="continuous"><Apply function="ifelse"><Apply function="equal"><FieldRef field="J1D_cat2"/><Constant dataType="double">2</Constant></Apply><Constant dataType="double">1</Constant><Constant dataType="double">0</Constant></Apply></DerivedField><DerivedField name="J1DE_cat2_1" optype="continuous"><Apply function="ifelse"><Apply function="equal"><FieldRef field="J1DE_cat2"/><Constant dataType="double">1</Constant></Apply><Constant dataType="double">1</Constant><Constant dataType="double">0</Constant></Apply></DerivedField><DerivedField name="J1DE_cat2_2" optype="continuous"><Apply function="ifelse"><Apply function="equal"><FieldRef field="J1DE_cat2"/><Constant dataType="double">2</Constant></Apply><Constant dataType="double">1</Constant><Constant dataType="double">0</Constant></Apply></DerivedField><DerivedField name="J1K_cat2_1" optype="continuous"><Apply function="ifelse"><Apply function="equal"><FieldRef field="J1K_cat2"/><Constant dataType="double">1</Constant></Apply><Constant dataType="double">1</Constant><Constant dataType="double">0</Constant></Apply></DerivedField><DerivedField name="J1K_cat2_2" optype="continuous"><Apply function="ifelse"><Apply function="equal"><FieldRef field="J1K_cat2"/><Constant dataType="double">2</Constant></Apply><Constant dataType="double">1</Constant><Constant dataType="double">0</Constant></Apply></DerivedField><DerivedField name="J1L_cat2_1" optype="continuous"><Apply function="ifelse"><Apply function="equal"><FieldRef field="J1L_cat2"/><Constant dataType="double">1</Constant></Apply><Constant dataType="double">1</Constant><Constant dataType="double">0</Constant></Apply></DerivedField><DerivedField name="J1L_cat2_2" optype="continuous"><Apply function="ifelse"><Apply function="equal"><FieldRef field="J1L_cat2"/><Constant dataType="double">2</Constant></Apply><Constant dataType="double">1</Constant><Constant dataType="double">0</Constant></Apply></DerivedField><DerivedField name="K2E_cat2_1" optype="continuous"><Apply function="ifelse"><Apply function="equal"><FieldRef field="K2E_cat2"/><Constant dataType="double">1</Constant></Apply><Constant dataType="double">1</Constant><Constant dataType="double">0</Constant></Apply></DerivedField><DerivedField name="K2E_cat2_2" optype="continuous"><Apply function="ifelse"><Apply function="equal"><FieldRef field="K2E_cat2"/><Constant dataType="double">2</Constant></Apply><Constant dataType="double">1</Constant><Constant dataType="double">0</Constant></Apply></DerivedField><DerivedField name="K3D_cat2_1" optype="continuous"><Apply function="ifelse"><Apply function="equal"><FieldRef field="K3D_cat2"/><Constant dataType="double">1</Constant></Apply><Constant dataType="double">1</Constant><Constant dataType="double">0</Constant></Apply></DerivedField><DerivedField name="K3D_cat2_2" optype="continuous"><Apply function="ifelse"><Apply function="equal"><FieldRef field="K3D_cat2"/><Constant dataType="double">2</Constant></Apply><Constant dataType="double">1</Constant><Constant dataType="double">0</Constant></Apply></DerivedField><DerivedField name="K3E_cat2_1" optype="continuous"><Apply function="ifelse"><Apply function="equal"><FieldRef field="K3E_cat2"/><Constant dataType="double">1</Constant></Apply><Constant dataType="double">1</Constant><Constant dataType="double">0</Constant></Apply></DerivedField><DerivedField name="K3E_cat2_2" optype="continuous"><Apply function="ifelse"><Apply function="equal"><FieldRef field="K3E_cat2"/><Constant dataType="double">2</Constant></Apply><Constant dataType="double">1</Constant><Constant dataType="double">0</Constant></Apply></DerivedField><DerivedField name="L1A_cat2_1" optype="continuous"><Apply function="ifelse"><Apply function="equal"><FieldRef field="L1A_cat2"/><Constant dataType="double">1</Constant></Apply><Constant dataType="double">1</Constant><Constant dataType="double">0</Constant></Apply></DerivedField><DerivedField name="L1A_cat2_2" optype="continuous"><Apply function="ifelse"><Apply function="equal"><FieldRef field="L1A_cat2"/><Constant dataType="double">2</Constant></Apply><Constant dataType="double">1</Constant><Constant dataType="double">0</Constant></Apply></DerivedField><DerivedField name="L2C_cat2_1" optype="continuous"><Apply function="ifelse"><Apply function="equal"><FieldRef field="L2C_cat2"/><Constant dataType="double">1</Constant></Apply><Constant dataType="double">1</Constant><Constant dataType="double">0</Constant></Apply></DerivedField><DerivedField name="L2C_cat2_2" optype="continuous"><Apply function="ifelse"><Apply function="equal"><FieldRef field="L2C_cat2"/><Constant dataType="double">2</Constant></Apply><Constant dataType="double">1</Constant><Constant dataType="double">0</Constant></Apply></DerivedField><DerivedField name="L2B_cat2_1" optype="continuous"><Apply function="ifelse"><Apply function="equal"><FieldRef field="L2B_cat2"/><Constant dataType="double">1</Constant></Apply><Constant dataType="double">1</Constant><Constant dataType="double">0</Constant></Apply></DerivedField><DerivedField name="L2B_cat2_2" optype="continuous"><Apply function="ifelse"><Apply function="equal"><FieldRef field="L2B_cat2"/><Constant dataType="double">2</Constant></Apply><Constant dataType="double">1</Constant><Constant dataType="double">0</Constant></Apply></DerivedField><DerivedField name="B2B_cat2_1" optype="continuous"><Apply function="ifelse"><Apply function="equal"><FieldRef field="B2B_cat2"/><Constant dataType="double">1</Constant></Apply><Constant dataType="double">1</Constant><Constant dataType="double">0</Constant></Apply></DerivedField><DerivedField name="B2B_cat2_2" optype="continuous"><Apply function="ifelse"><Apply function="equal"><FieldRef field="B2B_cat2"/><Constant dataType="double">2</Constant></Apply><Constant dataType="double">1</Constant><Constant dataType="double">0</Constant></Apply></DerivedField><DerivedField name="H3_cat2_1" optype="continuous"><Apply function="ifelse"><Apply function="equal"><FieldRef field="H3_cat2"/><Constant dataType="double">1</Constant></Apply><Constant dataType="double">1</Constant><Constant dataType="double">0</Constant></Apply></DerivedField><DerivedField name="H3_cat2_2" optype="continuous"><Apply function="ifelse"><Apply function="equal"><FieldRef field="H3_cat2"/><Constant dataType="double">2</Constant></Apply><Constant dataType="double">1</Constant><Constant dataType="double">0</Constant></Apply></DerivedField><DerivedField name="IADL_cat7_1" optype="continuous"><Apply function="ifelse"><Apply function="equal"><FieldRef field="IADL_cat7"/><Constant dataType="double">1</Constant></Apply><Constant dataType="double">1</Constant><Constant dataType="double">0</Constant></Apply></DerivedField><DerivedField name="IADL_cat7_2" optype="continuous"><Apply function="ifelse"><Apply function="equal"><FieldRef field="IADL_cat7"/><Constant dataType="double">2</Constant></Apply><Constant dataType="double">1</Constant><Constant dataType="double">0</Constant></Apply></DerivedField><DerivedField name="IADL_cat7_3" optype="continuous"><Apply function="ifelse"><Apply function="equal"><FieldRef field="IADL_cat7"/><Constant dataType="double">3</Constant></Apply><Constant dataType="double">1</Constant><Constant dataType="double">0</Constant></Apply></DerivedField><DerivedField name="IADL_cat7_4" optype="continuous"><Apply function="ifelse"><Apply function="equal"><FieldRef field="IADL_cat7"/><Constant dataType="double">4</Constant></Apply><Constant dataType="double">1</Constant><Constant dataType="double">0</Constant></Apply></DerivedField><DerivedField name="IADL_cat7_5" optype="continuous"><Apply function="ifelse"><Apply function="equal"><FieldRef field="IADL_cat7"/><Constant dataType="double">5</Constant></Apply><Constant dataType="double">1</Constant><Constant dataType="double">0</Constant></Apply></DerivedField><DerivedField name="IADL_cat7_6" optype="continuous"><Apply function="ifelse"><Apply function="equal"><FieldRef field="IADL_cat7"/><Constant dataType="double">6</Constant></Apply><Constant dataType="double">1</Constant><Constant dataType="double">0</Constant></Apply></DerivedField><DerivedField name="IADL_cat7_7" optype="continuous"><Apply function="ifelse"><Apply function="equal"><FieldRef field="IADL_cat7"/><Constant dataType="double">7</Constant></Apply><Constant dataType="double">1</Constant><Constant dataType="double">0</Constant></Apply></DerivedField><DerivedField name="ADL_cat7_1" optype="continuous"><Apply function="ifelse"><Apply function="equal"><FieldRef field="ADL_cat7"/><Constant dataType="double">1</Constant></Apply><Constant dataType="double">1</Constant><Constant dataType="double">0</Constant></Apply></DerivedField><DerivedField name="ADL_cat7_2" optype="continuous"><Apply function="ifelse"><Apply function="equal"><FieldRef field="ADL_cat7"/><Constant dataType="double">2</Constant></Apply><Constant dataType="double">1</Constant><Constant dataType="double">0</Constant></Apply></DerivedField><DerivedField name="ADL_cat7_3" optype="continuous"><Apply function="ifelse"><Apply function="equal"><FieldRef field="ADL_cat7"/><Constant dataType="double">3</Constant></Apply><Constant dataType="double">1</Constant><Constant dataType="double">0</Constant></Apply></DerivedField><DerivedField name="ADL_cat7_4" optype="continuous"><Apply function="ifelse"><Apply function="equal"><FieldRef field="ADL_cat7"/><Constant dataType="double">4</Constant></Apply><Constant dataType="double">1</Constant><Constant dataType="double">0</Constant></Apply></DerivedField><DerivedField name="ADL_cat7_5" optype="continuous"><Apply function="ifelse"><Apply function="equal"><FieldRef field="ADL_cat7"/><Constant dataType="double">5</Constant></Apply><Constant dataType="double">1</Constant><Constant dataType="double">0</Constant></Apply></DerivedField><DerivedField name="ADL_cat7_6" optype="continuous"><Apply function="ifelse"><Apply function="equal"><FieldRef field="ADL_cat7"/><Constant dataType="double">6</Constant></Apply><Constant dataType="double">1</Constant><Constant dataType="double">0</Constant></Apply></DerivedField><DerivedField name="ADL_cat7_7" optype="continuous"><Apply function="ifelse"><Apply function="equal"><FieldRef field="ADL_cat7"/><Constant dataType="double">7</Constant></Apply><Constant dataType="double">1</Constant><Constant dataType="double">0</Constant></Apply></DerivedField><DerivedField name="P4A_cat4_1" optype="continuous"><Apply function="ifelse"><Apply function="equal"><FieldRef field="P4A_cat4"/><Constant dataType="double">1</Constant></Apply><Constant dataType="double">1</Constant><Constant dataType="double">0</Constant></Apply></DerivedField><DerivedField name="P4A_cat4_2" optype="continuous"><Apply function="ifelse"><Apply function="equal"><FieldRef field="P4A_cat4"/><Constant dataType="double">2</Constant></Apply><Constant dataType="double">1</Constant><Constant dataType="double">0</Constant></Apply></DerivedField><DerivedField name="P4A_cat4_3" optype="continuous"><Apply function="ifelse"><Apply function="equal"><FieldRef field="P4A_cat4"/><Constant dataType="double">3</Constant></Apply><Constant dataType="double">1</Constant><Constant dataType="double">0</Constant></Apply></DerivedField><DerivedField name="P4A_cat4_4" optype="continuous"><Apply function="ifelse"><Apply function="equal"><FieldRef field="P4A_cat4"/><Constant dataType="double">4</Constant></Apply><Constant dataType="double">1</Constant><Constant dataType="double">0</Constant></Apply></DerivedField><DerivedField name="P4B_cat4_1" optype="continuous"><Apply function="ifelse"><Apply function="equal"><FieldRef field="P4B_cat4"/><Constant dataType="double">1</Constant></Apply><Constant dataType="double">1</Constant><Constant dataType="double">0</Constant></Apply></DerivedField><DerivedField name="P4B_cat4_2" optype="continuous"><Apply function="ifelse"><Apply function="equal"><FieldRef field="P4B_cat4"/><Constant dataType="double">2</Constant></Apply><Constant dataType="double">1</Constant><Constant dataType="double">0</Constant></Apply></DerivedField><DerivedField name="P4B_cat4_3" optype="continuous"><Apply function="ifelse"><Apply function="equal"><FieldRef field="P4B_cat4"/><Constant dataType="double">3</Constant></Apply><Constant dataType="double">1</Constant><Constant dataType="double">0</Constant></Apply></DerivedField><DerivedField name="P4B_cat4_4" optype="continuous"><Apply function="ifelse"><Apply function="equal"><FieldRef field="P4B_cat4"/><Constant dataType="double">4</Constant></Apply><Constant dataType="double">1</Constant><Constant dataType="double">0</Constant></Apply></DerivedField><DerivedField name="Renal_cat4_1" optype="continuous"><Apply function="ifelse"><Apply function="equal"><FieldRef field="Renal_cat4"/><Constant dataType="double">1</Constant></Apply><Constant dataType="double">1</Constant><Constant dataType="double">0</Constant></Apply></DerivedField><DerivedField name="Renal_cat4_2" optype="continuous"><Apply function="ifelse"><Apply function="equal"><FieldRef field="Renal_cat4"/><Constant dataType="double">2</Constant></Apply><Constant dataType="double">1</Constant><Constant dataType="double">0</Constant></Apply></DerivedField><DerivedField name="Renal_cat4_3" optype="continuous"><Apply function="ifelse"><Apply function="equal"><FieldRef field="Renal_cat4"/><Constant dataType="double">3</Constant></Apply><Constant dataType="double">1</Constant><Constant dataType="double">0</Constant></Apply></DerivedField><DerivedField name="Renal_cat4_4" optype="continuous"><Apply function="ifelse"><Apply function="equal"><FieldRef field="Renal_cat4"/><Constant dataType="double">4</Constant></Apply><Constant dataType="double">1</Constant><Constant dataType="double">0</Constant></Apply></DerivedField><DerivedField name="Oxygen_cat6_1" optype="continuous"><Apply function="ifelse"><Apply function="equal"><FieldRef field="Oxygen_cat6"/><Constant dataType="double">1</Constant></Apply><Constant dataType="double">1</Constant><Constant dataType="double">0</Constant></Apply></DerivedField><DerivedField name="Oxygen_cat6_2" optype="continuous"><Apply function="ifelse"><Apply function="equal"><FieldRef field="Oxygen_cat6"/><Constant dataType="double">2</Constant></Apply><Constant dataType="double">1</Constant><Constant dataType="double">0</Constant></Apply></DerivedField><DerivedField name="Oxygen_cat6_3" optype="continuous"><Apply function="ifelse"><Apply function="equal"><FieldRef field="Oxygen_cat6"/><Constant dataType="double">3</Constant></Apply><Constant dataType="double">1</Constant><Constant dataType="double">0</Constant></Apply></DerivedField><DerivedField name="Oxygen_cat6_4" optype="continuous"><Apply function="ifelse"><Apply function="equal"><FieldRef field="Oxygen_cat6"/><Constant dataType="double">4</Constant></Apply><Constant dataType="double">1</Constant><Constant dataType="double">0</Constant></Apply></DerivedField><DerivedField name="Oxygen_cat6_5" optype="continuous"><Apply function="ifelse"><Apply function="equal"><FieldRef field="Oxygen_cat6"/><Constant dataType="double">5</Constant></Apply><Constant dataType="double">1</Constant><Constant dataType="double">0</Constant></Apply></DerivedField><DerivedField name="Oxygen_cat6_6" optype="continuous"><Apply function="ifelse"><Apply function="equal"><FieldRef field="Oxygen_cat6"/><Constant dataType="double">6</Constant></Apply><Constant dataType="double">1</Constant><Constant dataType="double">0</Constant></Apply></DerivedField><DerivedField name="Cancer_cat6_1" optype="continuous"><Apply function="ifelse"><Apply function="equal"><FieldRef field="Cancer_cat6"/><Constant dataType="double">1</Constant></Apply><Constant dataType="double">1</Constant><Constant dataType="double">0</Constant></Apply></DerivedField><DerivedField name="Cancer_cat6_2" optype="continuous"><Apply function="ifelse"><Apply function="equal"><FieldRef field="Cancer_cat6"/><Constant dataType="double">2</Constant></Apply><Constant dataType="double">1</Constant><Constant dataType="double">0</Constant></Apply></DerivedField><DerivedField name="Cancer_cat6_3" optype="continuous"><Apply function="ifelse"><Apply function="equal"><FieldRef field="Cancer_cat6"/><Constant dataType="double">3</Constant></Apply><Constant dataType="double">1</Constant><Constant dataType="double">0</Constant></Apply></DerivedField><DerivedField name="Cancer_cat6_4" optype="continuous"><Apply function="ifelse"><Apply function="equal"><FieldRef field="Cancer_cat6"/><Constant dataType="double">4</Constant></Apply><Constant dataType="double">1</Constant><Constant dataType="double">0</Constant></Apply></DerivedField><DerivedField name="Cancer_cat6_5" optype="continuous"><Apply function="ifelse"><Apply function="equal"><FieldRef field="Cancer_cat6"/><Constant dataType="double">5</Constant></Apply><Constant dataType="double">1</Constant><Constant dataType="double">0</Constant></Apply></DerivedField><DerivedField name="Cancer_cat6_6" optype="continuous"><Apply function="ifelse"><Apply function="equal"><FieldRef field="Cancer_cat6"/><Constant dataType="double">6</Constant></Apply><Constant dataType="double">1</Constant><Constant dataType="double">0</Constant></Apply></DerivedField><DerivedField name="A2_cat5_1" optype="continuous"><Apply function="ifelse"><Apply function="equal"><FieldRef field="A2_cat5"/><Constant dataType="double">1</Constant></Apply><Constant dataType="double">1</Constant><Constant dataType="double">0</Constant></Apply></DerivedField><DerivedField name="A2_cat5_2" optype="continuous"><Apply function="ifelse"><Apply function="equal"><FieldRef field="A2_cat5"/><Constant dataType="double">2</Constant></Apply><Constant dataType="double">1</Constant><Constant dataType="double">0</Constant></Apply></DerivedField><DerivedField name="A2_cat5_3" optype="continuous"><Apply function="ifelse"><Apply function="equal"><FieldRef field="A2_cat5"/><Constant dataType="double">3</Constant></Apply><Constant dataType="double">1</Constant><Constant dataType="double">0</Constant></Apply></DerivedField><DerivedField name="A2_cat5_4" optype="continuous"><Apply function="ifelse"><Apply function="equal"><FieldRef field="A2_cat5"/><Constant dataType="double">4</Constant></Apply><Constant dataType="double">1</Constant><Constant dataType="double">0</Constant></Apply></DerivedField><DerivedField name="A2_cat5_5" optype="continuous"><Apply function="ifelse"><Apply function="equal"><FieldRef field="A2_cat5"/><Constant dataType="double">5</Constant></Apply><Constant dataType="double">1</Constant><Constant dataType="double">0</Constant></Apply></DerivedField><DerivedField name="K8E_cat2_1" optype="continuous"><Apply function="ifelse"><Apply function="equal"><FieldRef field="K8E_cat2"/><Constant dataType="double">1</Constant></Apply><Constant dataType="double">1</Constant><Constant dataType="double">0</Constant></Apply></DerivedField><DerivedField name="K8E_cat2_2" optype="continuous"><Apply function="ifelse"><Apply function="equal"><FieldRef field="K8E_cat2"/><Constant dataType="double">2</Constant></Apply><Constant dataType="double">1</Constant><Constant dataType="double">0</Constant></Apply></DerivedField><DerivedField name="A1_cat7_1" optype="continuous"><Apply function="ifelse"><Apply function="equal"><FieldRef field="A1_cat7"/><Constant dataType="double">1</Constant></Apply><Constant dataType="double">1</Constant><Constant dataType="double">0</Constant></Apply></DerivedField><DerivedField name="A1_cat7_2" optype="continuous"><Apply function="ifelse"><Apply function="equal"><FieldRef field="A1_cat7"/><Constant dataType="double">2</Constant></Apply><Constant dataType="double">1</Constant><Constant dataType="double">0</Constant></Apply></DerivedField><DerivedField name="A1_cat7_3" optype="continuous"><Apply function="ifelse"><Apply function="equal"><FieldRef field="A1_cat7"/><Constant dataType="double">3</Constant></Apply><Constant dataType="double">1</Constant><Constant dataType="double">0</Constant></Apply></DerivedField><DerivedField name="A1_cat7_4" optype="continuous"><Apply function="ifelse"><Apply function="equal"><FieldRef field="A1_cat7"/><Constant dataType="double">4</Constant></Apply><Constant dataType="double">1</Constant><Constant dataType="double">0</Constant></Apply></DerivedField><DerivedField name="A1_cat7_5" optype="continuous"><Apply function="ifelse"><Apply function="equal"><FieldRef field="A1_cat7"/><Constant dataType="double">5</Constant></Apply><Constant dataType="double">1</Constant><Constant dataType="double">0</Constant></Apply></DerivedField><DerivedField name="A1_cat7_6" optype="continuous"><Apply function="ifelse"><Apply function="equal"><FieldRef field="A1_cat7"/><Constant dataType="double">6</Constant></Apply><Constant dataType="double">1</Constant><Constant dataType="double">0</Constant></Apply></DerivedField><DerivedField name="A1_cat7_7" optype="continuous"><Apply function="ifelse"><Apply function="equal"><FieldRef field="A1_cat7"/><Constant dataType="double">7</Constant></Apply><Constant dataType="double">1</Constant><Constant dataType="double">0</Constant></Apply></DerivedField><DerivedField name="Sex_cat2_1" optype="continuous"><Apply function="ifelse"><Apply function="equal"><FieldRef field="Sex_cat2"/><Constant dataType="double">1</Constant></Apply><Constant dataType="double">1</Constant><Constant dataType="double">0</Constant></Apply></DerivedField><DerivedField name="Sex_cat2_2" optype="continuous"><Apply function="ifelse"><Apply function="equal"><FieldRef field="Sex_cat2"/><Constant dataType="double">2</Constant></Apply><Constant dataType="double">1</Constant><Constant dataType="double">0</Constant></Apply></DerivedField><DerivedField name="BB6_cat5_1_c" optype="continuous"><Apply function="-"><FieldRef field="BB6_cat5_1"/><MapValues outputColumn="Means"><FieldColumnPair column="Name" constant="BB6_cat5_1_c"/><TableLocator location="taxonomy" name="means"/></MapValues></Apply></DerivedField><DerivedField name="BB6_cat5_2_c" optype="continuous"><Apply function="-"><FieldRef field="BB6_cat5_2"/><MapValues outputColumn="Means"><FieldColumnPair column="Name" constant="BB6_cat5_2_c"/><TableLocator location="taxonomy" name="means"/></MapValues></Apply></DerivedField><DerivedField name="BB6_cat5_3_c" optype="continuous"><Apply function="-"><FieldRef field="BB6_cat5_3"/><MapValues outputColumn="Means"><FieldColumnPair column="Name" constant="BB6_cat5_3_c"/><TableLocator location="taxonomy" name="means"/></MapValues></Apply></DerivedField><DerivedField name="BB6_cat5_4_c" optype="continuous"><Apply function="-"><FieldRef field="BB6_cat5_4"/><MapValues outputColumn="Means"><FieldColumnPair column="Name" constant="BB6_cat5_4_c"/><TableLocator location="taxonomy" name="means"/></MapValues></Apply></DerivedField><DerivedField name="BB6_cat5_5_c" optype="continuous"><Apply function="-"><FieldRef field="BB6_cat5_5"/><MapValues outputColumn="Means"><FieldColumnPair column="Name" constant="BB6_cat5_5_c"/><TableLocator location="taxonomy" name="means"/></MapValues></Apply></DerivedField><DerivedField name="J1A_cat2_1_c" optype="continuous"><Apply function="-"><FieldRef field="J1A_cat2_1"/><MapValues outputColumn="Means"><FieldColumnPair column="Name" constant="J1A_cat2_1_c"/><TableLocator location="taxonomy" name="means"/></MapValues></Apply></DerivedField><DerivedField name="J1A_cat2_2_c" optype="continuous"><Apply function="-"><FieldRef field="J1A_cat2_2"/><MapValues outputColumn="Means"><FieldColumnPair column="Name" constant="J1A_cat2_2_c"/><TableLocator location="taxonomy" name="means"/></MapValues></Apply></DerivedField><DerivedField name="J1B_cat2_1_c" optype="continuous"><Apply function="-"><FieldRef field="J1B_cat2_1"/><MapValues outputColumn="Means"><FieldColumnPair column="Name" constant="J1B_cat2_1_c"/><TableLocator location="taxonomy" name="means"/></MapValues></Apply></DerivedField><DerivedField name="J1B_cat2_2_c" optype="continuous"><Apply function="-"><FieldRef field="J1B_cat2_2"/><MapValues outputColumn="Means"><FieldColumnPair column="Name" constant="J1B_cat2_2_c"/><TableLocator location="taxonomy" name="means"/></MapValues></Apply></DerivedField><DerivedField name="J1C_cat2_1_c" optype="continuous"><Apply function="-"><FieldRef field="J1C_cat2_1"/><MapValues outputColumn="Means"><FieldColumnPair column="Name" constant="J1C_cat2_1_c"/><TableLocator location="taxonomy" name="means"/></MapValues></Apply></DerivedField><DerivedField name="J1C_cat2_2_c" optype="continuous"><Apply function="-"><FieldRef field="J1C_cat2_2"/><MapValues outputColumn="Means"><FieldColumnPair column="Name" constant="J1C_cat2_2_c"/><TableLocator location="taxonomy" name="means"/></MapValues></Apply></DerivedField><DerivedField name="J1D_cat2_1_c" optype="continuous"><Apply function="-"><FieldRef field="J1D_cat2_1"/><MapValues outputColumn="Means"><FieldColumnPair column="Name" constant="J1D_cat2_1_c"/><TableLocator location="taxonomy" name="means"/></MapValues></Apply></DerivedField><DerivedField name="J1D_cat2_2_c" optype="continuous"><Apply function="-"><FieldRef field="J1D_cat2_2"/><MapValues outputColumn="Means"><FieldColumnPair column="Name" constant="J1D_cat2_2_c"/><TableLocator location="taxonomy" name="means"/></MapValues></Apply></DerivedField><DerivedField name="J1DE_cat2_1_c" optype="continuous"><Apply function="-"><FieldRef field="J1DE_cat2_1"/><MapValues outputColumn="Means"><FieldColumnPair column="Name" constant="J1DE_cat2_1_c"/><TableLocator location="taxonomy" name="means"/></MapValues></Apply></DerivedField><DerivedField name="J1DE_cat2_2_c" optype="continuous"><Apply function="-"><FieldRef field="J1DE_cat2_2"/><MapValues outputColumn="Means"><FieldColumnPair column="Name" constant="J1DE_cat2_2_c"/><TableLocator location="taxonomy" name="means"/></MapValues></Apply></DerivedField><DerivedField name="J1K_cat2_1_c" optype="continuous"><Apply function="-"><FieldRef field="J1K_cat2_1"/><MapValues outputColumn="Means"><FieldColumnPair column="Name" constant="J1K_cat2_1_c"/><TableLocator location="taxonomy" name="means"/></MapValues></Apply></DerivedField><DerivedField name="J1K_cat2_2_c" optype="continuous"><Apply function="-"><FieldRef field="J1K_cat2_2"/><MapValues outputColumn="Means"><FieldColumnPair column="Name" constant="J1K_cat2_2_c"/><TableLocator location="taxonomy" name="means"/></MapValues></Apply></DerivedField><DerivedField name="J1L_cat2_1_c" optype="continuous"><Apply function="-"><FieldRef field="J1L_cat2_1"/><MapValues outputColumn="Means"><FieldColumnPair column="Name" constant="J1L_cat2_1_c"/><TableLocator location="taxonomy" name="means"/></MapValues></Apply></DerivedField><DerivedField name="J1L_cat2_2_c" optype="continuous"><Apply function="-"><FieldRef field="J1L_cat2_2"/><MapValues outputColumn="Means"><FieldColumnPair column="Name" constant="J1L_cat2_2_c"/><TableLocator location="taxonomy" name="means"/></MapValues></Apply></DerivedField><DerivedField name="K2E_cat2_1_c" optype="continuous"><Apply function="-"><FieldRef field="K2E_cat2_1"/><MapValues outputColumn="Means"><FieldColumnPair column="Name" constant="K2E_cat2_1_c"/><TableLocator location="taxonomy" name="means"/></MapValues></Apply></DerivedField><DerivedField name="K2E_cat2_2_c" optype="continuous"><Apply function="-"><FieldRef field="K2E_cat2_2"/><MapValues outputColumn="Means"><FieldColumnPair column="Name" constant="K2E_cat2_2_c"/><TableLocator location="taxonomy" name="means"/></MapValues></Apply></DerivedField><DerivedField name="K3D_cat2_1_c" optype="continuous"><Apply function="-"><FieldRef field="K3D_cat2_1"/><MapValues outputColumn="Means"><FieldColumnPair column="Name" constant="K3D_cat2_1_c"/><TableLocator location="taxonomy" name="means"/></MapValues></Apply></DerivedField><DerivedField name="K3D_cat2_2_c" optype="continuous"><Apply function="-"><FieldRef field="K3D_cat2_2"/><MapValues outputColumn="Means"><FieldColumnPair column="Name" constant="K3D_cat2_2_c"/><TableLocator location="taxonomy" name="means"/></MapValues></Apply></DerivedField><DerivedField name="K3E_cat2_1_c" optype="continuous"><Apply function="-"><FieldRef field="K3E_cat2_1"/><MapValues outputColumn="Means"><FieldColumnPair column="Name" constant="K3E_cat2_1_c"/><TableLocator location="taxonomy" name="means"/></MapValues></Apply></DerivedField><DerivedField name="K3E_cat2_2_c" optype="continuous"><Apply function="-"><FieldRef field="K3E_cat2_2"/><MapValues outputColumn="Means"><FieldColumnPair column="Name" constant="K3E_cat2_2_c"/><TableLocator location="taxonomy" name="means"/></MapValues></Apply></DerivedField><DerivedField name="L1A_cat2_1_c" optype="continuous"><Apply function="-"><FieldRef field="L1A_cat2_1"/><MapValues outputColumn="Means"><FieldColumnPair column="Name" constant="L1A_cat2_1_c"/><TableLocator location="taxonomy" name="means"/></MapValues></Apply></DerivedField><DerivedField name="L1A_cat2_2_c" optype="continuous"><Apply function="-"><FieldRef field="L1A_cat2_2"/><MapValues outputColumn="Means"><FieldColumnPair column="Name" constant="L1A_cat2_2_c"/><TableLocator location="taxonomy" name="means"/></MapValues></Apply></DerivedField><DerivedField name="L2C_cat2_1_c" optype="continuous"><Apply function="-"><FieldRef field="L2C_cat2_1"/><MapValues outputColumn="Means"><FieldColumnPair column="Name" constant="L2C_cat2_1_c"/><TableLocator location="taxonomy" name="means"/></MapValues></Apply></DerivedField><DerivedField name="L2C_cat2_2_c" optype="continuous"><Apply function="-"><FieldRef field="L2C_cat2_2"/><MapValues outputColumn="Means"><FieldColumnPair column="Name" constant="L2C_cat2_2_c"/><TableLocator location="taxonomy" name="means"/></MapValues></Apply></DerivedField><DerivedField name="L2B_cat2_1_c" optype="continuous"><Apply function="-"><FieldRef field="L2B_cat2_1"/><MapValues outputColumn="Means"><FieldColumnPair column="Name" constant="L2B_cat2_1_c"/><TableLocator location="taxonomy" name="means"/></MapValues></Apply></DerivedField><DerivedField name="L2B_cat2_2_c" optype="continuous"><Apply function="-"><FieldRef field="L2B_cat2_2"/><MapValues outputColumn="Means"><FieldColumnPair column="Name" constant="L2B_cat2_2_c"/><TableLocator location="taxonomy" name="means"/></MapValues></Apply></DerivedField><DerivedField name="B2B_cat2_1_c" optype="continuous"><Apply function="-"><FieldRef field="B2B_cat2_1"/><MapValues outputColumn="Means"><FieldColumnPair column="Name" constant="B2B_cat2_1_c"/><TableLocator location="taxonomy" name="means"/></MapValues></Apply></DerivedField><DerivedField name="B2B_cat2_2_c" optype="continuous"><Apply function="-"><FieldRef field="B2B_cat2_2"/><MapValues outputColumn="Means"><FieldColumnPair column="Name" constant="B2B_cat2_2_c"/><TableLocator location="taxonomy" name="means"/></MapValues></Apply></DerivedField><DerivedField name="H3_cat2_1_c" optype="continuous"><Apply function="-"><FieldRef field="H3_cat2_1"/><MapValues outputColumn="Means"><FieldColumnPair column="Name" constant="H3_cat2_1_c"/><TableLocator location="taxonomy" name="means"/></MapValues></Apply></DerivedField><DerivedField name="H3_cat2_2_c" optype="continuous"><Apply function="-"><FieldRef field="H3_cat2_2"/><MapValues outputColumn="Means"><FieldColumnPair column="Name" constant="H3_cat2_2_c"/><TableLocator location="taxonomy" name="means"/></MapValues></Apply></DerivedField><DerivedField name="IADL_cat7_1_c" optype="continuous"><Apply function="-"><FieldRef field="IADL_cat7_1"/><MapValues outputColumn="Means"><FieldColumnPair column="Name" constant="IADL_cat7_1_c"/><TableLocator location="taxonomy" name="means"/></MapValues></Apply></DerivedField><DerivedField name="IADL_cat7_2_c" optype="continuous"><Apply function="-"><FieldRef field="IADL_cat7_2"/><MapValues outputColumn="Means"><FieldColumnPair column="Name" constant="IADL_cat7_2_c"/><TableLocator location="taxonomy" name="means"/></MapValues></Apply></DerivedField><DerivedField 