<PMML version="2.1" 
    xmlns="http://www.dmg.org/PMML-4_2" 
    xmlns:xsi="http://www.w3.org/2001/XMLSchema-instance" xsi:schemaLocation="http://www.dmg.org/PMML-4_2 http://www.dmg.org/v4-2/pmml-4-2.xsd">
    <Header copyright="Copyright (c) 2016 The Ottawa Hospital" description="MPoRT Female V1.2.5">
        <Annotation>Mortality (all-cause) Population Risk Tool (MPoRT)                        
            <Extension name="author">Doug Manuel</Extension>
        </Annotation>
        <Extension name="user" value="theottawahospital" extender="COXPH"/>
        <Application name="COXPH" version="1.4"/>
        <Timestamp>2016-05-26 17:01:13</Timestamp>
    </Header>
    <DataDictionary numberOfFields="26">
        <DataField name="survival" optype="continuous" dataType="double"/>
        <DataField name="Age_cont" optype="continuous" dataType="double"/>
        <DataField name="Age_spline" optype="continuous" dataType="double"/>
        <DataField name="QSLightCont_df" optype="continuous" dataType="double"/>
        <DataField name="QSHeavyCont_df" optype="continuous" dataType="double"/>
        <DataField name="PhysicalActivity_cont" optype="continuous" dataType="double"/>
        <DataField name="DietScore_cont" optype="continuous" dataType="double"/>
        <DataField name="AlcoholHeavy_cat" optype="categorical" dataType="string"/>
        <DataField name="AlcoholMod_cat" optype="categorical" dataType="string"/>
        <DataField name="DepIndMod_cat" optype="categorical" dataType="string"/>
        <DataField name="DepIndHigh_cat" optype="categorical" dataType="string"/>
        <DataField name="EduNoGrad_cat" optype="categorical" dataType="string"/>
        <DataField name="EduHSGrad_cat" optype="categorical" dataType="string"/>
        <DataField name="Immig0To15_cat" optype="categorical" dataType="string"/>
        <DataField name="Immig16To30_cat" optype="categorical" dataType="string"/>
        <DataField name="Immig31To45_cat" optype="categorical" dataType="string"/>
        <DataField name="HeartDis_cat" optype="categorical" dataType="string"/>
        <DataField name="Stroke_cat" optype="categorical" dataType="string"/>
        <DataField name="Cancer_cat" optype="categorical" dataType="string"/>
        <DataField name="Diabetes_cat" optype="categorical" dataType="string"/>
        <DataField name="BMI_spline" optype="continuous" dataType="double"/>
        <DataField name="AgeXCancer_int" optype="continuous" dataType="double"/>
        <DataField name="AgeXDiabetes_int" optype="continuous" dataType="double"/>
        <DataField name="start" optype="continuous" dataType="double"/>
        <DataField name="stop" optype="continuous" dataType="double"/>
        <DataField name="EventDeath" optype="continuous" dataType="double"/>
    </DataDictionary>
    <GeneralRegressionModel modelType="CoxRegression" modelName="MPoRT_FemaleModel" functionName="regression" algorithmName="coxph" startTimeVariable="start" endTimeVariable="stop" statusVariable="EventDeath" baselineHazard="0.0000238108">
        <MiningSchema>
            <MiningField name="survival" usageType="predicted"/>
            <MiningField name="Age_cont" usageType="active"/>
            <MiningField name="Age_spline" usageType="active"/>
            <MiningField name="QSLightCont_df" usageType="active"/>
            <MiningField name="QSHeavyCont_df" usageType="active"/>
            <MiningField name="PhysicalActivity_cont" usageType="active"/>
            <MiningField name="DietScore_cont" usageType="active"/>
            <MiningField name="AlcoholHeavy_cat" usageType="active"/>
            <MiningField name="AlcoholMod_cat" usageType="active"/>
            <MiningField name="DepIndMod_cat" usageType="active"/>
            <MiningField name="DepIndHigh_cat" usageType="active"/>
            <MiningField name="EduNoGrad_cat" usageType="active"/>
            <MiningField name="EduHSGrad_cat" usageType="active"/>
            <MiningField name="Immig0To15_cat" usageType="active"/>
            <MiningField name="Immig16To30_cat" usageType="active"/>
            <MiningField name="Immig31To45_cat" usageType="active"/>
            <MiningField name="HeartDis_cat" usageType="active"/>
            <MiningField name="Stroke_cat" usageType="active"/>
            <MiningField name="Cancer_cat" usageType="active"/>
            <MiningField name="Diabetes_cat" usageType="active"/>
            <MiningField name="BMI_spline" usageType="active"/>
            <MiningField name="AgeXCancer_int" usageType="active"/>
            <MiningField name="AgeXDiabetesAge_int" usageType="active"/>
            <MiningField name="start" usageType="active"/>
            <MiningField name="stop" usageType="active"/>
            <MiningField name="EventDeath" usageType="active"/>
        </MiningSchema>
        <Output>
            <OutputField name="Predicted_survival" feature="predictedValue"/>
            <OutputField name="cumulativeHazard" feature="transformedValue">
                <Apply function="*">
                    <Constant>-1.0</Constant>
                    <Apply function="ln">
                        <FieldRef field="Predicted_survival"/>
                    </Apply>
                </Apply>
            </OutputField>
        </Output>
        <ParameterList>
            <Parameter name="p0" label="Age_cont" referencePoint="54.1488503875064"/>
            <Parameter name="p1" label="Age_spline" referencePoint="0.425166096111415"/>
            <Parameter name="p2" label="QSLightCont_df" referencePoint="0.254288098778076"/>
            <Parameter name="p3" label="QSHeavyCont_df" referencePoint="0.106537866589885"/>
            <Parameter name="p4" label="PhysicalActivity_cont" referencePoint="0.384627883292789"/>
            <Parameter name="p5" label="DietScore_cont" referencePoint="5.49853294572499"/>
            <Parameter name="p6" label="AlcoholHeavy_cat" referencePoint="0.0684543381661514"/>
            <Parameter name="p7" label="AlcoholMod_cat" referencePoint="0.209846533953671"/>
            <Parameter name="p8" label="DepIndMod_cat" referencePoint="0.635538114524882"/>
            <Parameter name="p9" label="DepIndHigh_cat" referencePoint="0.168108932006613"/>
            <Parameter name="p10" label="EduNoGrad_cat" referencePoint="0.186175149194564"/>
            <Parameter name="p11" label="EduHSGrad_cat" referencePoint="0.265105373462728"/>
            <Parameter name="p12" label="Immig0To15_cat" referencePoint="0.0375613833455229"/>
            <Parameter name="p13" label="Immig16To30_cat" referencePoint="0.0437872986411156"/>
            <Parameter name="p14" label="Immig31To45_cat" referencePoint="0.0547179900065762"/>
            <Parameter name="p15" label="HeartDis_cat" referencePoint="0.0668102785989539"/>
            <Parameter name="p16" label="Stroke_cat" referencePoint="0.0132262287424634"/>
            <Parameter name="p17" label="Cancer_cat" referencePoint="0.0222424357894866"/>
            <Parameter name="p18" label="Diabetes_cat" referencePoint="0.0636297147633476"/>
            <Parameter name="p19" label="BMI_spline" referencePoint="0.286680013767083"/>
            <Parameter name="p20" label="AgeXCancer_int" referencePoint="1.45539528108809"/>
            <Parameter name="p21" label="AgeXDiabetes_int" referencePoint="4.19181719286816"/>
        </ParameterList>
        <FactorList>
            <Predictor name="AlcoholHeavy_cat"/>
            <Predictor name="AlcoholMod_cat"/>
            <Predictor name="DepIndMod_cat"/>
            <Predictor name="DepIndHigh_cat"/>
            <Predictor name="EduNoGrad_cat"/>
            <Predictor name="EduHSGrad_cat"/>
            <Predictor name="Immig0To15_cat"/>
            <Predictor name="Immig16To30_cat"/>
            <Predictor name="Immig31To45_cat"/>
            <Predictor name="HeartDis_cat"/>
            <Predictor name="Stroke_cat"/>
            <Predictor name="Cancer_cat"/>
            <Predictor name="Diabetes_cat"/>
        </FactorList>
        <CovariateList>
            <Predictor name="Age_cont"/>
            <Predictor name="Age_spline"/>
            <Predictor name="QSLightCont_df"/>
            <Predictor name="QSHeavyCont_df"/>
            <Predictor name="PhysicalActivity_cont"/>
            <Predictor name="DietScore_cont"/>
            <Predictor name="BMI_spline"/>
            <Predictor name="AgeXCancer_int"/>
            <Predictor name="AgeXDiabetes_int"/>
            <Predictor name="AlcoholHeavy_cat"/>
            <Predictor name="AlcoholMod_cat"/>
            <Predictor name="DepIndMod_cat"/>
            <Predictor name="DepIndHigh_cat"/>
            <Predictor name="EduNoGrad_cat"/>
            <Predictor name="EduHSGrad_cat"/>
            <Predictor name="Immig0To15_cat"/>
            <Predictor name="Immig16To30_cat"/>
            <Predictor name="Immig31To45_cat"/>
            <Predictor name="HeartDis_cat"/>
            <Predictor name="Stroke_cat"/>
            <Predictor name="Cancer_cat"/>
            <Predictor name="Diabetes_cat"/>
        </CovariateList>
        <PPMatrix>
            <PPCell value="1" predictorName="Age_cont" parameterName="p0"/>
            <PPCell value="1" predictorName="Age_spline" parameterName="p1"/>
            <PPCell value="1" predictorName="QSLightCont_df" parameterName="p2"/>
            <PPCell value="1" predictorName="QSHeavyCont_df" parameterName="p3"/>
            <PPCell value="1" predictorName="PhysicalActivity_cont" parameterName="p4"/>
            <PPCell value="1" predictorName="DietScore_cont" parameterName="p5"/>
            <PPCell value="1" predictorName="AlcoholHeavy_cat" parameterName="p6"/>
            <PPCell value="1" predictorName="AlcoholMod_cat" parameterName="p7"/>
            <PPCell value="1" predictorName="DepIndMod_cat" parameterName="p8"/>
            <PPCell value="1" predictorName="DepIndHigh_cat" parameterName="p9"/>
            <PPCell value="1" predictorName="EduNoGrad_cat" parameterName="p10"/>
            <PPCell value="1" predictorName="EduHSGrad_cat" parameterName="p11"/>
            <PPCell value="1" predictorName="Immig0To15_cat" parameterName="p12"/>
            <PPCell value="1" predictorName="Immig16To30_cat" parameterName="p13"/>
            <PPCell value="1" predictorName="Immig31To45_cat" parameterName="p14"/>
            <PPCell value="1" predictorName="HeartDis_cat" parameterName="p15"/>
            <PPCell value="1" predictorName="Stroke_cat" parameterName="p16"/>
            <PPCell value="1" predictorName="Cancer_cat" parameterName="p17"/>
            <PPCell value="1" predictorName="Diabetes_cat" parameterName="p18"/>
            <PPCell value="1" predictorName="BMI_spline" parameterName="p19"/>
            <PPCell value="1" predictorName="AgeXCancer_int" parameterName="p20"/>
            <PPCell value="1" predictorName="AgeXDiabetes_int" parameterName="p21"/>
        </PPMatrix>
        <ParamMatrix>
            <PCell parameterName="p0" df="1" beta="0.0891888015031822"/>
            <PCell parameterName="p1" df="1" beta="0.0292179374194524"/>
            <PCell parameterName="p2" df="1" beta="0.806847255361553"/>
            <PCell parameterName="p3" df="1" beta="1.18030397927685"/>
            <PCell parameterName="p4" df="1" beta="-0.928355359618802"/>
            <PCell parameterName="p5" df="1" beta="-0.0436711994153916"/>
            <PCell parameterName="p6" df="1" beta="0.0797049709902844"/>
            <PCell parameterName="p7" df="1" beta="-0.200633770475874"/>
            <PCell parameterName="p8" df="1" beta="0.0465870069699607"/>
            <PCell parameterName="p9" df="1" beta="0.204884993101581"/>
            <PCell parameterName="p10" df="1" beta="0.063130759838211"/>
            <PCell parameterName="p11" df="1" beta="0.0327085901623164"/>
            <PCell parameterName="p12" df="1" beta="-0.604221147677245"/>
            <PCell parameterName="p13" df="1" beta="-0.226038245860603"/>
            <PCell parameterName="p14" df="1" beta="-0.132506130017869"/>
            <PCell parameterName="p15" df="1" beta="0.341870654935853"/>
            <PCell parameterName="p16" df="1" beta="0.235906455174582"/>
            <PCell parameterName="p17" df="1" beta="4.85671898618751"/>
            <PCell parameterName="p18" df="1" beta="1.16018072455526"/>
            <PCell parameterName="p19" df="1" beta="0.0240673793676962"/>
            <PCell parameterName="p20" df="1" beta="-0.0525599675753628"/>
            <PCell parameterName="p21" df="1" beta="-0.00942704419043476"/>
        </ParamMatrix>
        <BaseCumHazardTables maxTime="11">
            <BaselineCell time="1" cumHazard="0.00162888831994313"/>
            <BaselineCell time="2" cumHazard="0.00387081862898266"/>
            <BaselineCell time="3" cumHazard="0.00645247012367042"/>
            <BaselineCell time="4" cumHazard="0.00929257917964735"/>
            <BaselineCell time="5" cumHazard="0.0118055068777082"/>
            <BaselineCell time="6" cumHazard="0.0142938820233747"/>
            <BaselineCell time="7" cumHazard="0.0173234744780458"/>
            <BaselineCell time="8" cumHazard="0.0200271665284219"/>
            <BaselineCell time="9" cumHazard="0.0221487624873231"/>
            <BaselineCell time="10" cumHazard="0.0245495842069407"/>
            <BaselineCell time="11" cumHazard="0.0246691941896427"/>
        </BaseCumHazardTables>
    </GeneralRegressionModel>
</PMML>