<?xml version="1.0" encoding="UTF-8"?>
<PMML>
    <Header description="RESPECT-CCC">
        <Extension>
            <name>ModelName</name>
            <value>RESPECT-CCC</value>
        </Extension>
    </Header>
    <DataDictionary numberOfFields="178">
        <DataField name="AGE_rcs1_c" displayName="" optype="continuous" dataType="integer" X-shortLabel="" X-required="false" X-recommended="false">
            <Interval X-description="" closure="openOpen" leftMargin="" rightMargin=""/>
        </DataField>
        <DataField name="AGE_rcs2_c" displayName="" optype="continuous" dataType="integer" X-shortLabel="" X-required="false" X-recommended="false">
            <Interval X-description="" closure="closedClosed"/>
        </DataField>
        <DataField name="AGE_rcs3_c" displayName="" optype="continuous" dataType="integer" X-shortLabel="" X-required="false" X-recommended="false">
            <Interval X-description="" closure="closedClosed"/>
        </DataField>
        <DataField name="AGE_rcs4_c" displayName="" optype="continuous" dataType="integer" X-shortLabel="" X-required="false" X-recommended="false">
            <Interval X-description="" closure="closedClosed"/>
        </DataField>
        <DataField name="SEX_cat2_1_c" displayName="" optype="continuous" dataType="integer" X-shortLabel="" X-required="false" X-recommended="false">
            <Interval X-description="" closure="openOpen" leftMargin="" rightMargin=""/>
        </DataField>
        <DataField name="AB7_cat5_1_c" displayName="" optype="continuous" dataType="integer" X-shortLabel="" X-required="false" X-recommended="false">
            <Interval X-description="" closure="openOpen" leftMargin="" rightMargin=""/>
        </DataField>
        <DataField name="AB7_cat5_2_c" displayName="" optype="continuous" dataType="integer" X-shortLabel="" X-required="false" X-recommended="false">
            <Interval X-description="" closure="openOpen" leftMargin="" rightMargin=""/>
        </DataField>
        <DataField name="AB7_cat5_3_c" displayName="" optype="continuous" dataType="integer" X-shortLabel="" X-required="false" X-recommended="false">
            <Interval X-description="" closure="openOpen" leftMargin="" rightMargin=""/>
        </DataField>
        <DataField name="AB7_cat5_4_c" displayName="" optype="continuous" dataType="integer" X-shortLabel="" X-required="false" X-recommended="false">
            <Interval X-description="" closure="openOpen" leftMargin="" rightMargin=""/>
        </DataField>
        <DataField name="I1U_cat2_1_c" displayName="" optype="continuous" dataType="integer" X-shortLabel="" X-required="false" X-recommended="false">
            <Interval X-description="" closure="openOpen" leftMargin="" rightMargin=""/>
        </DataField>
        <DataField name="I1F_cat2_1_c" displayName="" optype="continuous" dataType="integer" X-shortLabel="" X-required="false" X-recommended="false">
            <Interval X-description="" closure="openOpen" leftMargin="" rightMargin=""/>
        </DataField>
        <DataField name="I1D_cat2_1_c" displayName="" optype="continuous" dataType="integer" X-shortLabel="" X-required="false" X-recommended="false">
            <Interval X-description="" closure="openOpen" leftMargin="" rightMargin=""/>
        </DataField>
        <DataField name="I1H_cat2_1_c" displayName="" optype="continuous" dataType="integer" X-shortLabel="" X-required="false" X-recommended="false">
            <Interval X-description="" closure="openOpen" leftMargin="" rightMargin=""/>
        </DataField>
        <DataField name="I1Y_cat2_1_c" displayName="" optype="continuous" dataType="integer" X-shortLabel="" X-required="false" X-recommended="false">
            <Interval X-description="" closure="openOpen" leftMargin="" rightMargin=""/>
        </DataField>
        <DataField name="I1AA_cat2_1_c" displayName="" optype="continuous" dataType="integer" X-shortLabel="" X-required="false" X-recommended="false">
            <Interval X-description="" closure="openOpen" leftMargin="" rightMargin=""/>
        </DataField>
        <DataField name="I1DE_cat2_1_c" displayName="" optype="continuous" dataType="integer" X-shortLabel="" X-required="false" X-recommended="false">
            <Interval X-description="" closure="openOpen" leftMargin="" rightMargin=""/>
        </DataField>
        <DataField name="CANCER_cat4_1_c" displayName="" optype="continuous" dataType="integer" X-shortLabel="" X-required="false" X-recommended="false">
            <Interval X-description="" closure="openOpen" leftMargin="" rightMargin=""/>
        </DataField>
        <DataField name="CANCER_cat4_2_c" displayName="" optype="continuous" dataType="integer" X-shortLabel="" X-required="false" X-recommended="false">
            <Interval X-description="" closure="openOpen" leftMargin="" rightMargin=""/>
        </DataField>
        <DataField name="CANCER_cat4_3_c" displayName="" optype="continuous" dataType="integer" X-shortLabel="" X-required="false" X-recommended="false">
            <Interval X-description="" closure="openOpen" leftMargin="" rightMargin=""/>
        </DataField>
        <DataField name="RENAL_cat4_1_c" displayName="" optype="continuous" dataType="integer" X-shortLabel="" X-required="false" X-recommended="false">
            <Interval X-description="" closure="openOpen" leftMargin="" rightMargin=""/>
        </DataField>
        <DataField name="RENAL_cat4_2_c" displayName="" optype="continuous" dataType="integer" X-shortLabel="" X-required="false" X-recommended="false">
            <Interval X-description="" closure="openOpen" leftMargin="" rightMargin=""/>
        </DataField>
        <DataField name="RENAL_cat4_3_c" displayName="" optype="continuous" dataType="integer" X-shortLabel="" X-required="false" X-recommended="false">
            <Interval X-description="" closure="openOpen" leftMargin="" rightMargin=""/>
        </DataField>
        <DataField name="OXYGEN_cat4_1_c" displayName="" optype="continuous" dataType="integer" X-shortLabel="" X-required="false" X-recommended="false">
            <Interval X-description="" closure="openOpen" leftMargin="" rightMargin=""/>
        </DataField>
        <DataField name="OXYGEN_cat4_2_c" displayName="" optype="continuous" dataType="integer" X-shortLabel="" X-required="false" X-recommended="false">
            <Interval X-description="" closure="openOpen" leftMargin="" rightMargin=""/>
        </DataField>
        <DataField name="OXYGEN_cat4_3_c" displayName="" optype="continuous" dataType="integer" X-shortLabel="" X-required="false" X-recommended="false">
            <Interval X-description="" closure="openOpen" leftMargin="" rightMargin=""/>
        </DataField>
        <DataField name="J1O_cat2_1_c" displayName="" optype="continuous" dataType="integer" X-shortLabel="" X-required="false" X-recommended="false">
            <Interval X-description="" closure="openOpen" leftMargin="" rightMargin=""/>
        </DataField>
        <DataField name="J1G_cat2_1_c" displayName="" optype="continuous" dataType="integer" X-shortLabel="" X-required="false" X-recommended="false">
            <Interval X-description="" closure="openOpen" leftMargin="" rightMargin=""/>
        </DataField>
        <DataField name="J1L_cat2_1_c" displayName="" optype="continuous" dataType="integer" X-shortLabel="" X-required="false" X-recommended="false">
            <Interval X-description="" closure="openOpen" leftMargin="" rightMargin=""/>
        </DataField>
        <DataField name="J1D_cat2_1_c" displayName="" optype="continuous" dataType="integer" X-shortLabel="" X-required="false" X-recommended="false">
            <Interval X-description="" closure="openOpen" leftMargin="" rightMargin=""/>
        </DataField>
        <DataField name="K3A_cat3_1_c" displayName="" optype="continuous" dataType="integer" X-shortLabel="" X-required="false" X-recommended="false">
            <Interval X-description="" closure="openOpen" leftMargin="" rightMargin=""/>
        </DataField>
        <DataField name="K3A_cat3_2_c" displayName="" optype="continuous" dataType="integer" X-shortLabel="" X-required="false" X-recommended="false">
            <Interval X-description="" closure="openOpen" leftMargin="" rightMargin=""/>
        </DataField>
        <DataField name="J5C_cat2_1_c" displayName="" optype="continuous" dataType="integer" X-shortLabel="" X-required="false" X-recommended="false">
            <Interval X-description="" closure="openOpen" leftMargin="" rightMargin=""/>
        </DataField>
        <DataField name="AA8_cat4_1_c" displayName="" optype="continuous" dataType="integer" X-shortLabel="" X-required="false" X-recommended="false">
            <Interval X-description="" closure="openOpen" leftMargin="" rightMargin=""/>
        </DataField>
        <DataField name="AA8_cat4_2_c" displayName="" optype="continuous" dataType="integer" X-shortLabel="" X-required="false" X-recommended="false">
            <Interval X-description="" closure="openOpen" leftMargin="" rightMargin=""/>
        </DataField>
        <DataField name="AA8_cat4_3_c" displayName="" optype="continuous" dataType="integer" X-shortLabel="" X-required="false" X-recommended="false">
            <Interval X-description="" closure="openOpen" leftMargin="" rightMargin=""/>
        </DataField>
        <DataField name="ADL_cat7_1_c" displayName="" optype="continuous" dataType="integer" X-shortLabel="" X-required="false" X-recommended="false">
            <Interval X-description="" closure="openOpen" leftMargin="" rightMargin=""/>
        </DataField>
        <DataField name="ADL_cat7_2_c" displayName="" optype="continuous" dataType="integer" X-shortLabel="" X-required="false" X-recommended="false">
            <Interval X-description="" closure="openOpen" leftMargin="" rightMargin=""/>
        </DataField>
        <DataField name="ADL_cat7_3_c" displayName="" optype="continuous" dataType="integer" X-shortLabel="" X-required="false" X-recommended="false">
            <Interval X-description="" closure="openOpen" leftMargin="" rightMargin=""/>
        </DataField>
        <DataField name="ADL_cat7_4_c" displayName="" optype="continuous" dataType="integer" X-shortLabel="" X-required="false" X-recommended="false">
            <Interval X-description="" closure="openOpen" leftMargin="" rightMargin=""/>
        </DataField>
        <DataField name="ADL_cat7_5_c" displayName="" optype="continuous" dataType="integer" X-shortLabel="" X-required="false" X-recommended="false">
            <Interval X-description="" closure="openOpen" leftMargin="" rightMargin=""/>
        </DataField>
        <DataField name="ADL_cat7_6_c" displayName="" optype="continuous" dataType="integer" X-shortLabel="" X-required="false" X-recommended="false">
            <Interval X-description="" closure="openOpen" leftMargin="" rightMargin=""/>
        </DataField>
        <DataField name="B6_cat2_1_c" displayName="" optype="continuous" dataType="integer" X-shortLabel="" X-required="false" X-recommended="false">
            <Interval X-description="" closure="openOpen" leftMargin="" rightMargin=""/>
        </DataField>
        <DataField name="G9_cat2_1_c" displayName="" optype="continuous" dataType="integer" X-shortLabel="" X-required="false" X-recommended="false">
            <Interval X-description="" closure="openOpen" leftMargin="" rightMargin=""/>
        </DataField>
        <DataField name="ASSESSDATE_cat8_1_c" displayName="" optype="continuous" dataType="integer" X-shortLabel="" X-required="false" X-recommended="false">
            <Interval X-description="" closure="openOpen" leftMargin="" rightMargin=""/>
        </DataField>
        <DataField name="ASSESSDATE_cat8_2_c" displayName="" optype="continuous" dataType="integer" X-shortLabel="" X-required="false" X-recommended="false">
            <Interval X-description="" closure="openOpen" leftMargin="" rightMargin=""/>
        </DataField>
        <DataField name="ASSESSDATE_cat8_3_c" displayName="" optype="continuous" dataType="integer" X-shortLabel="" X-required="false" X-recommended="false">
            <Interval X-description="" closure="openOpen" leftMargin="" rightMargin=""/>
        </DataField>
        <DataField name="ASSESSDATE_cat8_4_c" displayName="" optype="continuous" dataType="integer" X-shortLabel="" X-required="false" X-recommended="false">
            <Interval X-description="" closure="openOpen" leftMargin="" rightMargin=""/>
        </DataField>
        <DataField name="ASSESSDATE_cat8_5_c" displayName="" optype="continuous" dataType="integer" X-shortLabel="" X-required="false" X-recommended="false">
            <Interval X-description="" closure="openOpen" leftMargin="" rightMargin=""/>
        </DataField>
        <DataField name="ASSESSDATE_cat8_6_c" displayName="" optype="continuous" dataType="integer" X-shortLabel="" X-required="false" X-recommended="false">
            <Interval X-description="" closure="openOpen" leftMargin="" rightMargin=""/>
        </DataField>
        <DataField name="ASSESSDATE_cat8_7_c" displayName="" optype="continuous" dataType="integer" X-shortLabel="" X-required="false" X-recommended="false">
            <Interval X-description="" closure="openOpen" leftMargin="" rightMargin=""/>
        </DataField>
        <DataField name="meditech_birth_date_year" displayName="" optype="continuous" dataType="integer" X-shortLabel="" X-required="false" X-recommended="false">
            <Interval X-description="" closure="closedClosed"/>
        </DataField>
        <DataField name="AA3A" displayName="" optype="continuous" dataType="integer" X-shortLabel="" X-required="false" X-recommended="false">
            <Interval X-description="" closure="closedClosed"/>
        </DataField>
        <DataField name="current_year" displayName="" optype="continuous" dataType="integer" X-shortLabel="" X-required="false" X-recommended="false">
            <Interval X-description="" closure="closedClosed"/>
        </DataField>
        <DataField name="AGE" displayName="" optype="continuous" dataType="integer" X-shortLabel="" X-required="false" X-recommended="false">
            <Interval X-description="" closure="closedClosed"/>
        </DataField>
        <DataField name="SEX" displayName="" optype="continuous" dataType="integer" X-shortLabel="" X-required="false" X-recommended="false">
            <Interval X-description="" closure="closedClosed"/>
        </DataField>
        <DataField name="AA2" displayName="" optype="continuous" dataType="integer" X-shortLabel="" X-required="false" X-recommended="false">
            <Interval X-description="" closure="closedClosed"/>
        </DataField>
        <DataField name="AA8" displayName="" optype="continuous" dataType="integer" X-shortLabel="" X-required="false" X-recommended="false">
            <Interval X-description="" closure="closedClosed"/>
        </DataField>
        <DataField name="AA8FUL" displayName="" optype="continuous" dataType="integer" X-shortLabel="" X-required="false" X-recommended="false">
            <Interval X-description="" closure="closedClosed"/>
        </DataField>
        <DataField name="ASSESSDATE" displayName="" optype="continuous" dataType="integer" X-shortLabel="" X-required="false" X-recommended="false">
            <Interval X-description="" closure="closedClosed"/>
        </DataField>
        <DataField name="A3" displayName="" optype="continuous" dataType="integer" X-shortLabel="" X-required="false" X-recommended="false">
            <Interval X-description="" closure="closedClosed"/>
        </DataField>
        <DataField name="AGE_cont" displayName="" optype="continuous" dataType="integer" X-shortLabel="" X-required="false" X-recommended="false">
            <Interval X-description="" closure="closedClosed"/>
        </DataField>
        <DataField name="SEX_cat2" displayName="" optype="continuous" dataType="integer" X-shortLabel="" X-required="false" X-recommended="false">
            <Interval X-description="" closure="closedClosed"/>
        </DataField>
        <DataField name="AB7_cat5" displayName="" optype="continuous" dataType="integer" X-shortLabel="" X-required="false" X-recommended="false">
            <Interval X-description="" closure="closedClosed"/>
        </DataField>
        <DataField name="AB7" displayName="" optype="continuous" dataType="integer" X-shortLabel="" X-required="false" X-recommended="false">
            <Interval X-description="" closure="closedClosed"/>
        </DataField>
        <DataField name="I1U_cat2" displayName="" optype="continuous" dataType="integer" X-shortLabel="" X-required="false" X-recommended="false">
            <Interval X-description="" closure="closedClosed"/>
        </DataField>
        <DataField name="I1U" displayName="" optype="continuous" dataType="integer" X-shortLabel="" X-required="false" X-recommended="false">
            <Interval X-description="" closure="closedClosed"/>
        </DataField>
        <DataField name="I1F_cat2" displayName="" optype="continuous" dataType="integer" X-shortLabel="" X-required="false" X-recommended="false">
            <Interval X-description="" closure="closedClosed"/>
        </DataField>
        <DataField name="I1F" displayName="" optype="continuous" dataType="integer" X-shortLabel="" X-required="false" X-recommended="false">
            <Interval X-description="" closure="closedClosed"/>
        </DataField>
        <DataField name="I1H_cat2" displayName="" optype="continuous" dataType="integer" X-shortLabel="" X-required="false" X-recommended="false">
            <Interval X-description="" closure="closedClosed"/>
        </DataField>
        <DataField name="I1H" displayName="" optype="continuous" dataType="integer" X-shortLabel="" X-required="false" X-recommended="false">
            <Interval X-description="" closure="closedClosed"/>
        </DataField>
        <DataField name="I1Y_cat2" displayName="" optype="continuous" dataType="integer" X-shortLabel="" X-required="false" X-recommended="false">
            <Interval X-description="" closure="closedClosed"/>
        </DataField>
        <DataField name="I1Y" displayName="" optype="continuous" dataType="integer" X-shortLabel="" X-required="false" X-recommended="false">
            <Interval X-description="" closure="closedClosed"/>
        </DataField>
        <DataField name="I1AA_cat2" displayName="" optype="continuous" dataType="integer" X-shortLabel="" X-required="false" X-recommended="false">
            <Interval X-description="" closure="closedClosed"/>
        </DataField>
        <DataField name="I1AA" displayName="" optype="continuous" dataType="integer" X-shortLabel="" X-required="false" X-recommended="false">
            <Interval X-description="" closure="closedClosed"/>
        </DataField>
        <DataField name="I1V_cat2" displayName="" optype="continuous" dataType="integer" X-shortLabel="" X-required="false" X-recommended="false">
            <Interval X-description="" closure="closedClosed"/>
        </DataField>
        <DataField name="I1V" displayName="" optype="continuous" dataType="integer" X-shortLabel="" X-required="false" X-recommended="false">
            <Interval X-description="" closure="closedClosed"/>
        </DataField>
        <DataField name="I1R_cat2" displayName="" optype="continuous" dataType="integer" X-shortLabel="" X-required="false" X-recommended="false">
            <Interval X-description="" closure="closedClosed"/>
        </DataField>
        <DataField name="I1R" displayName="" optype="continuous" dataType="integer" X-shortLabel="" X-required="false" X-recommended="false">
            <Interval X-description="" closure="closedClosed"/>
        </DataField>
        <DataField name="I1DE_cat2" displayName="" optype="continuous" dataType="integer" X-shortLabel="" X-required="false" X-recommended="false">
            <Interval X-description="" closure="closedClosed"/>
        </DataField>
        <DataField name="P1AA_cat2" displayName="" optype="continuous" dataType="integer" X-shortLabel="" X-required="false" X-recommended="false">
            <Interval X-description="" closure="closedClosed"/>
        </DataField>
        <DataField name="P1AA" displayName="" optype="continuous" dataType="integer" X-shortLabel="" X-required="false" X-recommended="false">
            <Interval X-description="" closure="closedClosed"/>
        </DataField>
        <DataField name="I1RR_cat2" displayName="" optype="continuous" dataType="integer" X-shortLabel="" X-required="false" X-recommended="false">
            <Interval X-description="" closure="closedClosed"/>
        </DataField>
        <DataField name="I1RR" displayName="" optype="continuous" dataType="integer" X-shortLabel="" X-required="false" X-recommended="false">
            <Interval X-description="" closure="closedClosed"/>
        </DataField>
        <DataField name="CANCER_cat4" displayName="" optype="continuous" dataType="integer" X-shortLabel="" X-required="false" X-recommended="false">
            <Interval X-description="" closure="closedClosed"/>
        </DataField>
        <DataField name="I1UU_cat2" displayName="" optype="continuous" dataType="integer" X-shortLabel="" X-required="false" X-recommended="false">
            <Interval X-description="" closure="closedClosed"/>
        </DataField>
        <DataField name="I1UU" displayName="" optype="continuous" dataType="integer" X-shortLabel="" X-required="false" X-recommended="false">
            <Interval X-description="" closure="closedClosed"/>
        </DataField>
        <DataField name="P1AB_cat2" displayName="" optype="continuous" dataType="integer" X-shortLabel="" X-required="false" X-recommended="false">
            <Interval X-description="" closure="closedClosed"/>
        </DataField>
        <DataField name="P1AB" displayName="" optype="continuous" dataType="integer" X-shortLabel="" X-required="false" X-recommended="false">
            <Interval X-description="" closure="closedClosed"/>
        </DataField>
        <DataField name="RENAL_cat4" displayName="" optype="continuous" dataType="integer" X-shortLabel="" X-required="false" X-recommended="false">
            <Interval X-description="" closure="closedClosed"/>
        </DataField>
        <DataField name="I1JJ_cat2" displayName="" optype="continuous" dataType="integer" X-shortLabel="" X-required="false" X-recommended="false">
            <Interval X-description="" closure="closedClosed"/>
        </DataField>
        <DataField name="I1JJ" displayName="" optype="continuous" dataType="integer" X-shortLabel="" X-required="false" X-recommended="false">
            <Interval X-description="" closure="closedClosed"/>
        </DataField>
        <DataField name="I1KK_cat2" displayName="" optype="continuous" dataType="integer" X-shortLabel="" X-required="false" X-recommended="false">
            <Interval X-description="" closure="closedClosed"/>
        </DataField>
        <DataField name="I1KK" displayName="" optype="continuous" dataType="integer" X-shortLabel="" X-required="false" X-recommended="false">
            <Interval X-description="" closure="closedClosed"/>
        </DataField>
        <DataField name="I1Oxy_cat2" displayName="" optype="continuous" dataType="integer" X-shortLabel="" X-required="false" X-recommended="false">
            <Interval X-description="" closure="closedClosed"/>
        </DataField>
        <DataField name="P1AG_cat2" displayName="" optype="continuous" dataType="integer" X-shortLabel="" X-required="false" X-recommended="false">
            <Interval X-description="" closure="closedClosed"/>
        </DataField>
        <DataField name="P1AG" displayName="" optype="continuous" dataType="integer" X-shortLabel="" X-required="false" X-recommended="false">
            <Interval X-description="" closure="closedClosed"/>
        </DataField>
        <DataField name="P1AL_cat2" displayName="" optype="continuous" dataType="integer" X-shortLabel="" X-required="false" X-recommended="false">
            <Interval X-description="" closure="closedClosed"/>
        </DataField>
        <DataField name="P1AL" displayName="" optype="continuous" dataType="integer" X-shortLabel="" X-required="false" X-recommended="false">
            <Interval X-description="" closure="closedClosed"/>
        </DataField>
        <DataField name="P1Oxy_cat2" displayName="" optype="continuous" dataType="integer" X-shortLabel="" X-required="false" X-recommended="false">
            <Interval X-description="" closure="closedClosed"/>
        </DataField>
        <DataField name="OXYGEN_cat4" displayName="" optype="continuous" dataType="integer" X-shortLabel="" X-required="false" X-recommended="false">
            <Interval X-description="" closure="closedClosed"/>
        </DataField>
        <DataField name="J1O_cat2" displayName="" optype="continuous" dataType="integer" X-shortLabel="" X-required="false" X-recommended="false">
            <Interval X-description="" closure="closedClosed"/>
        </DataField>
        <DataField name="J1O" displayName="" optype="continuous" dataType="integer" X-shortLabel="" X-required="false" X-recommended="false">
            <Interval X-description="" closure="closedClosed"/>
        </DataField>
        <DataField name="J1G_cat2" displayName="" optype="continuous" dataType="integer" X-shortLabel="" X-required="false" X-recommended="false">
            <Interval X-description="" closure="closedClosed"/>
        </DataField>
        <DataField name="J1G" displayName="" optype="continuous" dataType="integer" X-shortLabel="" X-required="false" X-recommended="false">
            <Interval X-description="" closure="closedClosed"/>
        </DataField>
        <DataField name="J1L_cat2" displayName="" optype="continuous" dataType="integer" X-shortLabel="" X-required="false" X-recommended="false">
            <Interval X-description="" closure="closedClosed"/>
        </DataField>
        <DataField name="J1L" displayName="" optype="continuous" dataType="integer" X-shortLabel="" X-required="false" X-recommended="false">
            <Interval X-description="" closure="closedClosed"/>
        </DataField>
        <DataField name="J1D_cat2" displayName="" optype="continuous" dataType="integer" X-shortLabel="" X-required="false" X-recommended="false">
            <Interval X-description="" closure="closedClosed"/>
        </DataField>
        <DataField name="J1D" displayName="" optype="continuous" dataType="integer" X-shortLabel="" X-required="false" X-recommended="false">
            <Interval X-description="" closure="closedClosed"/>
        </DataField>
        <DataField name="K3A_cat3" displayName="" optype="continuous" dataType="integer" X-shortLabel="" X-required="false" X-recommended="false">
            <Interval X-description="" closure="closedClosed"/>
        </DataField>
        <DataField name="K3A" displayName="" optype="continuous" dataType="integer" X-shortLabel="" X-required="false" X-recommended="false">
            <Interval X-description="" closure="closedClosed"/>
        </DataField>
        <DataField name="J5C_cat2" displayName="" optype="continuous" dataType="integer" X-shortLabel="" X-required="false" X-recommended="false">
            <Interval X-description="" closure="closedClosed"/>
        </DataField>
        <DataField name="J5C" displayName="" optype="continuous" dataType="integer" X-shortLabel="" X-required="false" X-recommended="false">
            <Interval X-description="" closure="closedClosed"/>
        </DataField>
        <DataField name="AA8_cat4" displayName="" optype="continuous" dataType="integer" X-shortLabel="" X-required="false" X-recommended="false">
            <Interval X-description="" closure="closedClosed"/>
        </DataField>
        <DataField name="ADL_cat7" displayName="" optype="continuous" dataType="integer" X-shortLabel="" X-required="false" X-recommended="false">
            <Interval X-description="" closure="closedClosed"/>
        </DataField>
        <DataField name="ADL_hierarchy" displayName="" optype="continuous" dataType="integer" X-shortLabel="" X-required="false" X-recommended="false">
            <Interval X-description="" closure="closedClosed"/>
        </DataField>
        <DataField name="B6_cat2" displayName="" optype="continuous" dataType="integer" X-shortLabel="" X-required="false" X-recommended="false">
            <Interval X-description="" closure="closedClosed"/>
        </DataField>
        <DataField name="B6" displayName="" optype="continuous" dataType="integer" X-shortLabel="" X-required="false" X-recommended="false">
            <Interval X-description="" closure="closedClosed"/>
        </DataField>
        <DataField name="G9_cat2" displayName="" optype="continuous" dataType="integer" X-shortLabel="" X-required="false" X-recommended="false">
            <Interval X-description="" closure="closedClosed"/>
        </DataField>
        <DataField name="G9" displayName="" optype="continuous" dataType="integer" X-shortLabel="" X-required="false" X-recommended="false">
            <Interval X-description="" closure="closedClosed"/>
        </DataField>
        <DataField name="assessment_date_year" displayName="" optype="continuous" dataType="integer" X-shortLabel="" X-required="false" X-recommended="false">
            <Interval X-description="" closure="closedClosed"/>
        </DataField>
        <DataField name="ASSESSDATE_cat8" displayName="" optype="continuous" dataType="integer" X-shortLabel="" X-required="false" X-recommended="false">
            <Interval X-description="" closure="closedClosed"/>
        </DataField>
        <DataField name="SEX_cat2_1" displayName="" optype="continuous" dataType="integer" X-shortLabel="" X-required="false" X-recommended="false">
            <Interval X-description="" closure="closedClosed"/>
        </DataField>
        <DataField name="AB7_cat5_1" displayName="" optype="continuous" dataType="integer" X-shortLabel="" X-required="false" X-recommended="false">
            <Interval X-description="" closure="closedClosed"/>
        </DataField>
        <DataField name="AB7_cat5_2" displayName="" optype="continuous" dataType="integer" X-shortLabel="" X-required="false" X-recommended="false">
            <Interval X-description="" closure="closedClosed"/>
        </DataField>
        <DataField name="AB7_cat5_3" displayName="" optype="continuous" dataType="integer" X-shortLabel="" X-required="false" X-recommended="false">
            <Interval X-description="" closure="closedClosed"/>
        </DataField>
        <DataField name="AB7_cat5_4" displayName="" optype="continuous" dataType="integer" X-shortLabel="" X-required="false" X-recommended="false">
            <Interval X-description="" closure="closedClosed"/>
        </DataField>
        <DataField name="I1U_cat2_1" displayName="" optype="continuous" dataType="integer" X-shortLabel="" X-required="false" X-recommended="false">
            <Interval X-description="" closure="closedClosed"/>
        </DataField>
        <DataField name="I1F_cat2_1" displayName="" optype="continuous" dataType="integer" X-shortLabel="" X-required="false" X-recommended="false">
            <Interval X-description="" closure="closedClosed"/>
        </DataField>
        <DataField name="I1D_cat2_1" displayName="" optype="continuous" dataType="integer" X-shortLabel="" X-required="false" X-recommended="false">
            <Interval X-description="" closure="closedClosed"/>
        </DataField>
        <DataField name="I1D_cat2" displayName="" optype="continuous" dataType="integer" X-shortLabel="" X-required="false" X-recommended="false">
            <Interval X-description="" closure="closedClosed"/>
        </DataField>
        <DataField name="I1H_cat2_1" displayName="" optype="continuous" dataType="integer" X-shortLabel="" X-required="false" X-recommended="false">
            <Interval X-description="" closure="closedClosed"/>
        </DataField>
        <DataField name="I1Y_cat2_1" displayName="" optype="continuous" dataType="integer" X-shortLabel="" X-required="false" X-recommended="false">
            <Interval X-description="" closure="closedClosed"/>
        </DataField>
        <DataField name="I1AA_cat2_1" displayName="" optype="continuous" dataType="integer" X-shortLabel="" X-required="false" X-recommended="false">
            <Interval X-description="" closure="closedClosed"/>
        </DataField>
        <DataField name="I1DE_cat2_1" displayName="" optype="continuous" dataType="integer" X-shortLabel="" X-required="false" X-recommended="false">
            <Interval X-description="" closure="closedClosed"/>
        </DataField>
        <DataField name="CANCER_cat4_1" displayName="" optype="continuous" dataType="integer" X-shortLabel="" X-required="false" X-recommended="false">
            <Interval X-description="" closure="closedClosed"/>
        </DataField>
        <DataField name="CANCER_cat4_2" displayName="" optype="continuous" dataType="integer" X-shortLabel="" X-required="false" X-recommended="false">
            <Interval X-description="" closure="closedClosed"/>
        </DataField>
        <DataField name="CANCER_cat4_3" displayName="" optype="continuous" dataType="integer" X-shortLabel="" X-required="false" X-recommended="false">
            <Interval X-description="" closure="closedClosed"/>
        </DataField>
        <DataField name="RENAL_cat4_1" displayName="" optype="continuous" dataType="integer" X-shortLabel="" X-required="false" X-recommended="false">
            <Interval X-description="" closure="closedClosed"/>
        </DataField>
        <DataField name="RENAL_cat4_2" displayName="" optype="continuous" dataType="integer" X-shortLabel="" X-required="false" X-recommended="false">
            <Interval X-description="" closure="closedClosed"/>
        </DataField>
        <DataField name="RENAL_cat4_3" displayName="" optype="continuous" dataType="integer" X-shortLabel="" X-required="false" X-recommended="false">
            <Interval X-description="" closure="closedClosed"/>
        </DataField>
        <DataField name="OXYGEN_cat4_1" displayName="" optype="continuous" dataType="integer" X-shortLabel="" X-required="false" X-recommended="false">
            <Interval X-description="" closure="closedClosed"/>
        </DataField>
        <DataField name="OXYGEN_cat4_2" displayName="" optype="continuous" dataType="integer" X-shortLabel="" X-required="false" X-recommended="false">
            <Interval X-description="" closure="closedClosed"/>
        </DataField>
        <DataField name="OXYGEN_cat4_3" displayName="" optype="continuous" dataType="integer" X-shortLabel="" X-required="false" X-recommended="false">
            <Interval X-description="" closure="closedClosed"/>
        </DataField>
        <DataField name="J1O_cat2_1" displayName="" optype="continuous" dataType="integer" X-shortLabel="" X-required="false" X-recommended="false">
            <Interval X-description="" closure="closedClosed"/>
        </DataField>
        <DataField name="J1G_cat2_1" displayName="" optype="continuous" dataType="integer" X-shortLabel="" X-required="false" X-recommended="false">
            <Interval X-description="" closure="closedClosed"/>
        </DataField>
        <DataField name="J1L_cat2_1" displayName="" optype="continuous" dataType="integer" X-shortLabel="" X-required="false" X-recommended="false">
            <Interval X-description="" closure="closedClosed"/>
        </DataField>
        <DataField name="J1D_cat2_1" displayName="" optype="continuous" dataType="integer" X-shortLabel="" X-required="false" X-recommended="false">
            <Interval X-description="" closure="closedClosed"/>
        </DataField>
        <DataField name="K3A_cat2_1" displayName="" optype="continuous" dataType="integer" X-shortLabel="" X-required="false" X-recommended="false">
            <Interval X-description="" closure="closedClosed"/>
        </DataField>
        <DataField name="K3A_cat2" displayName="" optype="continuous" dataType="integer" X-shortLabel="" X-required="false" X-recommended="false">
            <Interval X-description="" closure="closedClosed"/>
        </DataField>
        <DataField name="K3A_cat2_2" displayName="" optype="continuous" dataType="integer" X-shortLabel="" X-required="false" X-recommended="false">
            <Interval X-description="" closure="closedClosed"/>
        </DataField>
        <DataField name="J5C_cat2_1" displayName="" optype="continuous" dataType="integer" X-shortLabel="" X-required="false" X-recommended="false">
            <Interval X-description="" closure="closedClosed"/>
        </DataField>
        <DataField name="AA8_cat4_1" displayName="" optype="continuous" dataType="integer" X-shortLabel="" X-required="false" X-recommended="false">
            <Interval X-description="" closure="closedClosed"/>
        </DataField>
        <DataField name="AA8_cat4_2" displayName="" optype="continuous" dataType="integer" X-shortLabel="" X-required="false" X-recommended="false">
            <Interval X-description="" closure="closedClosed"/>
        </DataField>
        <DataField name="AA8_cat4_3" displayName="" optype="continuous" dataType="integer" X-shortLabel="" X-required="false" X-recommended="false">
            <Interval X-description="" closure="closedClosed"/>
        </DataField>
        <DataField name="ADL_cat7_1" displayName="" optype="continuous" dataType="integer" X-shortLabel="" X-required="false" X-recommended="false">
            <Interval X-description="" closure="closedClosed"/>
        </DataField>
        <DataField name="ADL_cat7_2" displayName="" optype="continuous" dataType="integer" X-shortLabel="" X-required="false" X-recommended="false">
            <Interval X-description="" closure="closedClosed"/>
        </DataField>
        <DataField name="ADL_cat7_3" displayName="" optype="continuous" dataType="integer" X-shortLabel="" X-required="false" X-recommended="false">
            <Interval X-description="" closure="closedClosed"/>
        </DataField>
        <DataField name="ADL_cat7_4" displayName="" optype="continuous" dataType="integer" X-shortLabel="" X-required="false" X-recommended="false">
            <Interval X-description="" closure="closedClosed"/>
        </DataField>
        <DataField name="ADL_cat7_5" displayName="" optype="continuous" dataType="integer" X-shortLabel="" X-required="false" X-recommended="false">
            <Interval X-description="" closure="closedClosed"/>
        </DataField>
        <DataField name="ADL_cat7_6" displayName="" optype="continuous" dataType="integer" X-shortLabel="" X-required="false" X-recommended="false">
            <Interval X-description="" closure="closedClosed"/>
        </DataField>
        <DataField name="B6_cat2_1" displayName="" optype="continuous" dataType="integer" X-shortLabel="" X-required="false" X-recommended="false">
            <Interval X-description="" closure="closedClosed"/>
        </DataField>
        <DataField name="G9_cat2_1" displayName="" optype="continuous" dataType="integer" X-shortLabel="" X-required="false" X-recommended="false">
            <Interval X-description="" closure="closedClosed"/>
        </DataField>
        <DataField name="ASSESSDATE_cat7_1" displayName="" optype="continuous" dataType="integer" X-shortLabel="" X-required="false" X-recommended="false">
            <Interval X-description="" closure="closedClosed"/>
        </DataField>
        <DataField name="ASSESSDATE_cat7" displayName="" optype="continuous" dataType="integer" X-shortLabel="" X-required="false" X-recommended="false">
            <Interval X-description="" closure="closedClosed"/>
        </DataField>
        <DataField name="ASSESSDATE_cat7_2" displayName="" optype="continuous" dataType="integer" X-shortLabel="" X-required="false" X-recommended="false">
            <Interval X-description="" closure="closedClosed"/>
        </DataField>
        <DataField name="ASSESSDATE_cat7_3" displayName="" optype="continuous" dataType="integer" X-shortLabel="" X-required="false" X-recommended="false">
            <Interval X-description="" closure="closedClosed"/>
        </DataField>
        <DataField name="ASSESSDATE_cat7_4" displayName="" optype="continuous" dataType="integer" X-shortLabel="" X-required="false" X-recommended="false">
            <Interval X-description="" closure="closedClosed"/>
        </DataField>
        <DataField name="ASSESSDATE_cat7_5" displayName="" optype="continuous" dataType="integer" X-shortLabel="" X-required="false" X-recommended="false">
            <Interval X-description="" closure="closedClosed"/>
        </DataField>
        <DataField name="ASSESSDATE_cat7_6" displayName="" optype="continuous" dataType="integer" X-shortLabel="" X-required="false" X-recommended="false">
            <Interval X-description="" closure="closedClosed"/>
        </DataField>
        <DataField name="AGE_rcs1" displayName="" optype="continuous" dataType="integer" X-shortLabel="" X-required="false" X-recommended="false">
            <Interval X-description="" closure="closedClosed"/>
        </DataField>
        <DataField name="K3A_cat2_1_c" displayName="" optype="continuous" dataType="integer" X-shortLabel="" X-required="false" X-recommended="false">
            <Interval X-description="" closure="closedClosed"/>
        </DataField>
        <DataField name="K3A_cat2_2_c" displayName="" optype="continuous" dataType="integer" X-shortLabel="" X-required="false" X-recommended="false">
            <Interval X-description="" closure="closedClosed"/>
        </DataField>
        <DataField name="ASSESSDATE_cat7_1_c" displayName="" optype="continuous" dataType="integer" X-shortLabel="" X-required="false" X-recommended="false">
            <Interval X-description="" closure="closedClosed"/>
        </DataField>
        <DataField name="ASSESSDATE_cat7_2_c" displayName="" optype="continuous" dataType="integer" X-shortLabel="" X-required="false" X-recommended="false">
            <Interval X-description="" closure="closedClosed"/>
        </DataField>
        <DataField name="ASSESSDATE_cat7_3_c" displayName="" optype="continuous" dataType="integer" X-shortLabel="" X-required="false" X-recommended="false">
            <Interval X-description="" closure="closedClosed"/>
        </DataField>
        <DataField name="ASSESSDATE_cat7_4_c" displayName="" optype="continuous" dataType="integer" X-shortLabel="" X-required="false" X-recommended="false">
            <Interval X-description="" closure="closedClosed"/>
        </DataField>
        <DataField name="ASSESSDATE_cat7_5_c" displayName="" optype="continuous" dataType="integer" X-shortLabel="" X-required="false" X-recommended="false">
            <Interval X-description="" closure="closedClosed"/>
        </DataField>
        <DataField name="ASSESSDATE_cat7_6_c" displayName="" optype="continuous" dataType="integer" X-shortLabel="" X-required="false" X-recommended="false">
            <Interval X-description="" closure="closedClosed"/>
        </DataField>
    </DataDictionary>
    <LocalTransformations>
        <DerivedField name="meditech_birth_date_year" optype="continuous">
            <Apply function="format">
                <Apply function="as.Date">
                    <FieldRef field="AA3A"/>
                    <Constant dataType="string">%d-%m-%Y</Constant>
                </Apply>
                <Constant dataType="string">%Y</Constant>
            </Apply>
        </DerivedField>
        <DerivedField name="current_year" optype="continuous">
            <Apply function="format">
                <Apply function="Sys.Date"/>
                <Constant dataType="string">%Y</Constant>
            </Apply>
        </DerivedField>
        <DerivedField name="AGE" optype="continuous">
            <Apply function="-">
                <Apply function="as.numeric">
                    <FieldRef field="current_year"/>
                </Apply>
                <Apply function="as.numeric">
                    <FieldRef field="meditech_birth_date_year"/>
                </Apply>
            </Apply>
        </DerivedField>
        <DerivedField name="SEX" optype="continuous">
            <FieldRef field="AA2"/>
        </DerivedField>
        <DerivedField name="AA8" optype="continuous">
            <FieldRef field="AA8FUL"/>
        </DerivedField>
        <DerivedField name="ASSESSDATE" optype="continuous">
            <FieldRef field="A3"/>
        </DerivedField>
        <DefineFunction name="chronic_cond.func">
            <ParameterField name="chronic_cond" dataType="double"/>
            <Apply function="ifelse">
                <Apply function="is.na">
                    <FieldRef field="chronic_cond"/>
                </Apply>
                <Constant dataType="double">0</Constant>
                <FieldRef field="chronic_cond"/>
            </Apply>
        </DefineFunction>
        <DefineFunction name="disease_and_treatment.func(combined)">
            <ParameterField name="disease" dataType="double"/>
            <ParameterField name="treatment" dataType="double"/>
            <Apply function="ifelse">
                <Apply function="and">
                    <Apply function="equal">
                        <FieldRef field="disease"/>
                        <Constant dataType="double">0</Constant>
                    </Apply>
                    <Apply function="equal">
                        <FieldRef field="treatment"/>
                        <Constant dataType="double">0</Constant>
                    </Apply>
                </Apply>
                <Constant dataType="double">0</Constant>
                <Apply function="ifelse">
                    <Apply function="and">
                        <Apply function="equal">
                            <FieldRef field="disease"/>
                            <Constant dataType="double">0</Constant>
                        </Apply>
                        <Apply function="equal">
                            <FieldRef field="treatment"/>
                            <Constant dataType="double">1</Constant>
                        </Apply>
                    </Apply>
                    <Constant dataType="double">1</Constant>
                    <Apply function="ifelse">
                        <Apply function="and">
                            <Apply function="equal">
                                <FieldRef field="disease"/>
                                <Constant dataType="double">1</Constant>
                            </Apply>
                            <Apply function="equal">
                                <FieldRef field="treatment"/>
                                <Constant dataType="double">0</Constant>
                            </Apply>
                        </Apply>
                        <Constant dataType="double">2</Constant>
                        <Apply function="ifelse">
                            <Apply function="and">
                                <Apply function="equal">
                                    <FieldRef field="disease"/>
                                    <Constant dataType="double">1</Constant>
                                </Apply>
                                <Apply function="equal">
                                    <FieldRef field="treatment"/>
                                    <Constant dataType="double">1</Constant>
                                </Apply>
                            </Apply>
                            <Constant dataType="double">3</Constant>
                            <Constant dataType="NA">NA</Constant>
                        </Apply>
                    </Apply>
                </Apply>
            </Apply>
        </DefineFunction>
        <DefineFunction name="disease_and_treatment.func">
            <ParameterField name="disease" dataType="double"/>
            <ParameterField name="treatment" dataType="double"/>
            <Apply function="disease_and_treatment.func(combined)">
                <FieldRef field="disease"/>
                <FieldRef field="treatment"/>
            </Apply>
        </DefineFunction>
        <DefineFunction name="special_treatment.func">
            <ParameterField name="special_treat" dataType="double"/>
            <Apply function="ifelse">
                <Apply function="equal">
                    <FieldRef field="special_treat"/>
                    <Constant dataType="double">0</Constant>
                </Apply>
                <Constant dataType="double">0</Constant>
                <Apply function="ifelse">
                    <Apply function="equal">
                        <FieldRef field="special_treat"/>
                        <Constant dataType="double">1</Constant>
                    </Apply>
                    <Constant dataType="double">1</Constant>
                    <Constant dataType="NA">NA</Constant>
                </Apply>
            </Apply>
        </DefineFunction>
        <DefineFunction name="signs_symptoms.func">
            <ParameterField name="sign" dataType="double"/>
            <Apply function="ifelse">
                <Apply function="equal">
                    <FieldRef field="sign"/>
                    <Constant dataType="double">0</Constant>
                </Apply>
                <Constant dataType="double">0</Constant>
                <Apply function="equal">
                    <Apply function="ifelse">
                        <FieldRef field="sign"/>
                    </Apply>
                    <Constant dataType="double">1</Constant>
                </Apply>
                <Constant dataType="double">1</Constant>
                <Constant dataType="NA">NA</Constant>
            </Apply>
        </DefineFunction>
        <DerivedField name="AGE_cont" optype="continuous">
            <FieldRef field="AGE"/>
        </DerivedField>
        <DerivedField name="SEX_cat2" optype="continuous">
            <Apply function="ifelse">
                <Apply function="equal">
                    <FieldRef field="SEX"/>
                    <Constant dataType="double">0</Constant>
                </Apply>
                <Constant dataType="double">0</Constant>
                <Apply function="ifelse">
                    <Apply function="equal">
                        <FieldRef field="SEX"/>
                        <Constant dataType="double">1</Constant>
                    </Apply>
                </Apply>
                <Constant dataType="double">1</Constant>
                <Constant dataType="NA">NA</Constant>
            </Apply>
        </DerivedField>
        <DerivedField name="AB7_cat5" optype="continuous">
            <Apply function="ifelse">
                <Apply function="and">
                    <Apply function="greaterOrEqual">
                        <FieldRef field="AB7"/>
                        <Constant dataType="double">1</Constant>
                    </Apply>
                    <Apply function="lessOrEqual">
                        <FieldRef field="AB7"/>
                        <Constant dataType="double">3</Constant>
                    </Apply>
                </Apply>
                <Constant dataType="double">0</Constant>
                <Apply function="ifelse">
                    <Apply function="equal">
                        <FieldRef field="AB7"/>
                        <Constant dataType="double">4</Constant>
                    </Apply>
                    <Constant dataType="double">1</Constant>
                    <Apply function="ifelse">
                        <Apply function="equal">
                            <FieldRef field="AB7"/>
                            <Constant dataType="double">5</Constant>
                        </Apply>
                        <Constant dataType="double">2</Constant>
                        <Apply function="ifelse">
                            <Apply function="and">
                                <Apply function="greaterOrEqual">
                                    <FieldRef field="AB7"/>
                                    <Constant dataType="double">6</Constant>
                                </Apply>
                                <Apply function="lessOrEqual">
                                    <FieldRef field="AB7"/>
                                    <Constant dataType="double">8</Constant>
                                </Apply>
                            </Apply>
                            <Constant dataType="double">3</Constant>
                            <Apply function="ifelse">
                                <Apply function="or">
                                    <Apply function="is.na">
                                        <FieldRef field="AB7"/>
                                    </Apply>
                                    <Apply function="equal">
                                        <FieldRef field="AB7"/>
                                        <Constant dataType="double">9</Constant>
                                    </Apply>
                                </Apply>
                                <Constant dataType="double">4</Constant>
                                <Constant dataType="NA">NA</Constant>
                            </Apply>
                        </Apply>
                    </Apply>
                </Apply>
            </Apply>
        </DerivedField>
        <DerivedField name="I1U_cat2" optype="continuous">
            <Apply function="chronic_cond.func">
                <FieldRef field="I1U"/>
            </Apply>
        </DerivedField>
        <DerivedField name="I1F_cat2" optype="continuous">
            <Apply function="chronic_cond.func">
                <FieldRef field="I1F"/>
            </Apply>
        </DerivedField>
        <DerivedField name="I1H_cat2" optype="continuous">
            <Apply function="chronic_cond.func">
                <FieldRef field="I1H"/>
            </Apply>
        </DerivedField>
        <DerivedField name="I1Y_cat2" optype="continuous">
            <Apply function="chronic_cond.func">
                <FieldRef field="I1Y"/>
            </Apply>
        </DerivedField>
        <DerivedField name="I1AA_cat2" optype="continuous">
            <Apply function="chronic_cond.func">
                <FieldRef field="I1AA"/>
            </Apply>
        </DerivedField>
        <DerivedField name="I1V_cat2" optype="continuous">
            <Apply function="chronic_cond.func">
                <FieldRef field="I1V"/>
            </Apply>
        </DerivedField>
        <DerivedField name="I1R_cat2" optype="continuous">
            <Apply function="chronic_cond.func">
                <FieldRef field="I1R"/>
            </Apply>
        </DerivedField>
        <DerivedField name="I1DE_cat2" optype="continuous">
            <Apply function="ifelse">
                <Apply function="greaterOrEqual">
                    <Apply function="max">
                        <FieldRef field="I1V_cat2"/>
                        <FieldRef field="I1R_cat2"/>
                    </Apply>
                    <Constant dataType="double">1</Constant>
                </Apply>
                <Constant dataType="double">1</Constant>
                <Constant dataType="double">0</Constant>
            </Apply>
        </DerivedField>
        <DerivedField name="P1AA_cat2" optype="continuous">
            <Apply function="special_treatment.func">
                <FieldRef field="P1AA"/>
            </Apply>
        </DerivedField>
        <DerivedField name="I1RR_cat2" optype="continuous">
            <Apply function="chronic_cond.func">
                <FieldRef field="I1RR"/>
            </Apply>
        </DerivedField>
        <DerivedField name="CANCER_cat4" optype="continuous">
            <Apply function="disease_and_treatment.func">
                <FieldRef field="I1RR_cat2"/>
                <FieldRef field="P1AA_cat2"/>
            </Apply>
        </DerivedField>
        <DerivedField name="I1UU_cat2" optype="continuous">
            <Apply function="ifelse">
                <Apply function="is.na">
                    <FieldRef field="I1UU"/>
                </Apply>
                <Constant dataType="double">0</Constant>
                <FieldRef field="I1UU"/>
            </Apply>
        </DerivedField>
        <DerivedField name="P1AB_cat2" optype="continuous">
            <Apply function="special_treatment.func">
                <FieldRef field="P1AB"/>
            </Apply>
        </DerivedField>
        <DerivedField name="RENAL_cat4" optype="continuous">
            <Apply function="disease_and_treatment.func">
                <FieldRef field="I1UU_cat2"/>
                <FieldRef field="P1AB_cat2"/>
            </Apply>
        </DerivedField>
        <DerivedField name="I1JJ_cat2" optype="continuous">
            <Apply function="chronic_cond.func">
                <FieldRef field="I1JJ"/>
            </Apply>
        </DerivedField>
        <DerivedField name="I1KK_cat2" optype="continuous">
            <Apply function="chronic_cond.func">
                <FieldRef field="I1KK"/>
            </Apply>
        </DerivedField>
        <DerivedField name="I1Oxy_cat2" optype="continuous">
            <Apply function="ifelse">
                <Apply function="greaterOrEqual">
                    <Apply function="max">
                        <FieldRef field="I1JJ_cat2"/>
                        <FieldRef field="I1KK_cat2"/>
                    </Apply>
                    <Constant dataType="double">1</Constant>
                </Apply>
                <Constant dataType="double">1</Constant>
                <Constant dataType="double">0</Constant>
            </Apply>
        </DerivedField>
        <DerivedField name="P1AG_cat2" optype="continuous">
            <Apply function="special_treatment.func">
                <FieldRef field="P1AG"/>
            </Apply>
        </DerivedField>
        <DerivedField name="P1AL_cat2" optype="continuous">
            <Apply function="special_treatment.func">
                <FieldRef field="P1AL"/>
            </Apply>
        </DerivedField>
        <DerivedField name="P1Oxy_cat2" optype="continuous">
            <Apply function="max">
                <FieldRef field="P1AG_cat2"/>
                <FieldRef field="P1AL_cat2"/>
            </Apply>
        </DerivedField>
        <DerivedField name="OXYGEN_cat4" optype="continuous">
            <Apply function="disease_and_treatment.func">
                <FieldRef field="I1Oxy_cat2"/>
                <FieldRef field="P1Oxy_cat2"/>
            </Apply>
        </DerivedField>
        <DerivedField name="J1O_cat2" optype="continuous">
            <Apply function="signs_symptoms.func">
                <FieldRef field="J1O"/>
            </Apply>
        </DerivedField>
        <DerivedField name="J1G_cat2" optype="continuous">
            <Apply function="signs_symptoms.func">
                <FieldRef field="J1G"/>
            </Apply>
        </DerivedField>
        <DerivedField name="J1L_cat2" optype="continuous">
            <Apply function="signs_symptoms.func">
                <FieldRef field="J1L"/>
            </Apply>
        </DerivedField>
        <DerivedField name="J1D_cat2" optype="continuous">
            <Apply function="signs_symptoms.func">
                <FieldRef field="J1D"/>
            </Apply>
        </DerivedField>
        <DerivedField name="K3A_cat3" optype="continuous">
            <Apply function="ifelse">
                <Apply function="equal">
                    <FieldRef field="K3A"/>
                    <Constant dataType="double">0</Constant>
                </Apply>
                <Constant dataType="double">0</Constant>
                <Apply function="ifelse">
                    <Apply function="equal">
                        <FieldRef field="K3A"/>
                        <Constant dataType="double">1</Constant>
                    </Apply>
                    <Constant dataType="double">1</Constant>
                    <Apply function="ifelse">
                        <Apply function="or">
                            <Apply function="is.na">
                                <FieldRef field="K3A"/>
                            </Apply>
                            <Apply function="equal">
                                <FieldRef field="K3A"/>
                                <Constant dataType="double">9</Constant>
                            </Apply>
                        </Apply>
                        <Constant dataType="double">2</Constant>
                        <Constant dataType="NA">NA</Constant>
                    </Apply>
                </Apply>
            </Apply>
        </DerivedField>
        <DerivedField name="J5C_cat2" optype="continuous">
            <Apply function="signs_symptoms.func">
                <FieldRef field="J5C"/>
            </Apply>
        </DerivedField>
        <DerivedField name="AA8_cat4" optype="continuous">
            <Apply function="ifelse">
                <Apply function="equal">
                    <FieldRef field="AA8"/>
                    <Constant dataType="double">1</Constant>
                </Apply>
                <Constant dataType="double">0</Constant>
                <Apply function="ifelse">
                    <Apply function="equal">
                        <FieldRef field="AA8"/>
                        <Constant dataType="double">2</Constant>
                    </Apply>
                    <Constant dataType="double">1</Constant>
                    <Apply function="ifelse">
                        <Apply function="equal">
                            <FieldRef field="AA8"/>
                            <Constant dataType="double">3</Constant>
                        </Apply>
                        <Constant dataType="double">2</Constant>
                        <Apply function="ifelse">
                            <Apply function="equal">
                                <FieldRef field="AA8"/>
                                <Constant dataType="double">5</Constant>
                            </Apply>
                            <Constant dataType="double">3</Constant>
                            <Constant dataType="NA">NA</Constant>
                        </Apply>
                    </Apply>
                </Apply>
            </Apply>
        </DerivedField>
        <DerivedField name="ADL_cat7" optype="continuous">
            <FieldRef field="ADL_hierarchy"/>
        </DerivedField>
        <DerivedField name="B6_cat2" optype="continuous">
            <Apply function="ifelse">
                <Apply function="or">
                    <Apply function="lessOrEqual">
                        <FieldRef field="B6"/>
                        <Constant dataType="double">1</Constant>
                    </Apply>
                    <Apply function="equal">
                        <FieldRef field="B6"/>
                        <Constant dataType="double">8</Constant>
                    </Apply>
                </Apply>
                <Constant dataType="double">0</Constant>
                <Apply function="ifelse">
                    <Apply function="equal">
                        <FieldRef field="B6"/>
                        <Constant dataType="double">2</Constant>
                    </Apply>
                    <Constant dataType="double">1</Constant>
                    <Constant dataType="NA">NA</Constant>
                </Apply>
            </Apply>
        </DerivedField>
        <DerivedField name="G9_cat2" optype="continuous">
            <Apply function="ifelse">
                <Apply function="and">
                    <Apply function="greaterOrEqual">
                        <FieldRef field="G9"/>
                        <Constant dataType="double">0</Constant>
                    </Apply>
                    <Apply function="lessOrEqual">
                        <FieldRef field="G9"/>
                        <Constant dataType="double">1</Constant>
                    </Apply>
                </Apply>
                <Constant dataType="double">0</Constant>
                <Apply function="ifelse">
                    <Apply function="equal">
                        <FieldRef field="G9"/>
                        <Constant dataType="double">2</Constant>
                    </Apply>
                    <Constant dataType="double">1</Constant>
                    <Constant dataType="NA">NA</Constant>
                </Apply>
            </Apply>
        </DerivedField>
        <DerivedField name="assessment_date_year" optype="continuous">
            <Apply function="format">
                <Apply function="as.Date">
                    <FieldRef field="ASSESSDATE"/>
                    <Constant dataType="string">%d-%m-%Y</Constant>
                </Apply>
                <Constant dataType="string">%Y</Constant>
            </Apply>
        </DerivedField>
        <DerivedField name="ASSESSDATE_cat8" optype="continuous">
            <Apply function="ifelse">
                <Apply function="equal">
                    <FieldRef field="assessment_date_year"/>
                    <Constant dataType="string">2010</Constant>
                </Apply>
                <Constant dataType="double">0</Constant>
                <Apply function="ifelse">
                    <Apply function="equal">
                        <FieldRef field="assessment_date_year"/>
                        <Constant dataType="string">2011</Constant>
                    </Apply>
                    <Constant dataType="double">1</Constant>
                    <Apply function="ifelse">
                        <Apply function="equal">
                            <FieldRef field="assessment_date_year"/>
                            <Constant dataType="string">2012</Constant>
                        </Apply>
                        <Constant dataType="double">2</Constant>
                        <Apply function="ifelse">
                            <Apply function="equal">
                                <FieldRef field="assessment_date_year"/>
                                <Constant dataType="string">2013</Constant>
                            </Apply>
                            <Constant dataType="double">3</Constant>
                            <Apply function="ifelse">
                                <Apply function="equal">
                                    <FieldRef field="assessment_date_year"/>
                                    <Constant dataType="string">2014</Constant>
                                </Apply>
                                <Constant dataType="double">4</Constant>
                                <Apply function="ifelse">
                                    <Apply function="equal">
                                        <FieldRef field="assessment_date_year"/>
                                        <Constant dataType="string">2015</Constant>
                                    </Apply>
                                    <Constant dataType="double">5</Constant>
                                    <Apply function="ifelse">
                                        <Apply function="equal">
                                            <FieldRef field="assessment_date_year"/>
                                            <Constant dataType="string">2016</Constant>
                                        </Apply>
                                        <Constant dataType="double">6</Constant>
                                        <Apply function="ifelse">
                                            <Apply function="equal">
                                                <FieldRef field="assessment_date_year"/>
                                                <Constant dataType="string">2017</Constant>
                                            </Apply>
                                            <Constant dataType="double">7</Constant>
                                            <Constant dataType="NA">NA</Constant>
                                        </Apply>
                                    </Apply>
                                </Apply>
                            </Apply>
                        </Apply>
                    </Apply>
                </Apply>
            </Apply>
        </DerivedField>
        <DerivedField name="SEX_cat2_1" optype="continuous">
            <Apply function="ifelse">
                <Apply function="is.na">
                    <FieldRef field="SEX_cat2"/>
                </Apply>
                <Constant dataType="NA">NA</Constant>
                <Apply function="ifelse">
                    <Apply function="equal">
                        <FieldRef field="SEX_cat2"/>
                        <Constant dataType="double">1</Constant>
                    </Apply>
                    <Constant dataType="double">1</Constant>
                    <Constant dataType="double">0</Constant>
                </Apply>
            </Apply>
        </DerivedField>
        <DerivedField name="AB7_cat5_1" optype="continuous">
            <Apply function="ifelse">
                <Apply function="is.na">
                    <FieldRef field="AB7_cat5"/>
                </Apply>
                <Constant dataType="NA">NA</Constant>
                <Apply function="ifelse">
                    <Apply function="equal">
                        <FieldRef field="AB7_cat5"/>
                        <Constant dataType="double">1</Constant>
                    </Apply>
                    <Constant dataType="double">1</Constant>
                    <Constant dataType="double">0</Constant>
                </Apply>
            </Apply>
        </DerivedField>
        <DerivedField name="AB7_cat5_2" optype="continuous">
            <Apply function="ifelse">
                <Apply function="is.na">
                    <FieldRef field="AB7_cat5"/>
                </Apply>
                <Constant dataType="NA">NA</Constant>
                <Apply function="ifelse">
                    <Apply function="equal">
                        <FieldRef field="AB7_cat5"/>
                        <Constant dataType="double">2</Constant>
                    </Apply>
                    <Constant dataType="double">1</Constant>
                    <Constant dataType="double">0</Constant>
                </Apply>
            </Apply>
        </DerivedField>
        <DerivedField name="AB7_cat5_3" optype="continuous">
            <Apply function="ifelse">
                <Apply function="is.na">
                    <FieldRef field="AB7_cat5"/>
                </Apply>
                <Constant dataType="NA">NA</Constant>
                <Apply function="ifelse">
                    <Apply function="equal">
                        <FieldRef field="AB7_cat5"/>
                        <Constant dataType="double">3</Constant>
                    </Apply>
                    <Constant dataType="double">1</Constant>
                    <Constant dataType="double">0</Constant>
                </Apply>
            </Apply>
        </DerivedField>
        <DerivedField name="AB7_cat5_4" optype="continuous">
            <Apply function="ifelse">
                <Apply function="is.na">
                    <FieldRef field="AB7_cat5"/>
                </Apply>
                <Constant dataType="NA">NA</Constant>
                <Apply function="ifelse">
                    <Apply function="equal">
                        <FieldRef field="AB7_cat5"/>
                        <Constant dataType="double">4</Constant>
                    </Apply>
                    <Constant dataType="double">1</Constant>
                    <Constant dataType="double">0</Constant>
                </Apply>
            </Apply>
        </DerivedField>
        <DerivedField name="I1U_cat2_1" optype="continuous">
            <Apply function="ifelse">
                <Apply function="is.na">
                    <FieldRef field="I1U_cat2"/>
                </Apply>
                <Constant dataType="NA">NA</Constant>
                <Apply function="ifelse">
                    <Apply function="equal">
                        <FieldRef field="I1U_cat2"/>
                        <Constant dataType="double">1</Constant>
                    </Apply>
                    <Constant dataType="double">1</Constant>
                    <Constant dataType="double">0</Constant>
                </Apply>
            </Apply>
        </DerivedField>
        <DerivedField name="I1F_cat2_1" optype="continuous">
            <Apply function="ifelse">
                <Apply function="is.na">
                    <FieldRef field="I1F_cat2"/>
                </Apply>
                <Constant dataType="NA">NA</Constant>
                <Apply function="ifelse">
                    <Apply function="equal">
                        <FieldRef field="I1F_cat2"/>
                        <Constant dataType="double">1</Constant>
                    </Apply>
                    <Constant dataType="double">1</Constant>
                    <Constant dataType="double">0</Constant>
                </Apply>
            </Apply>
        </DerivedField>
        <DerivedField name="I1D_cat2_1" optype="continuous">
            <Apply function="ifelse">
                <Apply function="is.na">
                    <FieldRef field="I1D_cat2"/>
                </Apply>
                <Constant dataType="NA">NA</Constant>
                <Apply function="ifelse">
                    <Apply function="equal">
                        <FieldRef field="I1D_cat2"/>
                        <Constant dataType="double">1</Constant>
                    </Apply>
                    <Constant dataType="double">1</Constant>
                    <Constant dataType="double">0</Constant>
                </Apply>
            </Apply>
        </DerivedField>
        <DerivedField name="I1H_cat2_1" optype="continuous">
            <Apply function="ifelse">
                <Apply function="is.na">
                    <FieldRef field="I1H_cat2"/>
                </Apply>
                <Constant dataType="NA">NA</Constant>
                <Apply function="ifelse">
                    <Apply function="equal">
                        <FieldRef field="I1H_cat2"/>
                        <Constant dataType="double">1</Constant>
                    </Apply>
                    <Constant dataType="double">1</Constant>
                    <Constant dataType="double">0</Constant>
                </Apply>
            </Apply>
        </DerivedField>
        <DerivedField name="I1Y_cat2_1" optype="continuous">
            <Apply function="ifelse">
                <Apply function="is.na">
                    <FieldRef field="I1Y_cat2"/>
                </Apply>
                <Constant dataType="NA">NA</Constant>
                <Apply function="ifelse">
                    <Apply function="equal">
                        <FieldRef field="I1Y_cat2"/>
                        <Constant dataType="double">1</Constant>
                    </Apply>
                    <Constant dataType="double">1</Constant>
                    <Constant dataType="double">0</Constant>
                </Apply>
            </Apply>
        </DerivedField>
        <DerivedField name="I1AA_cat2_1" optype="continuous">
            <Apply function="ifelse">
                <Apply function="is.na">
                    <FieldRef field="I1AA_cat2"/>
                </Apply>
                <Constant dataType="NA">NA</Constant>
                <Apply function="ifelse">
                    <Apply function="equal">
                        <FieldRef field="I1AA_cat2"/>
                        <Constant dataType="double">1</Constant>
                    </Apply>
                    <Constant dataType="double">1</Constant>
                    <Constant dataType="double">0</Constant>
                </Apply>
            </Apply>
        </DerivedField>
        <DerivedField name="I1DE_cat2_1" optype="continuous">
            <Apply function="ifelse">
                <Apply function="is.na">
                    <FieldRef field="I1DE_cat2"/>
                </Apply>
                <Constant dataType="NA">NA</Constant>
                <Apply function="ifelse">
                    <Apply function="equal">
                        <FieldRef field="I1DE_cat2"/>
                        <Constant dataType="double">1</Constant>
                    </Apply>
                    <Constant dataType="double">1</Constant>
                    <Constant dataType="double">0</Constant>
                </Apply>
            </Apply>
        </DerivedField>
        <DerivedField name="CANCER_cat4_1" optype="continuous">
            <Apply function="ifelse">
                <Apply function="is.na">
                    <FieldRef field="CANCER_cat4"/>
                </Apply>
                <Constant dataType="NA">NA</Constant>
                <Apply function="ifelse">
                    <Apply function="equal">
                        <FieldRef field="CANCER_cat4"/>
                        <Constant dataType="double">1</Constant>
                    </Apply>
                    <Constant dataType="double">1</Constant>
                    <Constant dataType="double">0</Constant>
                </Apply>
            </Apply>
        </DerivedField>
        <DerivedField name="CANCER_cat4_2" optype="continuous">
            <Apply function="ifelse">
                <Apply function="is.na">
                    <FieldRef field="CANCER_cat4"/>
                </Apply>
                <Constant dataType="NA">NA</Constant>
                <Apply function="ifelse">
                    <Apply function="equal">
                        <FieldRef field="CANCER_cat4"/>
                        <Constant dataType="double">2</Constant>
                    </Apply>
                    <Constant dataType="double">1</Constant>
                    <Constant dataType="double">0</Constant>
                </Apply>
            </Apply>
        </DerivedField>
        <DerivedField name="CANCER_cat4_3" optype="continuous">
            <Apply function="ifelse">
                <Apply function="is.na">
                    <FieldRef field="CANCER_cat4"/>
                </Apply>
                <Constant dataType="NA">NA</Constant>
                <Apply function="ifelse">
                    <Apply function="equal">
                        <FieldRef field="CANCER_cat4"/>
                        <Constant dataType="double">3</Constant>
                    </Apply>
                    <Constant dataType="double">1</Constant>
                    <Constant dataType="double">0</Constant>
                </Apply>
            </Apply>
        </DerivedField>
        <DerivedField name="RENAL_cat4_1" optype="continuous">
            <Apply function="ifelse">
                <Apply function="is.na">
                    <FieldRef field="RENAL_cat4"/>
                </Apply>
                <Constant dataType="NA">NA</Constant>
                <Apply function="ifelse">
                    <Apply function="equal">
                        <FieldRef field="RENAL_cat4"/>
                        <Constant dataType="double">1</Constant>
                    </Apply>
                    <Constant dataType="double">1</Constant>
                    <Constant dataType="double">0</Constant>
                </Apply>
            </Apply>
        </DerivedField>
        <DerivedField name="RENAL_cat4_2" optype="continuous">
            <Apply function="ifelse">
                <Apply function="is.na">
                    <FieldRef field="RENAL_cat4"/>
                </Apply>
                <Constant dataType="NA">NA</Constant>
                <Apply function="ifelse">
                    <Apply function="equal">
                        <FieldRef field="RENAL_cat4"/>
                        <Constant dataType="double">2</Constant>
                    </Apply>
                    <Constant dataType="double">1</Constant>
                    <Constant dataType="double">0</Constant>
                </Apply>
            </Apply>
        </DerivedField>
        <DerivedField name="RENAL_cat4_3" optype="continuous">
            <Apply function="ifelse">
                <Apply function="is.na">
                    <FieldRef field="RENAL_cat4"/>
                </Apply>
                <Constant dataType="NA">NA</Constant>
                <Apply function="ifelse">
                    <Apply function="equal">
                        <FieldRef field="RENAL_cat4"/>
                        <Constant dataType="double">3</Constant>
                    </Apply>
                    <Constant dataType="double">1</Constant>
                    <Constant dataType="double">0</Constant>
                </Apply>
            </Apply>
        </DerivedField>
        <DerivedField name="OXYGEN_cat4_1" optype="continuous">
            <Apply function="ifelse">
                <Apply function="is.na">
                    <FieldRef field="OXYGEN_cat4"/>
                </Apply>
                <Constant dataType="NA">NA</Constant>
                <Apply function="ifelse">
                    <Apply function="equal">
                        <FieldRef field="OXYGEN_cat4"/>
                        <Constant dataType="double">1</Constant>
                    </Apply>
                    <Constant dataType="double">1</Constant>
                    <Constant dataType="double">0</Constant>
                </Apply>
            </Apply>
        </DerivedField>
        <DerivedField name="OXYGEN_cat4_2" optype="continuous">
            <Apply function="ifelse">
                <Apply function="is.na">
                    <FieldRef field="OXYGEN_cat4"/>
                </Apply>
                <Constant dataType="NA">NA</Constant>
                <Apply function="ifelse">
                    <Apply function="equal">
                        <FieldRef field="OXYGEN_cat4"/>
                        <Constant dataType="double">2</Constant>
                    </Apply>
                    <Constant dataType="double">1</Constant>
                    <Constant dataType="double">0</Constant>
                </Apply>
            </Apply>
        </DerivedField>
        <DerivedField name="OXYGEN_cat4_3" optype="continuous">
            <Apply function="ifelse">
                <Apply function="is.na">
                    <FieldRef field="OXYGEN_cat4"/>
                </Apply>
                <Constant dataType="NA">NA</Constant>
                <Apply function="ifelse">
                    <Apply function="equal">
                        <FieldRef field="OXYGEN_cat4"/>
                        <Constant dataType="double">3</Constant>
                    </Apply>
                    <Constant dataType="double">1</Constant>
                    <Constant dataType="double">0</Constant>
                </Apply>
            </Apply>
        </DerivedField>
        <DerivedField name="J1O_cat2_1" optype="continuous">
            <Apply function="ifelse">
                <Apply function="is.na">
                    <FieldRef field="J1O_cat2"/>
                </Apply>
                <Constant dataType="NA">NA</Constant>
                <Apply function="ifelse">
                    <Apply function="equal">
                        <FieldRef field="J1O_cat2"/>
                        <Constant dataType="double">1</Constant>
                    </Apply>
                    <Constant dataType="double">1</Constant>
                    <Constant dataType="double">0</Constant>
                </Apply>
            </Apply>
        </DerivedField>
        <DerivedField name="J1G_cat2_1" optype="continuous">
            <Apply function="ifelse">
                <Apply function="is.na">
                    <FieldRef field="J1G_cat2"/>
                </Apply>
                <Constant dataType="NA">NA</Constant>
                <Apply function="ifelse">
                    <Apply function="equal">
                        <FieldRef field="J1G_cat2"/>
                        <Constant dataType="double">1</Constant>
                    </Apply>
                    <Constant dataType="double">1</Constant>
                    <Constant dataType="double">0</Constant>
                </Apply>
            </Apply>
        </DerivedField>
        <DerivedField name="J1L_cat2_1" optype="continuous">
            <Apply function="ifelse">
                <Apply function="is.na">
                    <FieldRef field="J1L_cat2"/>
                </Apply>
                <Constant dataType="NA">NA</Constant>
                <Apply function="ifelse">
                    <Apply function="equal">
                        <FieldRef field="J1L_cat2"/>
                        <Constant dataType="double">1</Constant>
                    </Apply>
                    <Constant dataType="double">1</Constant>
                    <Constant dataType="double">0</Constant>
                </Apply>
            </Apply>
        </DerivedField>
        <DerivedField name="J1D_cat2_1" optype="continuous">
            <Apply function="ifelse">
                <Apply function="is.na">
                    <FieldRef field="J1D_cat2"/>
                </Apply>
                <Constant dataType="NA">NA</Constant>
                <Apply function="ifelse">
                    <Apply function="equal">
                        <FieldRef field="J1D_cat2"/>
                        <Constant dataType="double">1</Constant>
                    </Apply>
                    <Constant dataType="double">1</Constant>
                    <Constant dataType="double">0</Constant>
                </Apply>
            </Apply>
        </DerivedField>
        <DerivedField name="K3A_cat2_1" optype="continuous">
            <Apply function="ifelse">
                <Apply function="is.na">
                    <FieldRef field="K3A_cat2"/>
                </Apply>
                <Constant dataType="NA">NA</Constant>
                <Apply function="ifelse">
                    <Apply function="equal">
                        <FieldRef field="K3A_cat2"/>
                        <Constant dataType="double">1</Constant>
                    </Apply>
                    <Constant dataType="double">1</Constant>
                    <Constant dataType="double">0</Constant>
                </Apply>
            </Apply>
        </DerivedField>
        <DerivedField name="K3A_cat2_2" optype="continuous">
            <Apply function="ifelse">
                <Apply function="is.na">
                    <FieldRef field="K3A_cat2"/>
                </Apply>
                <Constant dataType="NA">NA</Constant>
                <Apply function="ifelse">
                    <Apply function="equal">
                        <FieldRef field="K3A_cat2"/>
                        <Constant dataType="double">1</Constant>
                    </Apply>
                    <Constant dataType="double">2</Constant>
                    <Constant dataType="double">0</Constant>
                </Apply>
            </Apply>
        </DerivedField>
        <DerivedField name="J5C_cat2_1" optype="continuous">
            <Apply function="ifelse">
                <Apply function="is.na">
                    <FieldRef field="J5C_cat2"/>
                </Apply>
                <Constant dataType="NA">NA</Constant>
                <Apply function="ifelse">
                    <Apply function="equal">
                        <FieldRef field="J5C_cat2"/>
                        <Constant dataType="double">1</Constant>
                    </Apply>
                    <Constant dataType="double">1</Constant>
                    <Constant dataType="double">0</Constant>
                </Apply>
            </Apply>
        </DerivedField>
        <DerivedField name="AA8_cat4_1" optype="continuous">
            <Apply function="ifelse">
                <Apply function="is.na">
                    <FieldRef field="AA8_cat4"/>
                </Apply>
                <Constant dataType="NA">NA</Constant>
                <Apply function="ifelse">
                    <Apply function="equal">
                        <FieldRef field="AA8_cat4"/>
                        <Constant dataType="double">1</Constant>
                    </Apply>
                    <Constant dataType="double">1</Constant>
                    <Constant dataType="double">0</Constant>
                </Apply>
            </Apply>
        </DerivedField>
        <DerivedField name="AA8_cat4_2" optype="continuous">
            <Apply function="ifelse">
                <Apply function="is.na">
                    <FieldRef field="AA8_cat4"/>
                </Apply>
                <Constant dataType="NA">NA</Constant>
                <Apply function="ifelse">
                    <Apply function="equal">
                        <FieldRef field="AA8_cat4"/>
                        <Constant dataType="double">2</Constant>
                    </Apply>
                    <Constant dataType="double">1</Constant>
                    <Constant dataType="double">0</Constant>
                </Apply>
            </Apply>
        </DerivedField>
        <DerivedField name="AA8_cat4_3" optype="continuous">
            <Apply function="ifelse">
                <Apply function="is.na">
                    <FieldRef field="AA8_cat4"/>
                </Apply>
                <Constant dataType="NA">NA</Constant>
                <Apply function="ifelse">
                    <Apply function="equal">
                        <FieldRef field="AA8_cat4"/>
                        <Constant dataType="double">3</Constant>
                    </Apply>
                    <Constant dataType="double">1</Constant>
                    <Constant dataType="double">0</Constant>
                </Apply>
            </Apply>
        </DerivedField>
        <DerivedField name="ADL_cat7_1" optype="continuous">
            <Apply function="ifelse">
                <Apply function="is.na">
                    <FieldRef field="ADL_cat7"/>
                </Apply>
                <Constant dataType="NA">NA</Constant>
                <Apply function="ifelse">
                    <Apply function="equal">
                        <FieldRef field="ADL_cat7"/>
                        <Constant dataType="double">1</Constant>
                    </Apply>
                    <Constant dataType="double">1</Constant>
                    <Constant dataType="double">0</Constant>
                </Apply>
            </Apply>
        </DerivedField>
        <DerivedField name="ADL_cat7_2" optype="continuous">
            <Apply function="ifelse">
                <Apply function="is.na">
                    <FieldRef field="ADL_cat7"/>
                </Apply>
                <Constant dataType="NA">NA</Constant>
                <Apply function="ifelse">
                    <Apply function="equal">
                        <FieldRef field="ADL_cat7"/>
                        <Constant dataType="double">2</Constant>
                    </Apply>
                    <Constant dataType="double">1</Constant>
                    <Constant dataType="double">0</Constant>
                </Apply>
            </Apply>
        </DerivedField>
        <DerivedField name="ADL_cat7_3" optype="continuous">
            <Apply function="ifelse">
                <Apply function="is.na">
                    <FieldRef field="ADL_cat7"/>
                </Apply>
                <Constant dataType="NA">NA</Constant>
                <Apply function="ifelse">
                    <Apply function="equal">
                        <FieldRef field="ADL_cat7"/>
                        <Constant dataType="double">3</Constant>
                    </Apply>
                    <Constant dataType="double">1</Constant>
                    <Constant dataType="double">0</Constant>
                </Apply>
            </Apply>
        </DerivedField>
        <DerivedField name="ADL_cat7_4" optype="continuous">
            <Apply function="ifelse">
                <Apply function="is.na">
                    <FieldRef field="ADL_cat7"/>
                </Apply>
                <Constant dataType="NA">NA</Constant>
                <Apply function="ifelse">
                    <Apply function="equal">
                        <FieldRef field="ADL_cat7"/>
                        <Constant dataType="double">4</Constant>
                    </Apply>
                    <Constant dataType="double">1</Constant>
                    <Constant dataType="double">0</Constant>
                </Apply>
            </Apply>
        </DerivedField>
        <DerivedField name="ADL_cat7_5" optype="continuous">
            <Apply function="ifelse">
                <Apply function="is.na">
                    <FieldRef field="ADL_cat7"/>
                </Apply>
                <Constant dataType="NA">NA</Constant>
                <Apply function="ifelse">
                    <Apply function="equal">
                        <FieldRef field="ADL_cat7"/>
                        <Constant dataType="double">5</Constant>
                    </Apply>
                    <Constant dataType="double">1</Constant>
                    <Constant dataType="double">0</Constant>
                </Apply>
            </Apply>
        </DerivedField>
        <DerivedField name="ADL_cat7_6" optype="continuous">
            <Apply function="ifelse">
                <Apply function="is.na">
                    <FieldRef field="ADL_cat7"/>
                </Apply>
                <Constant dataType="NA">NA</Constant>
                <Apply function="ifelse">
                    <Apply function="equal">
                        <FieldRef field="ADL_cat7"/>
                        <Constant dataType="double">6</Constant>
                    </Apply>
                    <Constant dataType="double">1</Constant>
                    <Constant dataType="double">0</Constant>
                </Apply>
            </Apply>
        </DerivedField>
        <DerivedField name="B6_cat2_1" optype="continuous">
            <Apply function="ifelse">
                <Apply function="is.na">
                    <FieldRef field="B6_cat2"/>
                </Apply>
                <Constant dataType="NA">NA</Constant>
                <Apply function="ifelse">
                    <Apply function="equal">
                        <FieldRef field="B6_cat2"/>
                        <Constant dataType="double">1</Constant>
                    </Apply>
                    <Constant dataType="double">1</Constant>
                    <Constant dataType="double">0</Constant>
                </Apply>
            </Apply>
        </DerivedField>
        <DerivedField name="G9_cat2_1" optype="continuous">
            <Apply function="ifelse">
                <Apply function="is.na">
                    <FieldRef field="G9_cat2"/>
                </Apply>
                <Constant dataType="NA">NA</Constant>
                <Apply function="ifelse">
                    <Apply function="equal">
                        <FieldRef field="G9_cat2"/>
                        <Constant dataType="double">1</Constant>
                    </Apply>
                    <Constant dataType="double">1</Constant>
                    <Constant dataType="double">0</Constant>
                </Apply>
            </Apply>
        </DerivedField>
        <DerivedField name="ASSESSDATE_cat7_1" optype="continuous">
            <Apply function="ifelse">
                <Apply function="is.na">
                    <FieldRef field="ASSESSDATE_cat7"/>
                </Apply>
                <Constant dataType="NA">NA</Constant>
                <Apply function="ifelse">
                    <Apply function="equal">
                        <FieldRef field="ASSESSDATE_cat7"/>
                        <Constant dataType="double">1</Constant>
                    </Apply>
                    <Constant dataType="double">1</Constant>
                    <Constant dataType="double">0</Constant>
                </Apply>
            </Apply>
        </DerivedField>
        <DerivedField name="ASSESSDATE_cat7_2" optype="continuous">
            <Apply function="ifelse">
                <Apply function="is.na">
                    <FieldRef field="ASSESSDATE_cat7"/>
                </Apply>
                <Constant dataType="NA">NA</Constant>
                <Apply function="ifelse">
                    <Apply function="equal">
                        <FieldRef field="ASSESSDATE_cat7"/>
                        <Constant dataType="double">2</Constant>
                    </Apply>
                    <Constant dataType="double">1</Constant>
                    <Constant dataType="double">0</Constant>
                </Apply>
            </Apply>
        </DerivedField>
        <DerivedField name="ASSESSDATE_cat7_3" optype="continuous">
            <Apply function="ifelse">
                <Apply function="is.na">
                    <FieldRef field="ASSESSDATE_cat7"/>
                </Apply>
                <Constant dataType="NA">NA</Constant>
                <Apply function="ifelse">
                    <Apply function="equal">
                        <FieldRef field="ASSESSDATE_cat7"/>
                        <Constant dataType="double">3</Constant>
                    </Apply>
                    <Constant dataType="double">1</Constant>
                    <Constant dataType="double">0</Constant>
                </Apply>
            </Apply>
        </DerivedField>
        <DerivedField name="ASSESSDATE_cat7_4" optype="continuous">
            <Apply function="ifelse">
                <Apply function="is.na">
                    <FieldRef field="ASSESSDATE_cat7"/>
                </Apply>
                <Constant dataType="NA">NA</Constant>
                <Apply function="ifelse">
                    <Apply function="equal">
                        <FieldRef field="ASSESSDATE_cat7"/>
